
//<![CDATA[

// a few things don't have var in front of them - they update already existing variables the game needs
lanesSide = 1;
patchesAhead = 10;
patchesBehind = 8;
trainIterations = 200000;

// the number of other autonomous vehicles controlled by your network
otherAgents = 0; // max of 10

var num_inputs = (lanesSide * 2 + 1) * (patchesAhead + patchesBehind);
var num_actions = 5;
var temporal_window = 3;
var network_size = num_inputs * temporal_window + num_actions * temporal_window + num_inputs;

var layer_defs = [];
    layer_defs.push({
    type: 'input',
    out_sx: 1,
    out_sy: 1,
    out_depth: network_size
});
layer_defs.push({
    type: 'fc',
    num_neurons: 30,
    activation: 'tanh'
});
layer_defs.push({
    type: 'fc',
    num_neurons: 40,
    activation: 'relu'
});
layer_defs.push({
    type: 'regression',
    num_neurons: num_actions
});

var tdtrainer_options = {
    learning_rate: 0.001,
    momentum: 0.0,
    batch_size: 64,
    l2_decay: 0.01
};

var opt = {};
opt.temporal_window = temporal_window;
opt.experience_size = 3000;
opt.start_learn_threshold = 700;
opt.gamma = 0.7;
opt.learning_steps_total = 10000;
opt.learning_steps_burnin = 1000;
opt.epsilon_min = 0.0;
opt.epsilon_test_time = 0.0;
opt.layer_defs = layer_defs;
opt.tdtrainer_options = tdtrainer_options;

brain = new deepqlearn.Brain(num_inputs, num_actions, opt);

learn = function (state, lastReward) {
brain.backward(lastReward);
var action = brain.forward(state);

draw_net();
draw_stats();

return action;
}

//]]>

/*###########*/
if (brain) {
brain.value_net.fromJSON({"layers":[{"out_depth":231,"out_sx":1,"out_sy":1,"layer_type":"input"},{"out_depth":30,"out_sx":1,"out_sy":1,"layer_type":"fc","num_inputs":231,"l1_decay_mul":0,"l2_decay_mul":1,"filters":[{"sx":1,"sy":1,"depth":231,"w":{"0":0.0007170045513681213,"1":0.023354940178603737,"2":0.030349808535578095,"3":-0.0007968919146527761,"4":0.050229008953743076,"5":0.06150235659608246,"6":-0.13041687397207752,"7":0.06796270085243271,"8":-0.18096545497556224,"9":0.10219772601341023,"10":-0.18063558359930282,"11":-0.011418005583841664,"12":-0.1066219318469414,"13":-0.15681708734687685,"14":-0.08520523120142907,"15":0.019384238723775444,"16":-0.09752017301924382,"17":0.013711482517806652,"18":-0.03539782867996835,"19":-0.22327373503331385,"20":0.015951417003766028,"21":-0.109693505702503,"22":0.013344434815030897,"23":-0.02834614609400379,"24":-0.1133684384745671,"25":0.11052053349758097,"26":-0.20098226682141257,"27":0.06623459206416807,"28":0.06836538929556621,"29":0.05146767598025072,"30":-0.06460583312439792,"31":0.012075990976223642,"32":-0.12325082319277172,"33":-0.02484036997978309,"34":0.06263859054060296,"35":0.05909569483248341,"36":-0.05854233381976967,"37":-0.11702714491112505,"38":0.029446264278509538,"39":-0.08011448231181298,"40":-0.02143116185292995,"41":-0.13099278501245232,"42":-0.10317942435986177,"43":-0.016475258561276945,"44":0.08616781437973905,"45":0.015144751744576378,"46":0.059373732983190354,"47":-0.08990254107536774,"48":0.00930366853310592,"49":-0.06050986086142463,"50":-0.0034737597692276073,"51":-0.07032217259885352,"52":-0.12570135347194186,"53":0.07800170651086699,"54":0.07601587517422548,"55":0.0080907233283996,"56":-0.09025142881666176,"57":0.035195793367540196,"58":-0.06980689867973977,"59":-0.19975503382458118,"60":-0.004320914564607168,"61":-0.008034035809289653,"62":0.03449389228107272,"63":-0.07372712917807304,"64":-0.09278372628567787,"65":-0.013196733968092293,"66":-0.06473491385194825,"67":-0.06158476610791061,"68":0.01921878681666102,"69":-0.01385560972974225,"70":-0.1374554927678656,"71":-0.08506924662246991,"72":-0.011638216310341655,"73":0.04200785869231572,"74":-0.027532520088922076,"75":-0.033388366036670544,"76":-0.06405428685712597,"77":-0.0616109740906967,"78":0.08793222516600303,"79":0.003059890897416923,"80":-0.020410341229388347,"81":-0.07186042274306863,"82":-0.035300306290954396,"83":0.10301610411300999,"84":-0.035879079621025295,"85":-0.0461395550400286,"86":-0.07709090377143177,"87":0.019460128823619492,"88":-0.02101422170463278,"89":0.0769507930724214,"90":0.07815793448294907,"91":-0.010535848895675175,"92":-0.1319676993143299,"93":-0.05050699645996803,"94":0.03977935391667575,"95":-0.08401368065510482,"96":-0.1118968146661351,"97":0.05128879552948222,"98":-0.011367907799735504,"99":0.046863163404831036,"100":-0.03971388109492509,"101":-0.12105949973046849,"102":0.04770257130888348,"103":-0.05206971103400066,"104":-0.06911181826151132,"105":0.06000157950470889,"106":0.07857839338456356,"107":-0.053611656956656456,"108":0.07186581317540637,"109":-0.10023529995136045,"110":0.09407147254509426,"111":-0.07094955928039848,"112":-0.0739736577399361,"113":-0.05581495707598955,"114":-0.03765000754834038,"115":-0.12101866085147944,"116":0.05459378716263215,"117":-0.09055589611473268,"118":0.07160055900495199,"119":0.044926969782614644,"120":0.03694744057959572,"121":0.03706603194170222,"122":-0.0016620244453716398,"123":-0.02814843969368319,"124":0.028166254553259683,"125":0.044104133973199275,"126":-0.0420799887087957,"127":0.04623153087680633,"128":-0.028636221191091077,"129":-0.0292483176930467,"130":0.09858296921128862,"131":-0.08274723386443282,"132":-0.05956032580472955,"133":0.08161870833969438,"134":-0.02406010955283548,"135":-0.028330244504087398,"136":-0.043021839656868475,"137":-0.08744426195479219,"138":0.08056076949322716,"139":-0.0896333270270056,"140":-0.047629166029822374,"141":0.05030336892088161,"142":0.024738773860493394,"143":0.040697045814979904,"144":-0.02130764042765881,"145":-0.04654798080353413,"146":0.02458496302023841,"147":-0.005468651228776075,"148":-0.1259585859049373,"149":0.09653613053696597,"150":-0.0815795024335527,"151":-0.052671186595643904,"152":0.038533443300164255,"153":-0.060763895627850374,"154":0.01130089135849962,"155":0.06513908249241657,"156":-0.0413065156600256,"157":0.016009080134506484,"158":-0.019214167797683847,"159":0.021854023938205614,"160":-0.10980305837655971,"161":-0.15789310590635483,"162":0.026410289383495305,"163":0.037427258096253066,"164":0.04579200203135887,"165":0.03061014074895808,"166":0.15783282667188905,"167":0.03931396635311545,"168":0.02512254605165386,"169":0.12779824889329056,"170":0.03359471066408663,"171":-0.0518655865008083,"172":0.006565412653868191,"173":0.023650203791606584,"174":0.06502653892142682,"175":0.03766388243792788,"176":0.07039061471307037,"177":0.022591689953155872,"178":-0.15339972991342643,"179":0.0025603378529725127,"180":0.011174269916372487,"181":0.006682553866749604,"182":-0.09038192499515638,"183":-0.06768255243639935,"184":0.019420668346537953,"185":0.06485026698176422,"186":-0.09572986734244068,"187":0.03327825868905817,"188":0.07755699457591883,"189":-0.05738370069076224,"190":0.020158522069278206,"191":-0.08379925614286039,"192":-0.009916145104593974,"193":-0.004756151150610113,"194":0.03498549934849765,"195":-0.03291312425361055,"196":0.013612308950732519,"197":0.018082605274717948,"198":-0.006748964374386397,"199":0.11246322556567591,"200":0.0011160342663017572,"201":-0.06423483690003272,"202":-0.009758867053420916,"203":0.036181853827185716,"204":-0.04587009095137486,"205":-0.007937100152605646,"206":-0.07057543173726184,"207":0.06042133351683635,"208":0.02167973333723904,"209":0.07777526270529633,"210":-0.11339856047045842,"211":-0.01181172881849044,"212":0.11411908539738766,"213":0.1688530592372951,"214":-0.00945004627675206,"215":-0.004805155671800201,"216":0.061009397704118194,"217":0.002614038486253522,"218":-0.0929278264561388,"219":-0.09206664710294375,"220":0.056353849480469176,"221":-0.05149144372150583,"222":-0.003930591217769948,"223":-0.04667601692030328,"224":0.10799692908772622,"225":0.026088250657857064,"226":0.05718549819660498,"227":0.006500718949209784,"228":-0.08096540986285795,"229":-0.07617687236933095,"230":-0.08933108117722191}},{"sx":1,"sy":1,"depth":231,"w":{"0":-0.028215660550515942,"1":-0.010631643735779333,"2":0.0858254941678366,"3":0.0936029417019665,"4":0.008973389661691434,"5":-0.050142420298671574,"6":0.10910638761626613,"7":-0.0676109072770875,"8":-0.011654567896250023,"9":0.03833969039309415,"10":-0.0573181604378182,"11":0.003774713899609895,"12":0.08090600546088075,"13":-0.07696406350628618,"14":-0.08082072034127881,"15":0.17329503803112495,"16":0.007740915642868469,"17":0.06683829006216722,"18":0.07872286570063783,"19":-0.16396333348238878,"20":-0.11865808811265861,"21":0.06480874108393322,"22":-0.01943717990487691,"23":-0.046505441502163986,"24":0.03774255530385648,"25":-0.13511240090833637,"26":0.023243153767858682,"27":0.1726097725198277,"28":-0.0012436132357312901,"29":0.03213685793160977,"30":-0.015575593644880937,"31":-0.08669826972598736,"32":-0.08437032069023097,"33":0.050012232752894674,"34":0.054923424999263955,"35":0.059309499471512095,"36":0.12577682155465275,"37":-0.09859947221522905,"38":-0.039515974585311045,"39":0.10529852624091358,"40":-0.08816285196661619,"41":-0.08388172487670185,"42":0.001212702697462182,"43":-0.024363851602748027,"44":0.06356723590211545,"45":0.06626270614834846,"46":-0.06750721972060883,"47":0.07383211019108112,"48":0.037339883342466684,"49":0.04910939544776124,"50":-0.04138221187030816,"51":0.010375042914391964,"52":-0.05617359225056052,"53":0.021804599470302794,"54":0.10631769340428308,"55":0.010708405197007238,"56":-0.04218737887346783,"57":-0.04917622520855025,"58":0.025253699453016528,"59":-0.12397476088982022,"60":0.0007005674206866136,"61":0.02899165372433489,"62":-0.06315028620048983,"63":-0.0833253064992739,"64":-0.0006287733434733847,"65":-0.015194412174220764,"66":0.06990700069403052,"67":0.06793628185790125,"68":0.015186339484104973,"69":-0.010511727145636921,"70":0.07536327615902569,"71":-0.09638549494699179,"72":0.08613477913316626,"73":0.0038334986588226994,"74":0.013044465288330895,"75":0.038593266893107776,"76":0.006768262218291178,"77":-0.10372116358805274,"78":0.027193504771531686,"79":-0.002567992629119474,"80":-0.08690642666817053,"81":0.03875296434283846,"82":0.043757509854442,"83":0.02376896159277775,"84":-0.02829722386337085,"85":0.02213286975933999,"86":-0.0337367899046318,"87":-0.09309318330967095,"88":-0.04568339135777676,"89":-0.03821832132588837,"90":0.01533817753255083,"91":-0.08398181941125447,"92":-0.0270629684633501,"93":-0.008669485379010656,"94":0.026054198472434027,"95":-0.048610262793241925,"96":0.020419978652890053,"97":0.07913861553983431,"98":-0.04758131299287987,"99":-0.07284280313687926,"100":0.10325432239954718,"101":0.05489942822878798,"102":0.07889782646169179,"103":-0.05822970074099845,"104":-0.06600099401564398,"105":0.07878825653959039,"106":-0.018698604461420038,"107":-0.002165635424277085,"108":0.10300622227083243,"109":0.1703583305205835,"110":-0.10556952115423333,"111":0.07663782205682994,"112":-0.07719767183910835,"113":0.08944986568448199,"114":-0.020086935663340657,"115":0.09055475526506139,"116":-0.07626860410630332,"117":-0.05922367394822433,"118":-0.06966832643896793,"119":0.011029395737470884,"120":-0.051522913691805235,"121":-0.08593686186886708,"122":-0.05178085772851301,"123":0.09738370508173785,"124":0.015362457642407875,"125":0.05345914214324324,"126":-0.09826177401309713,"127":0.028803546454712853,"128":-0.03569363167198199,"129":0.046798234741995126,"130":-0.01331904689381609,"131":0.04909691790175032,"132":-0.08517949010659273,"133":-0.17445956081495737,"134":0.04570538176121819,"135":-0.05654581421412853,"136":-0.03872029557130153,"137":0.04487600169809581,"138":0.02358853152113091,"139":-0.010896944056036792,"140":0.05031873862822617,"141":0.02552390584866776,"142":0.07150078665113012,"143":-0.04906193416863126,"144":0.07551371300226122,"145":-0.029299047714206137,"146":-0.06801408950888864,"147":-0.08266019066953811,"148":0.023830351738450422,"149":0.03481869126558141,"150":0.08161411290953542,"151":-0.11971900304595251,"152":-0.04526348551474219,"153":-0.004080631354978117,"154":-0.09372396910290308,"155":0.05617985857754901,"156":-0.17783387237799303,"157":-0.05643504871787619,"158":0.041083246336933006,"159":0.0018198973589887537,"160":0.017587409469626652,"161":0.025232322151801486,"162":0.048530106232514546,"163":-0.011751063243717448,"164":-0.1311432975768155,"165":0.06829153004606424,"166":0.02668078158341278,"167":-0.10664640026515784,"168":-0.02138761848798386,"169":-0.16970452237623462,"170":0.0008839205391495614,"171":0.09143866366312871,"172":-0.09662199077970227,"173":0.055434741882231894,"174":0.05474862013049197,"175":0.10846604502661099,"176":0.11495310474385209,"177":-0.06454332238932385,"178":0.038670273002139086,"179":0.10718969185349377,"180":-0.04251960723238245,"181":0.03801905276862536,"182":0.0018302909731335822,"183":-0.1175191980536244,"184":-0.0296228481060719,"185":-0.025866557237652788,"186":0.05056723021913273,"187":0.00646706956893602,"188":-0.05281362028936582,"189":-0.07553998073479734,"190":0.017019377843145854,"191":0.07640182742823111,"192":-0.09087581644480973,"193":-0.033088615061870885,"194":-0.14140069764609844,"195":-0.04564962815057064,"196":0.14475886282414469,"197":-0.046538621171236715,"198":0.04297535533681709,"199":-0.04406265270146795,"200":-0.024717051376815485,"201":-0.0849762033714661,"202":0.009160485466730567,"203":0.09849352007821396,"204":-0.020757298303329546,"205":-0.11198257853202008,"206":-0.08302201875611186,"207":-0.10913375431735509,"208":0.06568055289672564,"209":0.10726247652710647,"210":-0.011961814070131355,"211":0.05887325626441249,"212":0.056251951504932535,"213":0.029830809269262182,"214":0.10269584590637376,"215":0.09368912812075669,"216":0.015904409854604267,"217":0.0844260267761216,"218":0.007535195768889197,"219":0.13125406818246005,"220":-0.11180236989575877,"221":-0.09464356092260795,"222":-0.15332939561924228,"223":0.01628194423731559,"224":0.014804638025443234,"225":-0.006309067611490471,"226":-0.19028986220910024,"227":-0.0345162766844874,"228":-0.18003885593255378,"229":0.03224208331503617,"230":-0.03978170609264048}},{"sx":1,"sy":1,"depth":231,"w":{"0":-0.0188239534252611,"1":-0.007743584095207068,"2":0.11674449116970821,"3":0.024823277071025107,"4":0.018757475992099096,"5":-0.008791197499953303,"6":-0.04521012885147968,"7":-0.011596032731887905,"8":0.20506855290082876,"9":0.002861530268846728,"10":0.012785150522039062,"11":0.14496877194839689,"12":-0.019929121203233677,"13":-0.002388863973583783,"14":0.12965574710416738,"15":0.0007788591705472713,"16":0.0671035720948951,"17":-0.019093763055561198,"18":-0.05483399401089889,"19":0.09348658236810294,"20":0.09433598166418793,"21":-0.001906305311320834,"22":-0.021472126316668942,"23":-0.009135450298347737,"24":-0.05325967296000786,"25":0.046557826765156664,"26":-0.029925497849816993,"27":-0.08163764781692004,"28":-0.1286226660141919,"29":0.1370042621126813,"30":0.0021159789002312105,"31":0.10681531643702123,"32":0.007573079917184663,"33":0.07002287835212428,"34":-0.04935405172973493,"35":0.012893377571260923,"36":-0.02747723840243916,"37":0.05119401799778883,"38":0.04206778613704201,"39":-0.08028014430148149,"40":0.05393929181035723,"41":0.1830784217370236,"42":0.0086176474590144,"43":0.03992045877320663,"44":-0.07434567976380196,"45":0.017486084268191343,"46":0.02124074444763428,"47":-0.007332349185220202,"48":-0.05109651650872625,"49":0.015134116413166403,"50":0.02034605841994731,"51":-0.1041912778311284,"52":-0.08044128384185459,"53":-0.0411325297057622,"54":0.06416041169284747,"55":-0.1781913878718812,"56":0.1278722081854105,"57":-0.02877213517956273,"58":-0.020226953158603077,"59":0.07961890427345716,"60":0.05080372461495943,"61":0.007578897872081349,"62":0.11777843346425744,"63":0.029407951283298126,"64":0.0004673772945230108,"65":0.020045779259934903,"66":0.025617435222134943,"67":-0.09580800071800141,"68":0.07473452627861984,"69":-0.016116228001967065,"70":-0.0328008559883071,"71":-0.005234562123893741,"72":-0.04338727600736502,"73":0.04720761016903331,"74":0.028510555948749895,"75":-0.03272464937953999,"76":0.07352434048586488,"77":0.0287222113909539,"78":0.056073470365840344,"79":-0.0709576277725309,"80":0.11237503347312816,"81":-0.06684038898044187,"82":0.03825796677816153,"83":-0.05771247424585313,"84":0.03126049358222577,"85":-0.0776663758546902,"86":0.07930490027458811,"87":0.035036206568072506,"88":-0.03354757025433345,"89":0.03616817493800206,"90":0.005709960984810883,"91":0.03403404489444875,"92":0.03722844320461652,"93":0.0024272023185929973,"94":0.048279791697028174,"95":0.06610054609990305,"96":-0.011699774383754679,"97":0.014865928496752376,"98":0.04798982161330309,"99":0.08215800019573748,"100":0.05456711809140364,"101":-0.0794796689202143,"102":0.013291047791057949,"103":0.09282604524471313,"104":0.01673217407556827,"105":0.002539389398808524,"106":0.03492608514552614,"107":0.04862789766201784,"108":-0.03936758716291281,"109":-0.006671971424967608,"110":-0.039494625119938,"111":0.09490366513945606,"112":0.13341685639507248,"113":0.02701941253128728,"114":0.03380792703294094,"115":-0.09244255784477441,"116":-0.13849612495691024,"117":-0.004008863504786558,"118":0.09335487072852595,"119":-0.11722072593167115,"120":0.12022564263249669,"121":0.06569034604199613,"122":-0.02048662688434427,"123":0.03860532622883299,"124":0.08417985786623615,"125":-0.010816452532434616,"126":-0.05509919990829748,"127":0.006374478443585942,"128":0.02946537562922132,"129":0.007337826365019016,"130":0.014010644754234322,"131":0.012960248397072655,"132":0.014422750170810612,"133":0.00795665732472342,"134":-0.07713562784650804,"135":0.030791993012303998,"136":0.10984362561127974,"137":-0.05136367747584987,"138":-0.03900074989598393,"139":0.03277560160526484,"140":0.07923144944324388,"141":-0.04686300581299973,"142":-0.012103387900947775,"143":0.020833329779183667,"144":-0.14735417462994146,"145":-0.15063928872335952,"146":0.0378741645392907,"147":-0.09252626990945093,"148":-0.02320322009937435,"149":0.042869523525932644,"150":-0.013408552302041687,"151":0.04126355577668706,"152":0.13055374472033515,"153":-0.011221914042263515,"154":-0.030717851903999265,"155":-0.0741965903196176,"156":-0.0018015143704087598,"157":0.08430021121508986,"158":0.08812835396492003,"159":-0.011267183143643963,"160":0.022036915726382434,"161":-0.15430894624917008,"162":0.017068910396506074,"163":0.10149313570898824,"164":0.06023930065791913,"165":0.03631768603215904,"166":-0.0526952364293473,"167":0.09635398792840191,"168":-0.11717278857278855,"169":0.04089687800767859,"170":0.10990517538952496,"171":-0.13746851396329154,"172":-0.03134002435831961,"173":-0.060880443361839405,"174":0.12564356701617257,"175":-0.08449269374020077,"176":0.11601268594088508,"177":-0.04677922134545414,"178":-0.07647404777197417,"179":0.22715086061152048,"180":-0.0800753888743784,"181":-0.01111946241151921,"182":-0.08155999856997924,"183":-0.037195937976331375,"184":-0.07826237485521151,"185":0.014120654514776898,"186":0.04892879174986685,"187":0.013067866386336183,"188":0.001981228901340625,"189":0.09197830967995092,"190":0.08312767429822973,"191":-0.055204343377755705,"192":-0.012759796091248058,"193":0.06177198825498418,"194":0.1415610225558059,"195":-0.12031422862364655,"196":0.012528658487198424,"197":-0.00002970032673311021,"198":-0.09000716099461559,"199":-0.07774212695221057,"200":0.058762748285365256,"201":-0.045746715044152945,"202":-0.017240404831084667,"203":-0.05371918823612523,"204":0.028799868645893584,"205":0.04821978106574137,"206":-0.040729609344196,"207":0.039487212510691906,"208":0.030465396224863907,"209":-0.01192966178996334,"210":0.03927821430521944,"211":-0.07267190492502491,"212":-0.09371723493844712,"213":0.018036806160951865,"214":-0.013812646295295418,"215":-0.06422382754708077,"216":0.05942325234994581,"217":-0.14528430949462143,"218":-0.13730188052513603,"219":0.037625539000096644,"220":0.03565442656388743,"221":-0.0037926684104120567,"222":-0.06337170663874535,"223":0.0743634750352817,"224":-0.08835907591905652,"225":0.00629155783305458,"226":-0.0871029942731569,"227":-0.04772731474718036,"228":0.06977313531865534,"229":0.028779752567318892,"230":0.050379969805655435}},{"sx":1,"sy":1,"depth":231,"w":{"0":0.045120320009586365,"1":0.0006700985189813368,"2":-0.02801225284386797,"3":0.09055566935544446,"4":0.03902171513192089,"5":-0.11994512275306335,"6":0.07109454419854344,"7":-0.0013333870917066899,"8":-0.07883168069248414,"9":0.0032203949400611644,"10":0.013976390890045905,"11":-0.1013938427176862,"12":-0.03869272120062058,"13":0.0548149189647796,"14":0.013903895766404807,"15":0.025353980477867605,"16":0.024959235800630725,"17":-0.06117907467720498,"18":0.10212368305389222,"19":-0.06850830699244172,"20":0.14885488988063472,"21":0.04154426012261305,"22":-0.06711792560224641,"23":0.15777989784454136,"24":-0.03949982258587472,"25":0.09295178848905353,"26":-0.0464433926088805,"27":0.01906624355330622,"28":0.11957492712042536,"29":-0.0756993621614433,"30":-0.09808430137666102,"31":0.049807429775851585,"32":-0.05858179511968716,"33":0.007857996301482746,"34":-0.03912294619104517,"35":0.03979468918523544,"36":-0.054730212870353664,"37":-0.08408912056032264,"38":-0.025051383596400925,"39":-0.043121868145129964,"40":-0.010044442041529529,"41":0.020617799242012912,"42":-0.050884666628217314,"43":-0.02830670447691887,"44":-0.006068077104653209,"45":-0.06970260420782351,"46":0.01537998017457285,"47":-0.06329533443317689,"48":0.036116935167287,"49":-0.048963940176943895,"50":0.037027128270581175,"51":0.11982418672189621,"52":-0.08371951999985616,"53":-0.04217188218012207,"54":0.015401207018138548,"55":-0.045274478760756506,"56":0.06138383656860623,"57":-0.10658605520660544,"58":0.0743791485794239,"59":-0.025746000738028033,"60":-0.03247264481792317,"61":0.11898491581242968,"62":0.04975170148545023,"63":-0.08330651129416512,"64":-0.05721194638935249,"65":-0.0130696065562262,"66":0.11602680321703884,"67":0.025763579216941657,"68":0.027109452680687377,"69":0.03545223765417703,"70":-0.07157136422697934,"71":0.07841455725263062,"72":0.0658817618271805,"73":0.046258976034594106,"74":-0.054093051167461687,"75":-0.0484841947325297,"76":-0.06652736888549962,"77":-0.08409742647438538,"78":0.032258193136321264,"79":-0.08246313419431676,"80":-0.008280911305742437,"81":0.11079206520870175,"82":-0.0882999999814326,"83":-0.02192565599733952,"84":0.0569637154231668,"85":-0.021803733592037744,"86":0.028912112586265654,"87":0.019276986471731077,"88":-0.02890020972042225,"89":-0.061746884494713994,"90":-0.03804098670881652,"91":-0.013824814253284877,"92":0.07772667429537568,"93":-0.05256138894445408,"94":0.05744808034662497,"95":0.057284213021716796,"96":-0.10589720451870246,"97":-0.03533036251403085,"98":-0.11227989994518901,"99":0.03555327377520885,"100":0.024677041331702898,"101":-0.18151801541613471,"102":0.012549013026996835,"103":-0.12692320967862844,"104":-0.029318133143584415,"105":0.02894230617731066,"106":-0.09976872236493704,"107":-0.13089365204756373,"108":0.010352008676196798,"109":-0.041264935474868175,"110":-0.11773735836585715,"111":-0.001263301257404195,"112":-0.031184319102573903,"113":0.04101774525438201,"114":-0.01289057497635732,"115":-0.002820166151172249,"116":0.003407177828830362,"117":-0.0008781201642142281,"118":-0.07548962276631732,"119":0.17533687244880522,"120":-0.02327772418254035,"121":-0.0114905068521638,"122":0.018246991628386285,"123":0.043651038743142606,"124":0.13331708287518101,"125":0.0330737940257358,"126":-0.03969126663971576,"127":-0.008283565344011222,"128":-0.016841533090251735,"129":0.008932495465499062,"130":0.041345108272553145,"131":-0.11171056827875861,"132":0.010684303501887909,"133":0.011004232094120336,"134":0.047630383183978796,"135":0.04284914340929567,"136":0.06829319720882905,"137":0.050251726064156885,"138":0.07523369159509878,"139":-0.09609143084495927,"140":0.0046628535940197655,"141":0.0569169867108715,"142":0.041349729106128066,"143":-0.03658090203684627,"144":-0.05262327744381914,"145":-0.02590882172157069,"146":0.020889006312944533,"147":-0.0343276756187851,"148":-0.0598036679574902,"149":-0.024343031666267657,"150":-0.021699099904308013,"151":-0.015538842126596257,"152":-0.025598313540563022,"153":0.021402005849371034,"154":-0.017110297689336702,"155":0.14324168431607825,"156":-0.026177837459381716,"157":0.002924328416941559,"158":-0.003497475713815291,"159":0.005296869551580841,"160":-0.07821798090375798,"161":-0.01961683881522308,"162":0.04567298820217143,"163":-0.12587191803815426,"164":0.034544296585729856,"165":-0.07515984406904787,"166":-0.027749896444885205,"167":-0.07933576488973446,"168":-0.047417475179172566,"169":0.06657267425442905,"170":-0.07061747749120637,"171":-0.05198170591081486,"172":0.031396056175687255,"173":-0.0028228821035955263,"174":0.00980707218481181,"175":0.042249481753922596,"176":0.01766152147314795,"177":0.08502990857488242,"178":-0.03363050178312212,"179":-0.054482448199439426,"180":0.055616556367797956,"181":-0.1146396406213416,"182":-0.09574010646030166,"183":0.0399123013174997,"184":0.16089221610161247,"185":-0.028902485966827613,"186":-0.009069523923003257,"187":-0.047394388283168686,"188":-0.059077831679933614,"189":0.14154324189254858,"190":-0.042307552524903334,"191":0.0036243326468573243,"192":0.03239812478341928,"193":0.02205639147334725,"194":0.053966013287725136,"195":0.028590458584604222,"196":-0.0015098773756387646,"197":0.007985426342284666,"198":0.08266570413339039,"199":-0.07383443428636816,"200":-0.014255391508796194,"201":0.0035449393732647195,"202":0.04781855458674592,"203":-0.048898363298635866,"204":-0.07487363350908618,"205":0.10705381606418869,"206":-0.051152401806827966,"207":0.013838177672664764,"208":-0.007058384785400435,"209":0.028887660242190732,"210":-0.03914855221169592,"211":0.10073778190684224,"212":-0.054159975451704756,"213":-0.11049937678881014,"214":-0.07201975007876951,"215":0.008101449857118108,"216":-0.01224865770179448,"217":0.028033011541811422,"218":0.007327554673615983,"219":0.007532740790870927,"220":-0.08995827961051092,"221":-0.0437367452493072,"222":0.07615730849336565,"223":0.013798064424613968,"224":-0.010307424430197294,"225":-0.09983614034845684,"226":-0.09985952046362667,"227":-0.026169044331240458,"228":-0.12291800044702238,"229":-0.05116787432368074,"230":-0.08828313447449487}},{"sx":1,"sy":1,"depth":231,"w":{"0":-0.039536672406649154,"1":0.09846407490605413,"2":0.016258338604340176,"3":0.0996636399292774,"4":0.04754566835156942,"5":0.18168827035510146,"6":0.06956621997689386,"7":-0.08184078388448468,"8":0.293753166078122,"9":0.09353838269997111,"10":0.03401330443283546,"11":0.04495675711982588,"12":-0.06835259461747242,"13":0.18343152052242065,"14":0.11255106983141332,"15":0.11201169196195486,"16":0.10115041005188712,"17":0.04678672239714005,"18":0.05659615065392773,"19":0.08953361253030456,"20":0.011529031672933553,"21":0.03243939079740493,"22":0.004458798252600039,"23":0.0349946009272391,"24":-0.033545705022977816,"25":0.03380279643993145,"26":-0.01412965336451861,"27":0.034748730860686194,"28":0.008670253225444837,"29":0.11740860286887535,"30":0.14688503067519165,"31":0.05036029490382197,"32":0.14013513635422167,"33":-0.16279886835845117,"34":-0.005635260329749411,"35":0.0629610932996952,"36":0.02915812405897064,"37":0.020870224912481427,"38":0.010803686031329992,"39":-0.011838580523587303,"40":-0.04695182453383976,"41":0.043910315786402615,"42":0.11178915617814622,"43":0.009201133965226184,"44":-0.018105333582525075,"45":-0.039082565774597344,"46":0.10398278883790693,"47":0.023775327323390407,"48":-0.02562354096475537,"49":0.046337520622566304,"50":0.006701123949585546,"51":0.067368601638656,"52":0.007655403805255028,"53":-0.04492205380161215,"54":0.0171152471506761,"55":-0.048438678201796016,"56":0.007398532793897523,"57":0.0941119019876667,"58":-0.053292388701720254,"59":0.0005043760816303144,"60":0.006875566212534016,"61":0.08181727708132447,"62":0.03837394004228242,"63":-0.030553353095155226,"64":0.08229794290955983,"65":-0.049889345111259205,"66":0.08301565967908744,"67":0.056493797095571306,"68":0.01311961418331203,"69":-0.03059849713431808,"70":0.12046174789487599,"71":-0.008382071539579239,"72":-0.013956904962624203,"73":0.09293673196757692,"74":-0.07137412564235704,"75":-0.00464432204705746,"76":-0.026548026882339707,"77":0.00754281397542035,"78":-0.08259326950029522,"79":-0.03260479216171341,"80":0.04067789317765165,"81":0.03453789330151593,"82":-0.01953279871399952,"83":-0.08024175510927084,"84":0.0627369861969982,"85":0.14079475251010537,"86":-0.030708445726541855,"87":-0.024450705125674304,"88":0.05339765856801586,"89":0.048079196930184157,"90":-0.014789892669618733,"91":0.024382941795075344,"92":-0.07629803382872093,"93":-0.017956987009871146,"94":-0.0534967138819079,"95":-0.05068379631749458,"96":0.01983725782728234,"97":-0.03439539958660799,"98":-0.03797013469584586,"99":0.061002627469729995,"100":-0.0642499864873656,"101":-0.0074668030787352286,"102":-0.07846273278920392,"103":0.17037717432648172,"104":0.007224091781845099,"105":0.015892957662202986,"106":-0.08243403329536995,"107":0.016167919981132952,"108":0.0838785576987144,"109":-0.05824036910883069,"110":0.008950139668695683,"111":0.04353146224439385,"112":0.0738404027467402,"113":0.09716676218804303,"114":0.013803160720446137,"115":0.06618978307831076,"116":-0.0028966450721266035,"117":0.06423868801030104,"118":0.018987835268888417,"119":-0.02757508212183041,"120":0.12675327974672757,"121":0.05638815738228039,"122":-0.01919211737912476,"123":0.029922209785582063,"124":0.049108071437176846,"125":-0.016944481365780206,"126":0.06114279190381893,"127":0.029153134195228192,"128":0.036248633053803325,"129":0.06378055049350305,"130":-0.05864411858307161,"131":0.05556608285917705,"132":-0.0019756293059817135,"133":-0.05606286203807658,"134":0.06583218163716738,"135":0.07756444613932938,"136":0.006714450006193789,"137":-0.0699883989582113,"138":-0.17993595551099928,"139":-0.049920996806693194,"140":0.0885500430842431,"141":-0.012318440908340073,"142":0.02316037997676644,"143":0.007418827404247834,"144":-0.04293244753164866,"145":0.1495445916036757,"146":0.0643059544551023,"147":0.10963101452984973,"148":-0.06794882250511064,"149":0.04638590606323075,"150":0.02541105724395755,"151":-0.07906012968215323,"152":0.10560954227897824,"153":0.010730468615243202,"154":-0.1137521693068893,"155":-0.008913501988989159,"156":-0.08491550895661187,"157":0.060737201189186525,"158":-0.09160195138980136,"159":-0.0714720005040638,"160":0.02924765955472932,"161":0.06281776346657493,"162":0.016751277590340126,"163":-0.07243448203678006,"164":0.12669506368278766,"165":0.09395848622475575,"166":0.16319375833643524,"167":0.018299543488784778,"168":0.13552636544471602,"169":0.08071275685443037,"170":-0.01678203742528836,"171":0.1036113602473665,"172":0.045080451273439764,"173":0.03688236218936131,"174":-0.11440606213226186,"175":-0.03850497713249795,"176":0.0413486463071241,"177":0.02870208727624501,"178":-0.030000452477026308,"179":0.08910560265359732,"180":0.04178575698627937,"181":-0.015446596196729556,"182":0.11629597326307949,"183":-0.03889255028637239,"184":-0.010329372445004373,"185":0.04964031983041114,"186":0.04581693877025861,"187":-0.021207497413210277,"188":-0.033457599563383414,"189":-0.02524872573281417,"190":0.002155485525698809,"191":-0.10195826043151969,"192":0.03932355801235086,"193":0.07501607522982441,"194":-0.0464671090528639,"195":0.04315362561912888,"196":-0.07626392091829759,"197":-0.09993030065012772,"198":-0.06104259792987225,"199":-0.007824152515428928,"200":0.02905244968754908,"201":0.08114236740726642,"202":0.07636851121398895,"203":0.15886234774748972,"204":0.020358125521603116,"205":0.025761875109857085,"206":0.0005361245953790487,"207":-0.09355794427595371,"208":0.0002182379824227582,"209":0.15729974269091246,"210":-0.10356799295518071,"211":0.0014427015911444023,"212":-0.051884404731810864,"213":-0.0192235076432663,"214":0.02993630695132292,"215":-0.0398318008785254,"216":-0.15400873834687862,"217":0.1551381854980784,"218":-0.019343743372089814,"219":0.016395675826274273,"220":-0.03465892856709343,"221":0.002824133065793095,"222":-0.03848636734866296,"223":-0.013590602293181967,"224":-0.0620100339099163,"225":0.03719573135493555,"226":0.13963566668242436,"227":-0.1014486534784559,"228":0.1022228023831085,"229":-0.016166301978246735,"230":0.09643412374631993}},{"sx":1,"sy":1,"depth":231,"w":{"0":-0.035232123493209776,"1":-0.2882811411694615,"2":-0.06102335620937979,"3":-0.1407569438982108,"4":-0.19797272359392745,"5":0.012769132277033874,"6":-0.014427401102954655,"7":-0.1396240806669774,"8":-0.0902274698320738,"9":-0.18489901405563355,"10":-0.457299939243703,"11":0.013475883051549875,"12":-0.27748992314741533,"13":-0.5357821674317793,"14":0.021733237357057452,"15":-0.2962993453284364,"16":-0.47057832239383945,"17":0.18406938806182316,"18":-0.2305754009555407,"19":-0.44783839528563824,"20":0.14714213218766692,"21":-0.3389156369884983,"22":-0.027673967323829745,"23":0.08823806024409292,"24":-0.37960671172985694,"25":0.031254108933003975,"26":0.11129629442557168,"27":-0.33198841905518295,"28":-0.006088380704203668,"29":-0.11621272456154189,"30":-0.15694367195849426,"31":0.007250800338756358,"32":-0.07497839267390073,"33":-0.23851417473778833,"34":0.014379540454687938,"35":-0.0059029922317872605,"36":-0.3121996780115195,"37":0.010184896925935381,"38":-0.003354363370748006,"39":-0.5071843314500835,"40":0.07989978676846853,"41":-0.11449417640702741,"42":-0.13570797833384285,"43":0.009430594236399994,"44":0.02776470083735235,"45":0.02807702670022867,"46":-0.02743997607582317,"47":-0.012710151950852079,"48":0.14250449547352909,"49":-0.019798575042554778,"50":-0.08368057644040598,"51":0.3276029918826172,"52":-0.0809541085178558,"53":-0.10563873150138503,"54":-0.06047972992484396,"55":-0.02635887790580659,"56":-0.013804031108927953,"57":-0.005422529172014238,"58":-0.0774941990570386,"59":-0.02123856091246034,"60":-0.0479609024593865,"61":-0.13416342224372524,"62":-0.104249107776652,"63":-0.01329374229909421,"64":0.04554474546957041,"65":0.008326662777997448,"66":-0.15786970305753786,"67":-0.11742230455471048,"68":0.06139184259043287,"69":-0.10384014600805772,"70":-0.19008473038864446,"71":0.10220202221808622,"72":0.018296284529789514,"73":-0.15234014436726684,"74":-0.12520363256829445,"75":-0.1756531328156819,"76":-0.051081930453785486,"77":0.1302968732249017,"78":-0.13290925336805368,"79":0.0696767661083054,"80":0.03273978897987857,"81":-0.23560964608149282,"82":0.03494241244936209,"83":0.02633028640620166,"84":-0.058250925496104396,"85":-0.10579646193927562,"86":0.05325435730262124,"87":-0.1358973792112085,"88":-0.057023849813621796,"89":0.08293619232637495,"90":-0.08888934042991484,"91":-0.11172079268040212,"92":0.07234999462944791,"93":0.07071127255635953,"94":-0.019548756347936073,"95":-0.0005557337988923384,"96":-0.04337135962331876,"97":0.08886450989257189,"98":0.003446101363354502,"99":0.021968644508863638,"100":0.011956925612275892,"101":0.01869033805574578,"102":-0.003869411959723809,"103":0.06862460920469998,"104":0.0006996622445273718,"105":-0.03624893589084781,"106":-0.010638068997704609,"107":0.06653537936405192,"108":0.11498647899474386,"109":-0.06130531645567965,"110":-0.06384614817260116,"111":0.11783255216944505,"112":-0.07065292447358368,"113":-0.09438099723636517,"114":0.003107356289544716,"115":0.11760689760007498,"116":-0.02157352072945864,"117":0.04062783224200321,"118":-0.08296659922443651,"119":-0.17384656974747273,"120":0.018984603681077204,"121":-0.03080863819798112,"122":0.02741655352961447,"123":-0.09594936921012538,"124":0.03347794225173452,"125":-0.14651429121821846,"126":-0.018710470926477204,"127":0.04395730974597066,"128":-0.05046935476388552,"129":-0.04487764763920386,"130":-0.07187459978326587,"131":-0.1462065619068958,"132":0.02198257197331858,"133":0.006550006512480518,"134":-0.05723141791370677,"135":-0.09925167163275972,"136":-0.006175455871175214,"137":-0.07332500366732195,"138":-0.06016878032825072,"139":0.024752845091768248,"140":-0.04021462258550642,"141":0.09938543368248343,"142":0.03581096650191802,"143":0.014505459913278264,"144":0.03125687357925872,"145":0.022396267569573317,"146":-0.10401198813581962,"147":-0.14735784128359597,"148":-0.026685620681511892,"149":-0.0299551722920283,"150":-0.01949810863911337,"151":0.03139176859599378,"152":0.045263289157292656,"153":0.16577508408388683,"154":0.010539244830920039,"155":0.0058516826670818554,"156":-0.022103713069851247,"157":0.006839909065522415,"158":-0.007646311415667579,"159":0.0032947023261398257,"160":0.0089276901702286,"161":-0.15985609299170583,"162":0.006982782413982193,"163":0.12247889871513185,"164":-0.0809093677510523,"165":-0.01961223267636823,"166":0.008273168543402373,"167":0.07010242970909995,"168":0.050552169324177436,"169":-0.10785887020482632,"170":-0.06571876169332846,"171":0.0367705900411595,"172":-0.13348525163145536,"173":-0.004025616085471705,"174":-0.035110470456965345,"175":0.04642464622636539,"176":0.01692204731258014,"177":-0.0002592042575941096,"178":-0.05856577232801379,"179":-0.0135929700100335,"180":0.0009023110670550439,"181":-0.008992200254877946,"182":-0.06643954892201633,"183":0.05680459031569895,"184":-0.0017050743669902912,"185":-0.006092261340894336,"186":0.04280827093949431,"187":0.06021703967583937,"188":0.1277369437683951,"189":-0.006569714383918304,"190":-0.08592658148491276,"191":-0.07868234959504342,"192":-0.0036293775084518076,"193":-0.0743849915730232,"194":0.07870480473008029,"195":-0.06775290715488741,"196":0.029942003095999765,"197":-0.017641712369746897,"198":0.07736672321811575,"199":0.004503979559157281,"200":-0.08518002277273778,"201":-0.020710491633220605,"202":0.09332005029284612,"203":0.0529336214451854,"204":-0.0006596694204798828,"205":-0.029336833627777153,"206":-0.06538498272844669,"207":0.018393961023907144,"208":0.002444958429010395,"209":0.07132448678540228,"210":-0.00831896949307123,"211":-0.025657692006373942,"212":0.022668389796087197,"213":0.027747428155776722,"214":-0.017336117117441974,"215":-0.02512484175907955,"216":-0.019269031266121835,"217":-0.031483410226045075,"218":0.08220261387740439,"219":-0.009492167780955803,"220":0.13290816801891864,"221":-0.028963331044531422,"222":-0.002408838216531276,"223":-0.07435774967828378,"224":0.005152309071320262,"225":0.001489959910632544,"226":0.0739791481025854,"227":-0.03985822432912006,"228":-0.07608908494911883,"229":-0.05330243648090747,"230":-0.061717340090005395}},{"sx":1,"sy":1,"depth":231,"w":{"0":-0.3399202185500223,"1":-1.822808216365913,"2":-0.29942288965084446,"3":-0.14725047277663877,"4":-0.6800383957237327,"5":-0.11349349012993974,"6":-0.09694221967193295,"7":-0.40008837138672626,"8":-0.09472929061694224,"9":-0.1405807614351687,"10":-0.7604898274809107,"11":-0.04738016033070172,"12":-0.23646188874287402,"13":-1.311395190550969,"14":-0.16706094157302692,"15":-0.19846066525590628,"16":-1.2160811549338988,"17":-0.05837522044925885,"18":-0.06510322244324987,"19":-1.1553388566793996,"20":-0.0011329748417312263,"21":-0.13859412095926782,"22":-0.2934749213257203,"23":-0.10069303177226574,"24":-0.08258464999079194,"25":-0.2779907384585851,"26":0.050669808032158266,"27":-0.1782059496708938,"28":-0.04371861882899389,"29":-0.09047793303344179,"30":-0.025297741010493757,"31":-0.1872065341411162,"32":0.09844818901482372,"33":0.03332506257823441,"34":-0.0020630184340727246,"35":0.12533385535403857,"36":0.14913432135976284,"37":0.017697413724064824,"38":0.07036624001847716,"39":-0.038027353057452966,"40":-0.04824629603137049,"41":-0.004072902564743977,"42":0.15320951319798196,"43":0.032149860867848684,"44":0.12845156743482983,"45":0.02409784896805919,"46":-0.04991346088158039,"47":0.09223545160006782,"48":0.09113176445332587,"49":-0.0821747403243728,"50":-0.0008325223561912359,"51":0.3132142148146258,"52":-0.11332911287422061,"53":0.12748268400864096,"54":-0.0024718597588230143,"55":-0.23245744870473645,"56":-0.03249271765329419,"57":0.004869922694639418,"58":-0.03767943889794361,"59":-0.0762576098623096,"60":0.06220118612570672,"61":0.07564664576093348,"62":-0.056354306512593634,"63":0.03576897754177577,"64":-0.017379345529350842,"65":0.07712296502156754,"66":0.0014418915992212894,"67":-0.06413409794142926,"68":-0.06745260379267068,"69":0.01936770923428818,"70":-0.07791593194757378,"71":0.03318735539990614,"72":0.015373229310418545,"73":-0.0880374468089541,"74":-0.06705861216196023,"75":0.08608067185160567,"76":0.024451193338480583,"77":0.025608296166181377,"78":0.039362193866872584,"79":0.03709990705875093,"80":0.044997992715411154,"81":-0.0060125694543893505,"82":0.06136697778318692,"83":0.0042444805930934425,"84":0.011786179004344182,"85":0.021122942779405966,"86":-0.02763587996385575,"87":0.00124182728843293,"88":-0.0827352308316641,"89":-0.03205909857200948,"90":0.011580570880779276,"91":0.01725166343083202,"92":-0.0002639396057204053,"93":0.051889651101312835,"94":-0.08022251777174311,"95":-0.0985172878419032,"96":-0.003691816291620422,"97":-0.04291343625731807,"98":0.013100456583257172,"99":0.08962350933490229,"100":0.09634504026880063,"101":-0.01751505913966122,"102":0.02846929400671243,"103":0.03361729699625252,"104":-0.049576451610153296,"105":0.04365448647007102,"106":-0.11949058188032044,"107":-0.006920095490857118,"108":-0.009507035489837256,"109":0.017236705749785423,"110":-0.00773918369162186,"111":0.015191819656553099,"112":0.011634214378479862,"113":0.02158443597257741,"114":0.08714863140554968,"115":0.023312349918526574,"116":0.11248773229116993,"117":0.034210070176211305,"118":-0.0008953972894554317,"119":0.07597407260820294,"120":0.02417588111026542,"121":0.015310695590467058,"122":-0.07018942262178826,"123":-0.050838561850878095,"124":0.030828500838955008,"125":0.026281565855508397,"126":0.05769625073162714,"127":-0.04504810139503518,"128":0.06426734851697083,"129":-0.026363498793315437,"130":-0.033795357388871614,"131":-0.07977430493814022,"132":0.00947895845174242,"133":0.07714666456700883,"134":-0.08844399592697295,"135":0.05174228560988983,"136":0.031362283413229025,"137":-0.021859782480289035,"138":0.15710645525077876,"139":-0.06544787241555922,"140":-0.03556221960239493,"141":-0.022914234640985024,"142":0.012473683378453879,"143":-0.08882209615186636,"144":0.0025083092062566535,"145":-0.00921797159839993,"146":-0.03281563547739877,"147":0.01646193333627625,"148":0.037383510602736834,"149":0.036459950759282794,"150":0.00005563893680434497,"151":0.004265967129710737,"152":-0.04796713064323931,"153":-0.037577940854571466,"154":-0.03642593090517788,"155":-0.023610022072694047,"156":0.051663614491004727,"157":0.005219482726980758,"158":-0.03098748301881068,"159":0.004560017426674263,"160":0.0500699738499045,"161":0.05451188062567318,"162":0.06312457473176498,"163":-0.0421184339426342,"164":-0.03132713285195702,"165":-0.02986702094481662,"166":-0.03988004343543707,"167":0.06266599120279333,"168":0.07100264665645213,"169":0.05637242621293503,"170":0.06840223076089727,"171":0.06366284343936177,"172":0.002175106433819631,"173":-0.09352263084289857,"174":-0.02588741402108692,"175":-0.004509025318463999,"176":0.06628691450789535,"177":-0.07363489922489949,"178":-0.004732165136870107,"179":-0.04805806824186762,"180":-0.01656519534641068,"181":0.041889918635214914,"182":0.009947422876627187,"183":-0.09989780072904877,"184":-0.014993319904079047,"185":-0.04801927246190084,"186":0.057803843081201685,"187":0.02452718088406299,"188":-0.0103987550655161,"189":0.025114662301403447,"190":-0.011694424646521406,"191":-0.00844432832208384,"192":0.040066520785658685,"193":0.014675002372648172,"194":-0.01486317343272588,"195":0.024727701305757615,"196":-0.11773280837350208,"197":0.09820457407318162,"198":-0.060896922049120526,"199":0.053584045427842,"200":-0.038888894105535594,"201":0.05813047372041308,"202":0.022792686355918995,"203":0.08823390484101742,"204":0.05772994679858179,"205":0.06211004832102735,"206":0.0340220845781849,"207":-0.034577686019088685,"208":-0.047005027579372444,"209":-0.05432956914497583,"210":0.05965606238225978,"211":-0.0638789867519911,"212":-0.05378849505825184,"213":-0.06063087786736916,"214":-0.01817966911056376,"215":-0.02957305094042837,"216":-0.0004938241938009714,"217":0.004880716251510794,"218":-0.03810626477840344,"219":-0.0013930119170526092,"220":-0.03126352703370005,"221":-0.058317441617063925,"222":0.02380640692149156,"223":0.04256209584685746,"224":-0.12298993801089364,"225":0.03866429556204411,"226":0.038569394939675435,"227":0.05077086383881308,"228":0.06341241425950393,"229":0.05189240987602527,"230":0.046908500119055355}},{"sx":1,"sy":1,"depth":231,"w":{"0":-0.04713013321144166,"1":-0.18646870630444737,"2":-0.013550916287115102,"3":-0.08945014994568525,"4":-0.02865457621235848,"5":0.02273341044775811,"6":0.01052224512939425,"7":-0.09658594040004126,"8":0.015240700463328274,"9":-0.1632113627198625,"10":-0.4584059089396426,"11":0.01377354545728894,"12":-0.06656714416456314,"13":-0.3330209952339947,"14":-0.1064214393238583,"15":-0.018596546978898423,"16":-0.18991393657310848,"17":-0.05166227788305026,"18":0.05024143847704343,"19":-0.3049458944559815,"20":-0.10677620433891404,"21":0.0003518162933476299,"22":-0.06846018691887057,"23":-0.1470975137383037,"24":-0.018653985144543396,"25":0.10084460105752767,"26":-0.05522601329172587,"27":-0.02338064778917372,"28":-0.07164187679737362,"29":-0.03584725875642756,"30":-0.02943678578600535,"31":-0.13874681038497003,"32":-0.04391999358383105,"33":0.00600553160575416,"34":0.0818384911151977,"35":-0.014183152619727992,"36":0.038550629079603105,"37":-0.04104147949514822,"38":0.05673641275792368,"39":-0.16945997362921514,"40":-0.0003293274854838849,"41":-0.022986321003023214,"42":0.052422370727107,"43":-0.01715986790086385,"44":-0.00958379108894877,"45":-0.08389669702718616,"46":0.04363740996896141,"47":0.11713280935327208,"48":-0.10417764362070472,"49":0.017238222259200357,"50":0.05877037638619853,"51":0.1597548683862116,"52":-0.040936465838713014,"53":0.03571861292456166,"54":-0.057776014946807036,"55":-0.004646406466013954,"56":0.1002714116974826,"57":-0.016581654074332153,"58":-0.004488499993562994,"59":0.010952574113199422,"60":0.05021133956017901,"61":0.037133221500655116,"62":-0.11018885431038868,"63":0.030173908813743242,"64":-0.0009125061980635925,"65":0.06969739974821412,"66":-0.00414482899946249,"67":-0.07771294524319615,"68":-0.005833111152653876,"69":0.031283610480360484,"70":-0.10259729979868908,"71":0.03790621542270736,"72":-0.0985484220691573,"73":-0.10505175919762941,"74":-0.009670172049383122,"75":-0.015774025488196373,"76":-0.06571768205116298,"77":-0.0887481763790375,"78":0.04966539191706381,"79":0.0098672737535002,"80":-0.08566655963651769,"81":0.008319917904481274,"82":0.1168797552571342,"83":-0.12232182967739422,"84":0.05040887928575501,"85":-0.05332965370549883,"86":-0.11757590050114165,"87":-0.02045989522101616,"88":-0.016699521665081436,"89":-0.061911792016844866,"90":-0.02282781191990608,"91":0.03528174008879488,"92":-0.00698061493710004,"93":0.0018324560682099619,"94":0.006344302201106535,"95":0.03986719548418786,"96":-0.015308768263099282,"97":0.025756042119011634,"98":0.016819756409623597,"99":0.05435903551035166,"100":-0.08744076378223742,"101":-0.020590024543521324,"102":0.11702062938047506,"103":-0.025974296091497855,"104":0.0018679375213600253,"105":0.00658813156554427,"106":-0.056763025268389666,"107":-0.0737917768120526,"108":-0.04978881634563636,"109":-0.09930505761771388,"110":-0.07897329760964293,"111":-0.0513290890084473,"112":0.07610036499277577,"113":0.05772769750467758,"114":0.10769478300159993,"115":0.07565516900949998,"116":0.04733920163176146,"117":-0.1185634514668319,"118":-0.02772244837931735,"119":-0.01064966391764288,"120":0.03016545776373877,"121":0.05981741417418902,"122":-0.058537493407073656,"123":-0.1281664465245338,"124":-0.010722178289301037,"125":0.0030152196704957093,"126":-0.042871351712914,"127":-0.0390214574486184,"128":-0.14704400082341582,"129":-0.041846429351711775,"130":0.02200171596026306,"131":0.026696342707986345,"132":-0.05071341777061835,"133":0.03354365281332903,"134":-0.05815087167365191,"135":-0.0833452291790749,"136":-0.12093632584144284,"137":0.02645394309773878,"138":-0.12857827911677897,"139":-0.06384147234822522,"140":0.053436220339922826,"141":-0.0013020859755161786,"142":-0.049982520741260854,"143":0.0007858612988851802,"144":0.0034831525839744367,"145":-0.12507776177503876,"146":0.06907741786589242,"147":-0.030174043418622228,"148":-0.014598704363416586,"149":0.058672165496211334,"150":0.0414472867017675,"151":0.02529867598043732,"152":0.07016431877303757,"153":-0.11520648072197454,"154":-0.009622038872397659,"155":0.05560391644030386,"156":0.050699753750368406,"157":-0.03597760918343659,"158":0.10109186315194346,"159":-0.018503284943656786,"160":-0.029714813539334927,"161":0.03442698074662567,"162":0.001078217070730193,"163":0.026215136445836677,"164":0.006546689646705677,"165":0.008837591930261348,"166":-0.0188534556642044,"167":-0.009382633538011642,"168":-0.010048651512193486,"169":0.013922907039065114,"170":-0.034832119215814014,"171":-0.0020619721637563193,"172":0.00993087164644703,"173":-0.09258663496501049,"174":-0.0033728787792316212,"175":0.06264927860057579,"176":0.004816622102089229,"177":-0.16449262611338017,"178":0.021605940220382744,"179":0.08589800162990886,"180":-0.016630133520229608,"181":-0.008047279828398252,"182":0.0005968503661455704,"183":0.12262320322813143,"184":-0.012779758361692569,"185":0.06729598080543221,"186":-0.017459090096078718,"187":-0.04598271740678433,"188":-0.0035062623977158143,"189":-0.004174539608710272,"190":0.007069559354818663,"191":-0.05326414022896094,"192":0.03221387633320486,"193":-0.0007938760242350535,"194":-0.029930572130566803,"195":-0.12071635038662036,"196":0.04314289965889755,"197":-0.006810164964002501,"198":-0.019173612889286398,"199":-0.017142170861301168,"200":-0.026911020879746214,"201":-0.030259380961875713,"202":-0.016040101123376227,"203":-0.030970700234576768,"204":0.03162201554810905,"205":-0.10118759223843388,"206":-0.012035651946566708,"207":0.011829672036048587,"208":-0.02680044793487929,"209":0.030961997343849378,"210":-0.060604356394682105,"211":-0.01642795298876707,"212":0.06827441333060315,"213":-0.026766870812244752,"214":0.04341532777848082,"215":0.0275580775260774,"216":-0.03907584967719161,"217":0.0493595616533875,"218":-0.07560222506576358,"219":0.03059973274818949,"220":0.01765700149186378,"221":0.05335936165844795,"222":0.012212452465324727,"223":0.09425573582001792,"224":-0.027221861399190646,"225":0.015406996342774587,"226":-0.0019247190354359754,"227":-0.07060687944387033,"228":-0.009550858213680484,"229":-0.05313043823197634,"230":-0.12082767567730085}},{"sx":1,"sy":1,"depth":231,"w":{"0":-0.2915836366266121,"1":0.03377505652461193,"2":0.06566075884652686,"3":-0.20837164103322542,"4":0.08218956533267231,"5":-0.0640398108024041,"6":-0.20470435708426482,"7":0.03378058735644264,"8":-0.027866490300900527,"9":-0.14272169029867426,"10":0.03376560541625074,"11":0.07832792166231672,"12":-0.2741291312335313,"13":-0.1254354221036547,"14":0.12714373280515498,"15":-0.15568005568287488,"16":-0.12969899753307187,"17":-0.037048248710829894,"18":-0.17504312363993807,"19":-0.14050975802543095,"20":0.11755849202084125,"21":0.026711417749737662,"22":-0.006629379305380294,"23":-0.005243720189089416,"24":-0.046532943977858954,"25":-0.00891638868878491,"26":-0.03372624475756008,"27":-0.0734864818054817,"28":0.0187689586741444,"29":0.007270922033773684,"30":-0.0534314911208297,"31":-0.19017201762752778,"32":0.0679380223460862,"33":-0.0352282434381001,"34":-0.026656094348522227,"35":-0.013282607386938658,"36":0.02349377571854859,"37":0.018776394984877424,"38":0.05551121195773455,"39":0.018101269778293762,"40":0.028200362788929997,"41":-0.011228354044044491,"42":0.051691617798477106,"43":0.006976310575744146,"44":0.04247897123442693,"45":-0.06980882371478533,"46":-0.04124657568000654,"47":-0.013998170220231813,"48":-0.10000308864883735,"49":0.09210936536379118,"50":0.11052723814445164,"51":0.1026980575043725,"52":-0.006902651182399168,"53":-0.020439951583771217,"54":-0.10491929480659762,"55":-0.02157595910709462,"56":-0.05727732047193943,"57":-0.0981570487906673,"58":-0.04882090789596432,"59":0.12483848514606581,"60":-0.08626555186574375,"61":0.006005370574315588,"62":-0.09903764218380724,"63":0.020991660299491472,"64":-0.04548871223062936,"65":-0.19624723508824224,"66":-0.04710136557449539,"67":-0.06988890066637193,"68":-0.06412412165767199,"69":-0.12197261326340537,"70":-0.12598408346489634,"71":0.021015714390947005,"72":0.016978352589075735,"73":-0.01651274051589891,"74":-0.09872471097967343,"75":0.1531568355841966,"76":0.01957587269011135,"77":-0.10341701381282087,"78":0.08644429639882222,"79":-0.036142363577457676,"80":0.041339622085280935,"81":-0.0072670607228226495,"82":-0.04275047953225263,"83":-0.10519913472924979,"84":-0.1606222072804872,"85":-0.016954943245246986,"86":0.06945582510528568,"87":0.03970565810641731,"88":-0.03387690603349616,"89":-0.07569532174236301,"90":0.025635348329564038,"91":0.0888875835529186,"92":-0.061091843601551725,"93":-0.0897121015173232,"94":-0.055086486833233826,"95":0.037821736799118155,"96":-0.03264965707016958,"97":-0.0378434170167633,"98":-0.020520610594243056,"99":-0.014964890283081638,"100":0.15578871869692595,"101":-0.10463563570628137,"102":-0.051540879952591045,"103":0.09669719715533115,"104":0.008676431346685401,"105":-0.12304548820990939,"106":-0.01899871332866481,"107":0.018905050602020274,"108":0.08824007880598113,"109":0.04696749609688275,"110":0.08027150087341366,"111":-0.14081948515422912,"112":-0.07553618304269136,"113":-0.10590066251363103,"114":-0.09272014530115338,"115":-0.04460550381559789,"116":-0.0077513597111846105,"117":0.044131283566005555,"118":-0.1227630118651694,"119":0.12761241358338374,"120":-0.0651672906572813,"121":0.08737200436639288,"122":0.06324389969178393,"123":0.10584014292800582,"124":0.01605456530148208,"125":0.0032296126549756156,"126":-0.08840650951114852,"127":-0.05230129172352907,"128":0.006307349898688156,"129":0.10072736447121745,"130":0.035155182018434684,"131":0.12107622516859283,"132":-0.01466107666458435,"133":-0.07730568802857572,"134":-0.01659498676343511,"135":-0.09581556979966976,"136":0.019315606103491107,"137":0.13954313474379618,"138":-0.039598525637734694,"139":0.03713730576985515,"140":0.04076274206821242,"141":-0.0365619022602089,"142":-0.025413767060712595,"143":-0.015690713777755536,"144":-0.08815438621331,"145":0.1196051041484705,"146":0.01886710761939629,"147":-0.025322808567439264,"148":0.04345291062521795,"149":0.05924995468006074,"150":0.03542328219234563,"151":0.021275406645435042,"152":-0.13632911252713362,"153":0.032749226871293294,"154":0.005712278262434733,"155":-0.062142764564543235,"156":-0.009901670915004782,"157":0.1093483016442027,"158":0.08175074729099217,"159":0.006333348185107664,"160":-0.0705467522022394,"161":0.02172088173302404,"162":0.05886044532979442,"163":0.055683290329840665,"164":-0.003035509962608419,"165":-0.049749679714937024,"166":0.09589632631494024,"167":-0.026103209926179753,"168":0.03306249029042437,"169":-0.04053432211344416,"170":-0.15154658240450766,"171":0.06089542872854254,"172":-0.007801088768944874,"173":0.009338593638881513,"174":-0.054530493416508355,"175":-0.008166254281684686,"176":-0.04152434553683393,"177":-0.003437110652997712,"178":-0.13735826254880623,"179":-0.05933432498235456,"180":0.13064906375126215,"181":-0.0088004868371244,"182":-0.0037840277437371107,"183":-0.0673165264356446,"184":0.06160620161061594,"185":0.17597221764549698,"186":0.0846334054848783,"187":-0.08210017006202718,"188":0.01933978790520997,"189":-0.014325452055528053,"190":0.009170255826851187,"191":0.0859463856941378,"192":0.08595598658626534,"193":-0.07022197551927976,"194":-0.026438527584526354,"195":-0.12436773848274103,"196":0.023565682586036113,"197":0.032932294842221294,"198":-0.011098044457950032,"199":0.06983301874083313,"200":0.04181454535751442,"201":-0.1386380217684814,"202":0.01996756828894865,"203":-0.05461947615865858,"204":-0.04536508500648106,"205":-0.10075512002448328,"206":-0.06001733437446799,"207":0.04655008687396711,"208":0.10727309295991849,"209":0.013791047685050288,"210":-0.015948611053569612,"211":0.03699749588888981,"212":0.04788464281813936,"213":-0.08385184551054378,"214":0.08324743342448096,"215":-0.03613831588239995,"216":0.07886920399793677,"217":0.06424299902784031,"218":0.06467073129056851,"219":0.06549754080968322,"220":-0.009225147448938951,"221":-0.09918204030298368,"222":-0.005706219952179473,"223":0.04718547545474793,"224":-0.04723045677450562,"225":-0.044977439608612044,"226":-0.005145030378639599,"227":-0.04968463828232113,"228":0.0674395559017439,"229":-0.03329674099330358,"230":0.14446018880001607}},{"sx":1,"sy":1,"depth":231,"w":{"0":-0.033435468357004505,"1":0.050733195056920734,"2":0.05871051255116374,"3":0.09193008896923796,"4":0.004625821928481846,"5":0.07209509718063475,"6":-0.04882649264732644,"7":0.10305513679390806,"8":-0.03814824281076381,"9":0.04195054309753777,"10":-0.08159961013244026,"11":0.04596944345224935,"12":-0.06922570612408685,"13":0.004663218701494626,"14":0.07693451274743651,"15":0.0623418039949952,"16":0.02240097565617782,"17":0.032834907232187086,"18":0.05521481389607107,"19":-0.04605030361620966,"20":0.10737736273380563,"21":-0.034706974095838256,"22":-0.027067045072411335,"23":0.026742655710230906,"24":0.008618772317555947,"25":-0.027649556052011668,"26":-0.035574561778182835,"27":0.005926529925578048,"28":-0.09227416573235142,"29":-0.026326562878335357,"30":0.025564768269458703,"31":-0.12384921211167363,"32":0.03938262318130739,"33":-0.10451219512731218,"34":-0.007526038272227204,"35":-0.04263177683089674,"36":0.024323154512371097,"37":0.024274473323810185,"38":-0.08699901353702923,"39":0.007243993367322851,"40":-0.04097021292509163,"41":0.06431337717893527,"42":0.1257397459815267,"43":-0.06852713811908992,"44":-0.12299489520778237,"45":-0.12060152926808997,"46":0.013915126808276461,"47":0.060901923080428584,"48":0.024764099648080257,"49":-0.021274510050293193,"50":-0.040795026612872785,"51":-0.12785979572495784,"52":-0.09289463848815707,"53":-0.003350012412132018,"54":-0.028107804326937914,"55":0.1630569730695778,"56":0.0059486336609517665,"57":-0.020546751813050025,"58":-0.15564911454025637,"59":0.0403256660012705,"60":-0.06536826686269297,"61":-0.05909423511661041,"62":0.10135829009698424,"63":0.055326936202158755,"64":-0.0007844274307945275,"65":0.013257002550773996,"66":-0.04744538265326831,"67":-0.020848125149815648,"68":0.018782023811531726,"69":0.1625058047564169,"70":0.016104688176561657,"71":0.0009868299236810776,"72":0.007204690864427691,"73":-0.038726902808790584,"74":0.06878092368170613,"75":-0.00253752111216636,"76":0.039916121664463254,"77":0.021702955456001816,"78":0.03867460244783238,"79":0.002917378620603249,"80":-0.07335072497417182,"81":-0.01647924322996237,"82":0.01000903949712313,"83":-0.02411200824614776,"84":-0.03497393477541585,"85":0.06782565981940485,"86":0.05254795284532108,"87":-0.01262513449700703,"88":0.03677318346992441,"89":-0.04228661166054773,"90":0.04382100386553498,"91":-0.0820550005995231,"92":-0.010667102451256969,"93":-0.08311299767474538,"94":-0.07028249095557827,"95":0.04539211541375612,"96":-0.013095882728079964,"97":0.04096687855035898,"98":0.02242943061442697,"99":-0.1570745119510964,"100":-0.026640569552785934,"101":0.043788447763516154,"102":0.01213028884551023,"103":-0.07893708728381822,"104":-0.04016767733963244,"105":0.0023978581793677174,"106":-0.11078851248907103,"107":0.032453128631261166,"108":0.04295258655133255,"109":0.0620086783270511,"110":0.01775226163853883,"111":0.05081932843652399,"112":0.051539917443260176,"113":-0.05046851741034343,"114":-0.04364574584863624,"115":0.005506227695260656,"116":0.06444945731403086,"117":0.03233127027011255,"118":0.0698619746889777,"119":-0.06720579430566413,"120":0.12275401518474856,"121":0.05248074310774592,"122":-0.002403262043356115,"123":0.021120771376479785,"124":-0.039177804410919476,"125":0.001343450849767558,"126":0.06447541417020218,"127":0.01930672314335908,"128":-0.08152372267877622,"129":0.0782524004919278,"130":-0.09115587575503738,"131":0.046757292982026744,"132":0.029702225918287885,"133":0.012952255305172146,"134":0.13958587411820367,"135":-0.03037288161092287,"136":0.04581413701528841,"137":-0.04665978384015243,"138":-0.023437583832035265,"139":0.05736407390519944,"140":-0.017805550302650488,"141":0.07632867265631753,"142":-0.025604978656196986,"143":-0.05678144442205692,"144":-0.030278537311915064,"145":0.10108612271134917,"146":0.0075309563117924505,"147":-0.03294942020886683,"148":-0.04917269772176821,"149":0.038320778316979526,"150":0.05060166992629002,"151":0.021428815787501228,"152":-0.0032933135700320714,"153":-0.025852231941889153,"154":0.04211723161712727,"155":-0.04142388891427306,"156":0.01797683569605487,"157":0.013085506237992784,"158":0.0911610673442266,"159":0.06950488167192967,"160":0.0023465648385769954,"161":-0.11286345679941553,"162":0.07268526192799751,"163":0.011410456953433422,"164":0.09149171047618108,"165":-0.029387590625696132,"166":0.0042274972664591605,"167":0.0020205034077851406,"168":0.029111727554709005,"169":0.06406246156264202,"170":0.025329110349551168,"171":0.06116376769576508,"172":-0.015400511315914685,"173":0.009255771844288519,"174":-0.05265303432363687,"175":-0.0076709885513760925,"176":0.09387866195635414,"177":0.008491728059623685,"178":0.03107626846691709,"179":0.06974207555495088,"180":0.03660122865159921,"181":0.017135432250645836,"182":-0.021109845845697237,"183":0.10141982838829423,"184":-0.005919742903078654,"185":-0.05405355552717823,"186":-0.07861205034528161,"187":-0.016461526484139767,"188":-0.012572933879173104,"189":-0.07127174575383358,"190":0.10104858808949845,"191":-0.047954534598770665,"192":-0.023210587029206736,"193":0.002668361931541072,"194":-0.029067660859616488,"195":-0.048414705514090405,"196":-0.02854543453563669,"197":-0.0029880361916640617,"198":0.047618393805367844,"199":-0.023488233715756538,"200":-0.05512870646952732,"201":-0.004627544822953884,"202":-0.058013421533203685,"203":-0.03431475192847486,"204":-0.07269660308901091,"205":-0.03701786391511353,"206":-0.05644870396004513,"207":0.008398228983040547,"208":0.0011952568916141783,"209":-0.03749997447423937,"210":-0.009541074318510624,"211":0.01905104052226552,"212":0.07095318258793457,"213":-0.013928190907113384,"214":0.023646297683519786,"215":0.08990225705913792,"216":-0.08619418142588525,"217":-0.041194567209964957,"218":0.05182004450721741,"219":-0.04622101549246397,"220":-0.056560220040052706,"221":-0.0655013672586571,"222":-0.08453884606917296,"223":-0.024406689781298334,"224":-0.05113362774334454,"225":-0.02959604096392055,"226":0.08276548878410614,"227":0.11219854158095732,"228":0.021310184353585053,"229":0.0682510531020976,"230":0.03357997525875323}},{"sx":1,"sy":1,"depth":231,"w":{"0":-0.3104336935655038,"1":-0.10879661074043696,"2":0.17031392284817232,"3":-0.23541877134506914,"4":-0.07602017747881493,"5":0.2222395299099469,"6":-0.2653877521317544,"7":-0.05577434354323647,"8":0.0439322767220834,"9":-0.2341077023273454,"10":-0.08957491497195705,"11":0.09956424538912864,"12":-0.35690491889072584,"13":-0.13418174415345896,"14":0.1338046183394803,"15":-0.26579575172183206,"16":-0.20137484012690718,"17":0.05606443181184459,"18":-0.258849758977041,"19":-0.06025469484993908,"20":0.15151218679916237,"21":-0.26514797780076754,"22":-0.05860059274293064,"23":0.014702286433738736,"24":-0.17703138083028175,"25":0.013388079603268245,"26":-0.01256923150367107,"27":-0.28799370128351487,"28":0.17881755196583252,"29":0.07166179480599945,"30":-0.10747051153768483,"31":0.07490004965481759,"32":0.033816805938603776,"33":-0.08326226549201046,"34":0.037588663407551355,"35":0.09298563932866653,"36":-0.20353025748562079,"37":-0.011332528789988125,"38":-0.07030293498252392,"39":-0.1498732313853348,"40":-0.13114413804170216,"41":0.11506159287813489,"42":-0.13286818953056034,"43":-0.01936307525397175,"44":0.051617653342406526,"45":-0.02007430712627657,"46":0.09539053160857305,"47":0.006632155134258957,"48":-0.08156180122418435,"49":0.029310361488205084,"50":0.00791759546021006,"51":0.12485169677944605,"52":0.011778718994614737,"53":-0.09682424364579517,"54":-0.08555449976972107,"55":-0.01010005802489923,"56":-0.07875317542073632,"57":0.003524757952024624,"58":0.1038535664535717,"59":0.02452927906043712,"60":-0.047237912298804134,"61":-0.09321355659890215,"62":0.05683301105143332,"63":-0.0019811829775167405,"64":0.03211172620542472,"65":-0.035799000413670345,"66":-0.01531420459724934,"67":-0.05337793228158465,"68":-0.10565115854064054,"69":0.03031293582961278,"70":-0.12312701185876229,"71":-0.02191120792120259,"72":-0.09722259076291194,"73":0.030506363378230573,"74":0.008561205640366575,"75":0.13027467908640436,"76":0.019766303075995365,"77":0.001411373628721398,"78":0.021923853376237337,"79":0.10606836872775623,"80":0.0183004331286077,"81":0.017232443897068597,"82":-0.009711502914286933,"83":-0.010266066926562425,"84":-0.022982714892633913,"85":0.023243388923972364,"86":-0.037836215815890105,"87":-0.016812827321616874,"88":0.07711988148886063,"89":0.014028947858744133,"90":-0.03915480568303699,"91":-0.061521733194095665,"92":0.013852416395104476,"93":0.03932569637134049,"94":-0.05071392534180715,"95":-0.08260767317682423,"96":-0.03519127009436202,"97":-0.04260478784117774,"98":0.05986832232421122,"99":-0.01396475203464808,"100":-0.08130997989923215,"101":0.0009176810629203526,"102":0.0026930970801779344,"103":-0.01650299777192416,"104":-0.06464902163928817,"105":0.00477237946092865,"106":0.025047031720132125,"107":0.044333462557687914,"108":0.019589719040696296,"109":0.041026280439826424,"110":-0.11895200295099892,"111":0.021817334656008887,"112":0.014058141236158925,"113":-0.07239184655774239,"114":-0.08214801748613527,"115":-0.060812073400185344,"116":-0.00843075656800863,"117":0.02371714845369048,"118":-0.02600696372067181,"119":0.023419981428521797,"120":-0.03859462609979515,"121":-0.016666852888461894,"122":0.01953370304015431,"123":0.08599696285562668,"124":0.037783981571069034,"125":-0.07304210563432105,"126":0.05572533338739349,"127":0.030506005977853586,"128":0.010173500039007405,"129":0.04033308720189931,"130":-0.033296744517492136,"131":-0.025996590357122755,"132":0.04222333833694267,"133":-0.04272372380746321,"134":-0.07218896656146885,"135":0.14982839226645078,"136":0.02462477086148622,"137":-0.040063509242451306,"138":0.05135055503585124,"139":0.02024851333052986,"140":-0.001742656617936631,"141":-0.007554310005322885,"142":0.07445882154978675,"143":-0.0020668837955760996,"144":0.03246039567654034,"145":-0.15687405032950538,"146":0.04175602423734544,"147":-0.05383323199429965,"148":0.026015732361072328,"149":0.006451356907059212,"150":-0.009752438865190968,"151":0.05206625697185855,"152":-0.1652123414585749,"153":0.045597644635797865,"154":0.02238951022525736,"155":0.05769448608694252,"156":-0.058741013428246086,"157":-0.04951249163278807,"158":-0.0388900105112765,"159":-0.019846430029627226,"160":-0.10587364250824705,"161":-0.013674366618048538,"162":0.0002115962645275706,"163":-0.12001786744337165,"164":-0.02262258330690825,"165":0.1077069108296102,"166":-0.11474609549353768,"167":-0.07626897228846173,"168":0.07944414535966289,"169":-0.02821370893713729,"170":-0.09961205051014764,"171":0.06335133784549302,"172":-0.10335761739207346,"173":-0.08963799607905647,"174":-0.021660737272378522,"175":0.05808163578672434,"176":-0.057061372771398534,"177":-0.007332275451475973,"178":-0.02698035379168408,"179":0.045809966111254485,"180":-0.045130912399655165,"181":-0.00859359014746777,"182":0.028526131393763626,"183":-0.026293392957134717,"184":0.05791209656205061,"185":-0.012004766122160844,"186":0.07623722047700919,"187":-0.0629672598855589,"188":-0.0843269324980352,"189":-0.008448707484827435,"190":0.019087272225484224,"191":0.02595879445171877,"192":-0.04100315092464895,"193":-0.005417087249170946,"194":-0.08651977964915582,"195":0.0426579560802051,"196":-0.008481025767116799,"197":0.1055296007551671,"198":-0.005304384468624552,"199":-0.02896624166249777,"200":0.04007778943745082,"201":-0.051704272493681196,"202":-0.04634987466177431,"203":-0.04919168647777846,"204":0.06802427096348515,"205":0.07483309339074584,"206":-0.08746320237500603,"207":0.03769938211751764,"208":-0.03747103560570325,"209":0.08038711724074003,"210":-0.006518261469471209,"211":0.0719126714987586,"212":0.038909710275711135,"213":-0.002679115872283672,"214":0.016904895083292425,"215":0.05987296305790975,"216":0.030610749387677563,"217":-0.12042756964980941,"218":-0.051238572401489636,"219":0.031574591795309616,"220":-0.024473291362233737,"221":-0.11957901831713855,"222":-0.04187095899046201,"223":-0.0673751818813889,"224":-0.06261080838525854,"225":0.02631342365041097,"226":0.04443938196031827,"227":-0.040275730947918566,"228":-0.06034154978501921,"229":0.1286942101751324,"230":-0.05142201741490445}},{"sx":1,"sy":1,"depth":231,"w":{"0":-0.046956005187205864,"1":0.0836817467476108,"2":0.11312709589396974,"3":-0.032791745660287794,"4":0.04565789375450384,"5":0.008384355889209744,"6":-0.05330781871199803,"7":-0.0022599928591352913,"8":0.10206272123678285,"9":0.008740410248623213,"10":0.14464022286350944,"11":0.009787053239790401,"12":0.02113594289127082,"13":0.0758418040662389,"14":-0.011504232542982815,"15":0.10040621578206821,"16":0.07834244786116276,"17":0.10510895415165322,"18":0.11318660857755379,"19":0.07445886583356125,"20":0.15316217212652292,"21":0.08000847789268631,"22":-0.05653968861713642,"23":0.054725166110486494,"24":-0.16443738674700947,"25":0.0030759985445707703,"26":0.015642071107552252,"27":-0.08958155199540245,"28":-0.024678882282234974,"29":0.04745788193060955,"30":0.010963579524268761,"31":-0.042077753136208,"32":0.025964462354012948,"33":-0.09004571599203451,"34":0.006877164676682677,"35":-0.015254094128431988,"36":-0.012152437096176893,"37":0.017637419797834914,"38":-0.09937171716161503,"39":0.003084493649245926,"40":0.14244653241253846,"41":-0.0008356704478969112,"42":-0.06428812353519052,"43":0.05436090875614964,"44":0.07146248147779125,"45":-0.021682540702103213,"46":-0.021503474979758803,"47":0.008154501654888829,"48":0.020918525788953476,"49":-0.01811492413641959,"50":-0.04247119250285085,"51":0.07180046370527507,"52":0.03544924881071656,"53":-0.1549072371045758,"54":-0.0397717759643074,"55":-0.06304491878823554,"56":-0.05363781088112654,"57":0.00519732311164975,"58":-0.10441524507082839,"59":0.1903424725480567,"60":0.013241258264713318,"61":0.025270244406777352,"62":0.10579961562700155,"63":-0.01758777675487882,"64":0.05862557069082204,"65":-0.016343360081589913,"66":0.008597968986684981,"67":0.039918471609692086,"68":0.1485304863025923,"69":-0.025268090898778912,"70":-0.09904619900591918,"71":0.047804777306672604,"72":-0.04050450948695143,"73":-0.015211075608607854,"74":0.10849509661201809,"75":-0.10857564244308884,"76":-0.1258601056555501,"77":0.12551395048220393,"78":-0.008307751162636564,"79":-0.039420371281771734,"80":0.02722060639274544,"81":-0.024213265111004315,"82":-0.008133132537372606,"83":0.0638679076199579,"84":0.05555460036239885,"85":0.0708351757461274,"86":0.0157772996653541,"87":-0.09391995254081983,"88":-0.032410121506253886,"89":0.027593108960438602,"90":0.009031203665995718,"91":-0.018034314520438407,"92":0.025871150022338932,"93":0.1257689004809161,"94":-0.07171160045343329,"95":0.0529240542800869,"96":-0.07980273515629976,"97":0.07465325729958806,"98":0.10570146838566914,"99":0.00047559531147168345,"100":-0.0731934795782863,"101":0.02562545766361045,"102":0.0725746290565548,"103":0.08384438616999683,"104":0.011578086281204183,"105":-0.012508698309908453,"106":0.0900652825216168,"107":0.0831831525641465,"108":0.022503053674164008,"109":0.1180028626513828,"110":-0.08854444306027807,"111":0.00958861644558217,"112":0.06199564857623679,"113":-0.031631478958266145,"114":0.0701790462676415,"115":-0.08810849742466896,"116":-0.09138555595811249,"117":0.1971271896991495,"118":0.025320614146315954,"119":-0.030635467257369854,"120":-0.00933237033542107,"121":0.053522365242315316,"122":-0.03135502375349954,"123":-0.046677167473433985,"124":0.1062673775342927,"125":0.08185177346223692,"126":0.021055135389217248,"127":-0.07324832907405014,"128":0.08502157949796214,"129":0.09356606167470022,"130":0.0397586851735603,"131":-0.15049627297808635,"132":0.04849754529719791,"133":0.0005563018466814675,"134":0.027756106467019766,"135":0.0544651952768391,"136":-0.06939182888269241,"137":-0.030995355627536796,"138":0.0829764548492538,"139":-0.05277692476979011,"140":-0.005954940900471411,"141":-0.06523214264280341,"142":-0.023863647468016135,"143":0.04040673362235561,"144":-0.04116105479608711,"145":0.08449062520728629,"146":0.10819521937006023,"147":0.014086993258276408,"148":0.030149564717709323,"149":-0.08653024874460305,"150":-0.08457031504809874,"151":0.07677012976088156,"152":0.0187817294826856,"153":0.05073835503084651,"154":0.12013207596551698,"155":-0.08254358472983689,"156":-0.018613314226301286,"157":0.0688114052004319,"158":0.0683212641567881,"159":0.009497821286792836,"160":-0.018180198288463224,"161":-0.05048927283542871,"162":0.06628145210132075,"163":0.02264765761197352,"164":-0.11576344084491617,"165":0.07313728147973785,"166":0.005249597574176385,"167":0.050497159369553284,"168":0.03569972801219411,"169":0.009009827974105378,"170":0.11177051152999891,"171":-0.07518733043518608,"172":-0.022874807272661384,"173":0.06928937797275724,"174":0.058779590123638085,"175":-0.046314938514636736,"176":-0.026485580742318826,"177":0.09337788273226703,"178":-0.09552908508320897,"179":0.032829955214458764,"180":0.02700377911135918,"181":-0.023074186515440607,"182":-0.06246925867395389,"183":-0.09028711096239601,"184":-0.06243794536038423,"185":-0.07619357274179005,"186":0.1641666834226523,"187":0.022083815786668983,"188":-0.08909954868357277,"189":0.020082792106730443,"190":0.0674625785304943,"191":-0.01555318300072359,"192":-0.03188173029787808,"193":-0.05320465367514143,"194":0.0597868732687435,"195":-0.0007066192462656674,"196":-0.03861450026048068,"197":-0.00012404392578817058,"198":-0.09968193776453316,"199":0.08080097187406243,"200":0.040190889068919766,"201":0.03637226584939199,"202":0.005775332936926916,"203":0.10048763126204718,"204":-0.10052163160889055,"205":0.07037333888119036,"206":-0.13180281755799886,"207":0.030923527513519226,"208":-0.10066230932291985,"209":-0.008868000078326794,"210":0.02481925236668851,"211":-0.004474152458861126,"212":0.023989818686205824,"213":0.006194752183035458,"214":-0.06647847144488268,"215":0.009027112991035795,"216":0.034607160601128145,"217":0.012978476850068492,"218":-0.03571181537274335,"219":0.024590086749410395,"220":0.012155156377057365,"221":0.0001831400289850136,"222":0.016393867812545124,"223":-0.10383960262581712,"224":0.034576638508096676,"225":0.026374382395180116,"226":0.07327214940238541,"227":0.0022490612288916865,"228":0.02527980070965653,"229":0.026133257466809882,"230":0.08834312254807282}},{"sx":1,"sy":1,"depth":231,"w":{"0":0.02829593131525694,"1":0.08684037115176498,"2":0.35897870071596294,"3":-0.04124086788748761,"4":0.00775471521620459,"5":0.23531696387168483,"6":0.18208087962861833,"7":-0.09395285105821877,"8":0.18709155644782277,"9":-0.06958490951691657,"10":0.07351715989204148,"11":0.17353805499921834,"12":-0.000625702188966525,"13":0.15894583901763065,"14":0.21211380676278643,"15":0.04886114838250975,"16":0.10391875611530377,"17":0.11730102323186081,"18":0.07318655546704017,"19":0.19766977274143954,"20":-0.015010536469876013,"21":0.007292794952595262,"22":0.008447963887114253,"23":0.029464052917665837,"24":0.003295002962623462,"25":-0.015380674137929401,"26":0.004551259420350951,"27":0.0494438701978643,"28":0.1355930074454848,"29":-0.015639801194052252,"30":-0.177016123099773,"31":-0.06196498179506462,"32":0.009888671410467096,"33":-0.008146029970560636,"34":-0.0003748706947063441,"35":0.09973356519179721,"36":-0.04119390106775917,"37":-0.023405595916259365,"38":0.08772158086228958,"39":-0.05896441912942548,"40":0.03103016158810417,"41":0.07349320100719904,"42":-0.06988057445415823,"43":0.04370598247961692,"44":0.06534821272938385,"45":-0.08189235212435891,"46":0.07549217027278197,"47":0.05643041376576545,"48":-0.09977125787636944,"49":0.004311376902754538,"50":0.009670496876072571,"51":0.020316997081250586,"52":0.05623498937296713,"53":0.0063450708060641325,"54":0.03575075159014251,"55":0.10133479873709707,"56":0.12450767175096807,"57":-0.025697291743905767,"58":0.040719129259685335,"59":-0.009345112794149199,"60":0.07933218043506345,"61":0.027853690102984108,"62":-0.003911698565210097,"63":0.12492287345095093,"64":-0.023288150788526973,"65":-0.058463228770282774,"66":-0.005444759008221858,"67":-0.07093456659592302,"68":-0.07364869593145151,"69":-0.07203595027818847,"70":0.05745267438375875,"71":0.014799137305634381,"72":0.08148535634957786,"73":0.05253403444896788,"74":-0.041301342982732435,"75":0.0998935577459628,"76":0.03362694623528621,"77":0.0034480435047291326,"78":-0.01113563189077766,"79":0.040159783396700614,"80":-0.04055038331360638,"81":-0.06923154196530315,"82":0.03747747267138134,"83":-0.0629721143648769,"84":0.0068493439778535515,"85":0.03495202632207517,"86":-0.004642052682546209,"87":0.04726672790834295,"88":0.053752008869398765,"89":0.11546864097820192,"90":-0.03827463470569732,"91":0.07446671279779339,"92":-0.045012398877051836,"93":0.05160568535590869,"94":0.07506070620110634,"95":0.04662005803340165,"96":-0.0000020708038921714825,"97":-0.010654124793535308,"98":0.01111270865494486,"99":0.06057864624775104,"100":-0.02235668605333911,"101":-0.005778340555831587,"102":-0.04551149931272092,"103":0.0030770138570611534,"104":-0.09033774227292499,"105":-0.031183660349776484,"106":0.06443039332436583,"107":0.024291336471693487,"108":0.0658111808408598,"109":0.07876235579629008,"110":0.049652910923768445,"111":0.07900903457638846,"112":-0.09488249210949527,"113":0.029051979854717823,"114":-0.06884933501413294,"115":-0.04366116004655865,"116":0.06773053551868828,"117":0.0832074823833194,"118":-0.0200655715947102,"119":-0.010059991153741394,"120":-0.09273484102502773,"121":-0.0021969662710375477,"122":0.023739532323258993,"123":-0.05017147879020922,"124":-0.13800014329088703,"125":-0.031319925893274286,"126":-0.06275635553761932,"127":-0.016934990835349873,"128":-0.050334278352991896,"129":0.062090157652269475,"130":-0.05901622675200049,"131":-0.019020194557413262,"132":0.0006388259829027256,"133":0.03308794923194715,"134":0.0533220464164815,"135":0.05825033353024305,"136":-0.014964366702879381,"137":-0.10203370460513249,"138":-0.008502876579482772,"139":-0.014226806925655918,"140":-0.05810100235450133,"141":-0.010077068321687664,"142":-0.03446005283709124,"143":-0.10221616232897555,"144":0.04334318446390713,"145":-0.041834179798078006,"146":0.023577824499005647,"147":0.017711564688147798,"148":-0.008027602215622844,"149":-0.08926004818800275,"150":0.12131097676657132,"151":0.006286198427654241,"152":-0.049793584352778406,"153":-0.03548104673004893,"154":0.024581247857553574,"155":-0.004221534940518344,"156":-0.052207703940295766,"157":-0.018042063369119656,"158":-0.10111990049534719,"159":0.04564650424582318,"160":0.03019206189278234,"161":-0.027932003065547394,"162":-0.003776450226230103,"163":-0.026013873161565487,"164":-0.10270071873534592,"165":0.19571690631289382,"166":0.013330632170197877,"167":-0.04032839387347071,"168":-0.058678842790932606,"169":0.14808449737305512,"170":0.18142731434081963,"171":0.019138911239048147,"172":0.04308841522003009,"173":0.07923684788803499,"174":-0.0682874422812847,"175":-0.04169590101489121,"176":0.0193586072864159,"177":0.02590376672511683,"178":-0.053394058134105984,"179":0.04486867055345512,"180":0.10296252738414402,"181":-0.03328011339286109,"182":-0.05992817597771565,"183":-0.050908870277612754,"184":0.03954614246837677,"185":-0.09305234479999372,"186":0.019838121642405827,"187":-0.060315417928836025,"188":-0.017403581778785714,"189":0.03861099501646406,"190":-0.1316595968437437,"191":-0.036251740888194744,"192":-0.030405810636518302,"193":0.07228644372527092,"194":0.04756303976270186,"195":-0.13221055741197482,"196":0.055383141679897455,"197":0.06965852179588496,"198":0.008617253776793631,"199":0.01261808028815389,"200":-0.05174459926030675,"201":-0.08228454521337025,"202":0.005199493900937625,"203":0.06575750145546756,"204":-0.0513860988547872,"205":0.04502791091712646,"206":0.018590301611635583,"207":0.01264864924162348,"208":-0.006429635497708196,"209":-0.0350449721602602,"210":-0.03224421600226768,"211":-0.026875974978791597,"212":0.03330879606096594,"213":0.04121435437651597,"214":-0.019803086470048716,"215":-0.030886641431260447,"216":-0.06324675309079053,"217":-0.05188424286139458,"218":0.029697770033479138,"219":0.1379088937687725,"220":0.035988804558414376,"221":-0.024908344532288476,"222":-0.0764370665598187,"223":-0.025723508819726303,"224":0.05142560537329658,"225":0.08530321875404896,"226":0.12130550915305992,"227":-0.03944357753677767,"228":0.12230155075043164,"229":-0.044292454314315485,"230":0.020469326826422777}},{"sx":1,"sy":1,"depth":231,"w":{"0":-0.033601280105560724,"1":0.024157219209079143,"2":0.15093227659938674,"3":-0.034224912310911314,"4":0.032289424408007625,"5":-0.006947159518035481,"6":-0.09595205995162007,"7":-0.0731935343998515,"8":0.04572845225988327,"9":-0.0053928914781263045,"10":0.0006295127479019357,"11":0.032354502778434734,"12":0.003047086955107005,"13":-0.023890152971394647,"14":-0.011700747175775544,"15":0.1251844653234625,"16":0.02309529121185612,"17":0.06451616624340857,"18":-0.14376628279759482,"19":0.026622543147482438,"20":0.04111458805509401,"21":0.01846486307307325,"22":0.0908451684604548,"23":-0.05765906360879192,"24":-0.011084544011524871,"25":-0.1019387955829065,"26":0.04085864489075559,"27":-0.006894620567508222,"28":0.09920487520363619,"29":0.0005155665766780265,"30":-0.0803104139919028,"31":0.03920007109664025,"32":0.0548126515368022,"33":-0.15166901112104944,"34":0.039621645802689884,"35":-0.052985403177477235,"36":-0.030329251035914977,"37":-0.03888058550819559,"38":-0.02242391337880265,"39":-0.09002965048098607,"40":0.009036713612672458,"41":0.07681548746465526,"42":-0.0013969455355465042,"43":0.07839090256120096,"44":-0.05633940249923917,"45":0.000811063370389766,"46":0.061386128140314404,"47":-0.030454697868859026,"48":-0.014995268534364734,"49":0.021944717500917553,"50":-0.09504204998069891,"51":0.050435556155105185,"52":0.00844024604722867,"53":0.09263938720385605,"54":-0.030128794708019404,"55":0.0221402174111074,"56":-0.017272841012617914,"57":-0.044714264902966754,"58":0.06404436616204355,"59":0.04445413492387369,"60":-0.029869924795556568,"61":0.00933755131357562,"62":-0.10956501112334806,"63":0.031210834644553927,"64":-0.13034268912512545,"65":0.05274478105965388,"66":0.00012991481650378745,"67":-0.014683432403529676,"68":0.03290724287767619,"69":-0.022685035421763488,"70":-0.12874696757074566,"71":0.019233865861843273,"72":0.10286931743579854,"73":0.04532239729649069,"74":0.0874203608439916,"75":-0.03392504068735546,"76":-0.015961503802395798,"77":-0.08268011416212097,"78":0.021009601314785326,"79":0.0031132159377799456,"80":0.036033686264034956,"81":0.04987658270041964,"82":-0.009812904179760799,"83":-0.01447914848055485,"84":-0.0446452283518673,"85":0.12765583524839966,"86":-0.009581679672968541,"87":-0.009879616045838922,"88":0.0012313570786537055,"89":0.0076179474046254025,"90":-0.032560106756539746,"91":-0.01439038238881069,"92":-0.04543166244282887,"93":-0.0782043992895324,"94":0.01606070601534837,"95":-0.07523156750661,"96":0.013169934273625216,"97":0.03745564945396218,"98":-0.0938131606414778,"99":0.016276928925573832,"100":0.009825807579522042,"101":-0.11879719999525147,"102":-0.003063145487049012,"103":-0.1393961117016234,"104":-0.04146258201583571,"105":0.09242813013607426,"106":-0.025476548338538206,"107":0.002592879938076692,"108":0.041971670959761974,"109":0.037477107367775916,"110":-0.0009323375224809377,"111":0.04829165288631232,"112":-0.1389848193569264,"113":-0.042113552746703184,"114":-0.039553225081154254,"115":0.08426799890516347,"116":0.030990063394888946,"117":-0.07729481364127043,"118":-0.06493504460331856,"119":0.10028550058725763,"120":0.0739062778360614,"121":0.03299949507083273,"122":-0.008456210116830747,"123":0.04496384936200152,"124":0.09198391159726964,"125":-0.024005898503077924,"126":-0.035195044305573284,"127":0.11491042663921301,"128":0.02431986652440782,"129":-0.03644543485744934,"130":0.06939206522087175,"131":-0.0221291977148586,"132":-0.023154646013469636,"133":-0.06930301847287816,"134":0.007353709065164607,"135":0.04336391998273732,"136":0.02317961248968154,"137":-0.06048750822612763,"138":-0.0021330028795030617,"139":-0.038644136515670946,"140":0.08396136003079074,"141":0.009534738586412067,"142":0.019131080255958603,"143":-0.010291511552431238,"144":-0.030069957234631444,"145":0.011218838460235924,"146":0.010026840319789806,"147":0.07552408331246314,"148":0.0042294067490230266,"149":0.02913448987299021,"150":0.02274019378104764,"151":-0.017262931093851856,"152":-0.027685268824726623,"153":0.02369579892969935,"154":0.03059094637059831,"155":-0.041716583342511354,"156":-0.09674892748158756,"157":-0.006698719627189009,"158":-0.07786599383937043,"159":0.08739023614179638,"160":-0.02066694640820234,"161":0.04240900108547744,"162":0.014736032597948643,"163":-0.01917031551090712,"164":-0.10305097290722352,"165":-0.004299947397183794,"166":0.046884212423843226,"167":0.0842788662259548,"168":-0.11604260428073061,"169":0.011590705209188574,"170":0.09078109625080183,"171":0.13701080355814446,"172":-0.006526056697338035,"173":-0.08931143099245238,"174":0.0917120402459385,"175":0.0012430157201726284,"176":0.015063190009692673,"177":-0.017783249203957404,"178":0.10134439537799649,"179":-0.010857688246670738,"180":-0.08253246361077486,"181":0.0158591013573063,"182":0.00912070740868562,"183":-0.011631815929185696,"184":-0.05744108169906043,"185":-0.08693983533079942,"186":-0.05765374605257667,"187":0.013627298999597753,"188":0.07391405994561333,"189":0.05178690247626193,"190":0.0076897351775026945,"191":-0.006374488377630515,"192":0.05894860540549894,"193":0.005253588566687877,"194":0.05702062762880697,"195":0.040852993260117,"196":-0.12109294699898757,"197":-0.04589329691436145,"198":0.0921317159672782,"199":0.03503749064065539,"200":-0.13072834959845217,"201":0.009208427302617573,"202":-0.035249834624989276,"203":0.04884998376288196,"204":-0.0712169524091899,"205":-0.06685811714516046,"206":0.09171112033884972,"207":-0.07815243081711168,"208":-0.04630750691148184,"209":-0.011917112965172321,"210":0.04202129946882264,"211":0.04466047315921191,"212":-0.06487917148147974,"213":-0.006761410744922312,"214":0.022800912588720468,"215":-0.046295725958209584,"216":-0.023091596790447377,"217":-0.033787244076375386,"218":-0.02916279428917626,"219":0.018697660004564194,"220":0.022707751792091963,"221":0.05008032891284791,"222":0.04621922759076527,"223":-0.16934097514841262,"224":-0.041407478828404225,"225":0.04608823033518535,"226":-0.06141654458445642,"227":0.024601165921384727,"228":-0.013147046775817808,"229":0.08011724407846935,"230":-0.11568475976148497}},{"sx":1,"sy":1,"depth":231,"w":{"0":-0.029804424790981766,"1":-0.5968419961657762,"2":-0.3493000047663071,"3":0.03391517495828228,"4":-0.436669063093239,"5":-0.36841094280778264,"6":-0.03666438811946109,"7":-0.2641643426960684,"8":-0.5410028070771667,"9":0.07844552215731754,"10":-0.4328955413762123,"11":-0.6296597886639498,"12":0.09043038411832219,"13":-0.6780015194977124,"14":-1.0124808087597237,"15":0.059775479864243856,"16":-0.5925701166568417,"17":-0.8425748600667876,"18":0.06217525667348753,"19":-0.5938297176209226,"20":-0.6463692907276617,"21":0.015431260046483973,"22":-0.05125382391962707,"23":-0.7655143135183612,"24":0.031729473903972065,"25":-0.019864162873303535,"26":-0.783296668606331,"27":0.09760498987395028,"28":0.1545314547937081,"29":-0.8086342216743758,"30":0.05536137280282472,"31":-0.018347483433380454,"32":-0.5877257321113158,"33":0.059542840869446556,"34":-0.19158231976999157,"35":-0.6601361982448379,"36":-0.0037170678739024904,"37":-0.10342067923245088,"38":-0.7376742586975769,"39":0.03075520133973891,"40":-0.05444264898124356,"41":-0.8611078445482403,"42":-0.0003468006615192837,"43":-0.009811480023809951,"44":-0.27439531543753304,"45":-0.008854290778174111,"46":-0.005502577992849963,"47":-0.13385291240488847,"48":0.01040672388851601,"49":0.03507034117887374,"50":-0.012688037056984777,"51":-0.025414669361228846,"52":-0.13999693802673716,"53":0.33271877374368297,"54":-0.13127601925534085,"55":-0.1892843782529315,"56":-0.20732185744784568,"57":-0.045497560183937524,"58":-0.036605997326072635,"59":0.13165419705678133,"60":0.014900339099752002,"61":0.04134633832755219,"62":0.16242730294923852,"63":-0.01125035676806847,"64":-0.08412488886712993,"65":-0.04675963998440759,"66":-0.03515608754240101,"67":-0.09502927671717815,"68":-0.13207332262185198,"69":-0.08130871254225937,"70":-0.05348487901448018,"71":0.04437575460663969,"72":-0.04993722452297177,"73":-0.0538056041631085,"74":-0.08815925862321602,"75":-0.031378828052870476,"76":0.013027293925587251,"77":-0.09113393096001339,"78":0.02455783740495119,"79":-0.008468348549005425,"80":-0.1379718112540046,"81":-0.0694983479146031,"82":0.04857031145643159,"83":-0.09699619492397649,"84":-0.04574322039447622,"85":-0.034991845291622976,"86":-0.15974808637793353,"87":-0.05033846530132949,"88":-0.07459982766835034,"89":-0.1020217130626378,"90":-0.05285455069771294,"91":0.007581901235700046,"92":-0.14495005469217825,"93":-0.05511942423357228,"94":-0.016594361612575784,"95":-0.03691089047843139,"96":0.029968828893652363,"97":-0.03949402944967987,"98":-0.036544204277817266,"99":-0.05695378234904764,"100":0.08965257404127229,"101":-0.10355310357819375,"102":-0.05285500283815772,"103":0.031883526683574775,"104":-0.004756048423725265,"105":0.041996622792190574,"106":0.010193774909936025,"107":-0.0998767623939697,"108":0.0955393502035945,"109":0.08317661660035501,"110":0.08336398262987349,"111":0.09213330166262276,"112":0.08937758462202015,"113":-0.059904674367512165,"114":-0.002972110430515217,"115":0.01749230358497985,"116":-0.017750977816109813,"117":-0.048790599348270146,"118":0.0024666481940808335,"119":-0.047786785062849405,"120":0.1399258576771238,"121":0.09039064915425513,"122":0.021947354216022317,"123":0.0005090372380865298,"124":0.014974505045482847,"125":0.008266867804429817,"126":-0.03319237310927424,"127":0.11092923049947562,"128":0.020690299019426494,"129":-0.012516802128132313,"130":0.06600952243230708,"131":-0.05984849172680227,"132":0.03155361453470936,"133":0.0006859358126418383,"134":0.09925925161340861,"135":0.007723035240747872,"136":0.009347576188728496,"137":-0.023749667131411595,"138":-0.13098484362926663,"139":-0.009376313344218942,"140":0.01339313786706105,"141":-0.05513782071204861,"142":0.03533162699986365,"143":0.04607989695578125,"144":0.02489831043462995,"145":-0.08601829130871151,"146":0.019607517172223865,"147":-0.0833899601855961,"148":-0.012931409771207821,"149":0.07164081896325095,"150":-0.02985380731060988,"151":0.097393775363966,"152":0.05448314245864282,"153":0.06004950524806904,"154":-0.012353995836416729,"155":0.027928165121465547,"156":0.09583065235502758,"157":-0.10499069132923719,"158":0.0014682711419317358,"159":0.013487374572043003,"160":0.03390727967478344,"161":0.07119789375104618,"162":0.007290051359007217,"163":-0.02591150199610985,"164":0.06821461261400165,"165":-0.025392210147779693,"166":0.00021672080738295715,"167":0.10658427453004736,"168":0.039023658947562274,"169":0.03987798065849918,"170":0.03199411394096081,"171":0.04119865167852706,"172":0.03170566740434179,"173":-0.000939251606377874,"174":-0.09060099921302656,"175":0.010436395914001514,"176":-0.03735590736777477,"177":-0.05290026576982352,"178":0.025743138479416186,"179":0.03126535505456637,"180":-0.0799499949482398,"181":0.0840601392857046,"182":0.13742009196829155,"183":-0.032140130336219645,"184":0.008248986158741879,"185":-0.0589324013718186,"186":-0.07602798269087084,"187":0.020584691442930843,"188":0.03710785815744542,"189":-0.08788859447242413,"190":0.018835475414522095,"191":-0.003511907869209343,"192":-0.004965444612281012,"193":-0.08520983331364175,"194":0.020533742566526778,"195":-0.01893690987633701,"196":-0.04975362452645695,"197":0.009187834296250107,"198":0.04604861773830218,"199":0.12315144687960189,"200":0.0180274334030523,"201":-0.021168465203428806,"202":0.0734862762991312,"203":0.0065078639285594195,"204":-0.07746285831289806,"205":-0.04695434686053896,"206":0.022797978599488327,"207":0.08387642058247759,"208":0.06189695059756735,"209":-0.04588755190692395,"210":-0.018131923281930723,"211":0.035742787744232854,"212":0.016179129797058923,"213":-0.06086115210359401,"214":0.049242217691118514,"215":0.05197917247938817,"216":-0.02870616300580464,"217":-0.04763336585580296,"218":-0.062384682218080884,"219":-0.011078455036793475,"220":0.011351117178636997,"221":0.09175753368731902,"222":-0.030761215665090064,"223":-0.012295838191192421,"224":-0.023782695898597845,"225":0.06336363054940652,"226":0.07381635127192382,"227":0.07954559450406104,"228":0.08244443312556371,"229":0.0780595716821579,"230":0.08403260103333231}},{"sx":1,"sy":1,"depth":231,"w":{"0":0.32751108679852087,"1":0.20362883376262622,"2":0.04755394292600928,"3":0.5394736528852992,"4":0.1413851702420151,"5":-0.04221139853976695,"6":0.547482275310652,"7":0.13236365478613293,"8":0.057165811884971066,"9":0.5106392574582369,"10":0.10684710183873523,"11":-0.05785604707216831,"12":0.8769613167264657,"13":0.20453421140265837,"14":-0.026895211072260596,"15":0.6242751835964837,"16":0.24790870469920812,"17":-0.10729492990412325,"18":0.6016970709748743,"19":0.04359852566202192,"20":-0.03189965637655322,"21":0.4894874100677691,"22":0.1374821361708827,"23":-0.045105483097516746,"24":0.566903804165532,"25":0.06368854156848046,"26":-0.013634947863537333,"27":0.5384944977685207,"28":-0.0012399283132202021,"29":-0.09330411778402875,"30":0.5006429956460359,"31":0.07373670735565344,"32":-0.02172158205387565,"33":0.4058283566952275,"34":0.03576119126339413,"35":-0.000932277026968658,"36":0.5503311489882786,"37":0.05287147199924736,"38":0.007148457406634991,"39":0.8768803936056652,"40":-0.0691215290186204,"41":0.03585929448620351,"42":0.3323429726534468,"43":-0.03371066338734685,"44":-0.027679390692261458,"45":0.11371336291462954,"46":0.024849462593923642,"47":0.07108306217000643,"48":0.11256131209476335,"49":-0.012530292270078089,"50":0.002297704852556531,"51":-0.30920202891605547,"52":0.07972908631450147,"53":0.11331665689314248,"54":0.1965399971935334,"55":0.1638898036804253,"56":0.0522315013292986,"57":-0.032119977066933265,"58":0.17649087056576232,"59":0.11708016559554668,"60":0.03659416449651315,"61":0.029274757323181928,"62":-0.008831084912207493,"63":-0.09070985747821791,"64":0.11132136703798391,"65":-0.042841890309787925,"66":0.0637294519058996,"67":-0.0003543412998048798,"68":0.09370011652400476,"69":0.16766520831838558,"70":0.08026184366199188,"71":0.03502305605814207,"72":0.12691475256362192,"73":0.0551931095833814,"74":-0.028016059990569407,"75":0.09744376130764995,"76":-0.05116639475675952,"77":-0.00623685394874321,"78":0.061889651795711396,"79":-0.014258027207866142,"80":0.03525455273287037,"81":0.21955364431432664,"82":-0.043119152698755554,"83":-0.029297838222276527,"84":0.13462290118615733,"85":0.01473179736620468,"86":-0.0880014791077678,"87":0.04191970849319972,"88":0.010082015410842768,"89":-0.0019357420862916744,"90":0.1574956315365543,"91":-0.06449728025120695,"92":0.006656739963808944,"93":0.0924924007899555,"94":-0.01609433427996603,"95":-0.04807932867760126,"96":0.04563772021023836,"97":-0.1159605623859731,"98":-0.01400985805791667,"99":0.024417764854711244,"100":0.09089126553053167,"101":0.007939939133532428,"102":-0.021810090261322152,"103":0.00940407955688786,"104":-0.028220489976762984,"105":0.02298807011191149,"106":0.05172073479184548,"107":0.035056039816630614,"108":0.015774040707573173,"109":-0.1831326993599684,"110":0.1768379191946423,"111":-0.012773340984538223,"112":-0.1743971676513879,"113":0.03885833444159831,"114":0.05337058129342634,"115":0.021035897352170978,"116":-0.09040172209036658,"117":-0.023333807940268025,"118":-0.07442655005065975,"119":0.02681757935884446,"120":0.022818313668156544,"121":0.04691898124098404,"122":-0.06913527095121746,"123":-0.06977844249447836,"124":-0.037216911431448826,"125":-0.05392398223042169,"126":-0.029015927205396166,"127":0.05499390557808513,"128":0.0008471452681940418,"129":0.0037009180217722993,"130":-0.05556861112261424,"131":-0.024717174099090355,"132":-0.05579810684606537,"133":0.013805105736008605,"134":-0.08074998908481983,"135":0.025400661413483305,"136":-0.002697941681992143,"137":0.01962995457966985,"138":0.002726306068057124,"139":0.04672804757012479,"140":-0.002862858706754233,"141":0.060197940062475155,"142":-0.037661289508356614,"143":-0.0003201059641280215,"144":0.03868712947795409,"145":-0.017178141060027293,"146":0.01110818526727115,"147":-0.06634771328301728,"148":0.05533876410555527,"149":0.019260188184991454,"150":-0.011191684373919944,"151":-0.0003202595460523171,"152":-0.07842468647715342,"153":0.013881489527127448,"154":-0.03143651571383404,"155":0.07526407793823059,"156":-0.060149201970723806,"157":0.011108300879944659,"158":0.021513111977377437,"159":-0.04330523617400213,"160":-0.014918403886375711,"161":0.01780655533326998,"162":0.009044641283939923,"163":-0.033804513934812194,"164":0.029108571785737437,"165":0.09372285873150411,"166":-0.06648055012273552,"167":0.06519609681991398,"168":0.08956604168733902,"169":-0.24447452219369223,"170":-0.08208507379261634,"171":0.08347801496645076,"172":-0.032156720681384726,"173":0.001231774318386097,"174":-0.036032582767184504,"175":-0.016825081284967357,"176":-0.002510633375287992,"177":0.014501609818305708,"178":-0.021678364444522678,"179":-0.010233158030964496,"180":0.037202382495719215,"181":0.009304972205805855,"182":-0.03877903352819575,"183":-0.015074895266926895,"184":-0.03866220244141436,"185":0.016914764948188322,"186":-0.08744898904057166,"187":-0.0814933245556579,"188":-0.02254433179233127,"189":-0.04224608858072365,"190":-0.050365627564522494,"191":-0.08168994286008359,"192":0.06167668959513138,"193":-0.013023889349366444,"194":0.034574759371430605,"195":0.02148202584740366,"196":-0.05570543016319254,"197":-0.06876761219368147,"198":-0.05888792388997785,"199":0.0475053589787399,"200":-0.02392443775524971,"201":-0.06805517761853098,"202":-0.0033822324246052604,"203":-0.07711186019046307,"204":0.04848211716347785,"205":0.02318085468508058,"206":0.05372651523902115,"207":-0.029987034836243077,"208":-0.021640246825433074,"209":-0.04391947881218748,"210":-0.08333832436711436,"211":0.0045709731726137105,"212":0.021891555410276767,"213":-0.04469980067633737,"214":0.07695291012755116,"215":-0.06034767945714453,"216":0.029483544592246554,"217":0.04976123689514517,"218":-0.11509924089948051,"219":0.029909534685084647,"220":0.006506093204374422,"221":0.08352037007827336,"222":-0.053827087441894635,"223":-0.013377151135346054,"224":0.05838361431615553,"225":0.034876462642622466,"226":-0.034331739142890505,"227":-0.0688577889875813,"228":0.0995460554164738,"229":-0.07248392497883718,"230":-0.06872805975806837}},{"sx":1,"sy":1,"depth":231,"w":{"0":0.0995684760381313,"1":-0.035874976754751146,"2":-0.046791456568037106,"3":0.023231785360285584,"4":-0.06692938027983016,"5":-0.0742711428467655,"6":0.04537217582135719,"7":0.002956288625784721,"8":0.08825992139137691,"9":0.027932279983217224,"10":-0.057043187516654804,"11":0.04039803028965951,"12":-0.08477019086931428,"13":-0.008283129929167703,