
//<![CDATA[

// a few things don't have var in front of them - they update already existing variables the game needs
lanesSide = 0;
patchesAhead = 1;
patchesBehind = 0;
trainIterations = 200000;

// the number of other autonomous vehicles controlled by your network
otherAgents = 0; // max of 10

var num_inputs = (lanesSide * 2 + 1) * (patchesAhead + patchesBehind);
var num_actions = 5;
var temporal_window = 3;
var network_size = num_inputs * temporal_window + num_actions * temporal_window + num_inputs;

var layer_defs = [];
    layer_defs.push({
    type: 'input',
    out_sx: 1,
    out_sy: 1,
    out_depth: network_size
});
layer_defs.push({
    type: 'fc',
    num_neurons: 40,
    activation: 'relu'
});
layer_defs.push({
    type: 'regression',
    num_neurons: num_actions
});

var tdtrainer_options = {
    learning_rate: 0.001,
    momentum: 0.0,
    batch_size: 64,
    l2_decay: 0.01
};

var opt = {};
opt.temporal_window = temporal_window;
opt.experience_size = 3000;
opt.start_learn_threshold = 700;
opt.gamma = 0.9;
opt.learning_steps_total = 10000;
opt.learning_steps_burnin = 1000;
opt.epsilon_min = 0.0;
opt.epsilon_test_time = 0.0;
opt.layer_defs = layer_defs;
opt.tdtrainer_options = tdtrainer_options;

brain = new deepqlearn.Brain(num_inputs, num_actions, opt);

learn = function (state, lastReward) {
brain.backward(lastReward);
var action = brain.forward(state);

draw_net();
draw_stats();

return action;
}

//]]>

/*###########*/
if (brain) {
brain.value_net.fromJSON({"layers":[{"out_depth":19,"out_sx":1,"out_sy":1,"layer_type":"input"},{"out_depth":40,"out_sx":1,"out_sy":1,"layer_type":"fc","num_inputs":19,"l1_decay_mul":0,"l2_decay_mul":1,"filters":[{"sx":1,"sy":1,"depth":19,"w":{"0":0.2988916150731342,"1":0.0604133986545498,"2":-0.2151354895815251,"3":0.5495839194946358,"4":0.04914025567934592,"5":-0.12495685242574457,"6":-0.705511532887479,"7":0.2899520257805641,"8":0.03692979851197515,"9":0.3947910249906234,"10":0.3536587212541813,"11":0.3986992459315216,"12":0.6355139016479212,"13":0.3921289464565158,"14":0.6549761066832384,"15":-0.008829595518305547,"16":0.23924101911835305,"17":0.1757065604215344,"18":-0.17830297592682254}},{"sx":1,"sy":1,"depth":19,"w":{"0":0.4973859504378989,"1":-0.01849280660119147,"2":0.15146809516364487,"3":-0.5094762964978401,"4":-0.23857322137026485,"5":0.2547330232401647,"6":0.4097049189282728,"7":-0.07282905859903553,"8":0.20256808523984773,"9":-0.09243952407505092,"10":-0.04103476765869033,"11":0.08068248790450333,"12":0.059401724307048404,"13":0.36420708655504996,"14":0.03181866633483454,"15":-0.281112772798948,"16":0.10978020859494107,"17":0.48360703442619535,"18":0.14440357604392076}},{"sx":1,"sy":1,"depth":19,"w":{"0":0.05227523563454431,"1":0.31377230466916606,"2":0.2976408573252673,"3":0.23901151595981576,"4":0.22400525238618677,"5":-0.3682978521997638,"6":0.18627762739951761,"7":0.3614673605846925,"8":-0.2808308034696628,"9":0.04104406960524599,"10":-0.00017699717771619633,"11":-0.030433892187501903,"12":-0.31381375705464876,"13":-0.26973120678331336,"14":0.08319908566428874,"15":0.17273635710254098,"16":0.12768135927654597,"17":0.05162211177122827,"18":-0.08216576782678467}},{"sx":1,"sy":1,"depth":19,"w":{"0":0.37261300467266406,"1":-0.11307039917247509,"2":0.1293205389361792,"3":-0.039773631448000286,"4":0.17481837098585234,"5":-0.28605341573385645,"6":0.30727481987611055,"7":-0.010680786091429193,"8":0.2340305163838496,"9":-0.3760149010977343,"10":-0.42081219410068244,"11":0.19607265222432643,"12":0.15850260720705905,"13":-0.5614061429714716,"14":0.20615364008781598,"15":-0.09307238308675124,"16":-0.1328493836735932,"17":0.09439201784933304,"18":0.0845207708104126}},{"sx":1,"sy":1,"depth":19,"w":{"0":-0.1038845380096511,"1":-0.30064539159590925,"2":0.2848707402811058,"3":-0.26581138329956977,"4":0.11106415963096292,"5":0.12720900656374937,"6":0.27915550689470103,"7":-0.3222138528573039,"8":-0.08063558530265394,"9":-0.368260784990505,"10":-0.08085361213030474,"11":0.16864875450371125,"12":0.2809503651134719,"13":-0.1251054648960843,"14":0.05262187491747174,"15":0.40943485958611514,"16":0.10906376353333413,"17":-0.21389105867499045,"18":-0.15732399552191256}},{"sx":1,"sy":1,"depth":19,"w":{"0":0.7060566912453669,"1":0.7419672833603793,"2":0.2463402578022793,"3":-0.009652812006739451,"4":-0.07882287404515366,"5":0.10770408823483074,"6":0.21362722888527488,"7":0.5375241302613724,"8":0.24987798564277883,"9":-0.03365595984976171,"10":0.2545923306980395,"11":0.2517096334426377,"12":-0.037485456407216934,"13":0.6460347512807068,"14":0.35847932061242965,"15":0.02845722872911618,"16":-0.06359136231615732,"17":0.03910106098209342,"18":-0.07277773156846608}},{"sx":1,"sy":1,"depth":19,"w":{"0":0.04610515213056726,"1":-0.16805683214563039,"2":0.15600805049958713,"3":0.2171317049887081,"4":-0.18726596379439386,"5":-0.12475043427999387,"6":-0.3685411727060984,"7":-0.12226617659420723,"8":0.11858664606269413,"9":-0.054332622566067544,"10":-0.256458707154243,"11":-0.006274033584548725,"12":0.27920071965187016,"13":-0.23011481595349947,"14":-0.0547948218916592,"15":-0.04454146120595581,"16":-0.1034889372617429,"17":-0.22678579782723543,"18":-0.5495844413861706}},{"sx":1,"sy":1,"depth":19,"w":{"0":0.3059428765522111,"1":0.39805914271131393,"2":0.186039030899309,"3":0.01325251384627317,"4":-0.268224269473252,"5":0.10908072594978192,"6":-0.1500998955675401,"7":-0.15544170592629766,"8":-0.3385140143036048,"9":-0.025232575215537872,"10":0.13915879859950378,"11":0.02726232346643148,"12":-0.07289144223217285,"13":0.14389337971057012,"14":-0.3707141110206718,"15":-0.016445944696588447,"16":-0.1537104059413977,"17":-0.03316076922110756,"18":-0.188638816362373}},{"sx":1,"sy":1,"depth":19,"w":{"0":0.21581925507408695,"1":0.09911628175985704,"2":-0.17039827637844093,"3":-0.3475886538760713,"4":-0.2446070734544993,"5":-0.17544812497259182,"6":-0.2429485029174187,"7":-0.14639423925258063,"8":-0.1517386513345788,"9":-0.19177102998474832,"10":0.30525774650502974,"11":-0.31862396483851724,"12":-0.37304462039546304,"13":-0.12745373670804236,"14":-0.013979038902929933,"15":0.16717801922953118,"16":0.11458552695846846,"17":0.16056355351577498,"18":0.09661458270654612}},{"sx":1,"sy":1,"depth":19,"w":{"0":0.18027994306029269,"1":0.21237177245058544,"2":-0.038181598322963486,"3":0.22501298425683605,"4":0.09720162060641523,"5":0.03803889964361575,"6":0.04479529311590906,"7":0.5815831125505828,"8":0.24942489298122694,"9":0.06727501929089527,"10":0.26739687061670536,"11":-0.30475881753476025,"12":-0.03720354749769087,"13":0.31239235886466377,"14":-0.25529345487384025,"15":0.07169703134065449,"16":-0.008031931386433029,"17":-0.0657709973262829,"18":-0.059031750015646235}},{"sx":1,"sy":1,"depth":19,"w":{"0":0.3771570623466582,"1":0.23711428878739266,"2":0.08572731131994953,"3":-0.04844211846656467,"4":0.04290404753037783,"5":0.012592894417414192,"6":-0.19456652310139266,"7":-0.016013538501511663,"8":0.010258183095515133,"9":0.12449398846310308,"10":-0.08397228140975661,"11":0.39541556714467146,"12":0.14493939274245504,"13":0.06500712667673948,"14":-0.11919457065793586,"15":0.2637809501212861,"16":-0.045142246915431686,"17":-0.15727324857065347,"18":-0.08999241189659128}},{"sx":1,"sy":1,"depth":19,"w":{"0":-0.14486254164948384,"1":0.3610776845402969,"2":-0.21779846478329876,"3":-0.1272361032060869,"4":0.33191199400714466,"5":-0.22323637855101844,"6":-0.19918184056172702,"7":-0.07455182843676052,"8":0.2547298341000476,"9":0.4568604574926054,"10":0.2985300911490125,"11":0.20928533404167643,"12":0.649192696730414,"13":0.0418477274131235,"14":0.006745029074544326,"15":-0.2468172586489164,"16":-0.3105373486876892,"17":-0.5673189352967265,"18":0.12140480956218773}},{"sx":1,"sy":1,"depth":19,"w":{"0":-0.11503393343217161,"1":0.1135319569916009,"2":0.24957788043233714,"3":-0.07695020089727145,"4":0.1194051925858665,"5":0.0012460325381337877,"6":0.18864771209505124,"7":-0.5495009115181039,"8":-0.041255646078339994,"9":-0.07244702859571125,"10":-0.22732415533155415,"11":-0.02675605047270321,"12":-0.16639905062378424,"13":0.1661746122123639,"14":0.051291599537265094,"15":-0.11077904447425946,"16":0.13582479567953212,"17":-0.19018705621470838,"18":-0.18856555310305154}},{"sx":1,"sy":1,"depth":19,"w":{"0":0.7997842910616774,"1":1.0124147413387634,"2":-0.18532914216703858,"3":0.17171237480289003,"4":-0.006232473870385572,"5":0.2997773411680779,"6":-0.053172749761555935,"7":0.5763210794267797,"8":0.34354782232742426,"9":-0.011356710049055394,"10":0.3529056345775971,"11":0.04544203453177338,"12":0.34379392347371696,"13":0.5216134942567254,"14":0.09061001350163791,"15":0.2553810512221963,"16":-0.011521917633833664,"17":-0.12172028075529939,"18":0.02766043932622265}},{"sx":1,"sy":1,"depth":19,"w":{"0":-0.13745549376162558,"1":0.13646766184245135,"2":-0.09556779780530436,"3":0.0031032624083798567,"4":0.15935958584971022,"5":0.3175075028108201,"6":-0.1539387063458292,"7":0.28725024788979625,"8":-0.2575236521097693,"9":-0.3533720918058091,"10":-0.4836797813205024,"11":0.03810408288412115,"12":0.12377491471148615,"13":0.0511381007751551,"14":0.14512479349634114,"15":-0.07725932762619458,"16":-0.17123043809449426,"17":0.028450976932578174,"18":0.1888327697245695}},{"sx":1,"sy":1,"depth":19,"w":{"0":-0.23373309681217766,"1":-0.5025194663273992,"2":-0.04608028707775523,"3":-0.12353236895893874,"4":0.13857748386278101,"5":-0.07021507851861207,"6":-0.2524931848051363,"7":0.33385001163101813,"8":0.09596065341626717,"9":-0.05400747290639716,"10":0.3672599831184564,"11":0.08505812149249146,"12":0.11973856980661503,"13":-0.13145326066099405,"14":0.26453439823516284,"15":0.27678221211718107,"16":0.06443620166327887,"17":-0.07352799131097706,"18":0.23142705505129754}},{"sx":1,"sy":1,"depth":19,"w":{"0":-0.14497543059904483,"1":-0.08512388323070784,"2":-0.13164219230104968,"3":0.10602139733142295,"4":-0.08454643194509924,"5":-0.48334952867727654,"6":0.32989995997244187,"7":-0.3043977490772816,"8":-0.22253902897413563,"9":-0.178901042863025,"10":0.023024094168061955,"11":-0.02336215475026739,"12":0.13205750091132426,"13":-0.038686801450686016,"14":-0.06330503695833962,"15":-0.0026103984267351176,"16":0.1077052582698234,"17":-0.017146975258181523,"18":-0.19884967442559576}},{"sx":1,"sy":1,"depth":19,"w":{"0":0.25158432365446454,"1":0.2388705494101057,"2":-0.047447421377428536,"3":0.033055942380515124,"4":0.11391476533596531,"5":0.2433597723791895,"6":0.32903441186891547,"7":-0.20710347337841425,"8":0.20835547899224613,"9":-0.1019858430060459,"10":-0.12847782619074236,"11":0.19037032628164718,"12":0.22681932582532766,"13":0.24646658004340155,"14":-0.06365579737066765,"15":0.07184706331380174,"16":0.05073659185047163,"17":0.10192487400632748,"18":-0.15718425576744266}},{"sx":1,"sy":1,"depth":19,"w":{"0":0.12078150433854133,"1":0.2929120909802744,"2":0.13704757868390718,"3":-0.06635069939487724,"4":0.11041988008750757,"5":0.037802103851076976,"6":0.08438736055990026,"7":0.1183818096919194,"8":0.15817882421170187,"9":-0.05997152631350348,"10":0.04189338900508273,"11":0.6291844104063296,"12":-0.00776112788697993,"13":0.30755483851789756,"14":0.48182159678642766,"15":-0.2978984396327162,"16":0.13827349345830925,"17":0.1358074097149143,"18":0.2811411663098211}},{"sx":1,"sy":1,"depth":19,"w":{"0":-0.07064336863237934,"1":-0.1683718050255251,"2":0.14325326923885598,"3":-0.39008860339624934,"4":0.07255577165662667,"5":-0.2467250469685498,"6":-0.3833931365345884,"7":0.0037305052531274993,"8":0.31138361691191124,"9":-0.11958941988652792,"10":-0.2676034137391751,"11":-0.16169279898702096,"12":0.27048422448557163,"13":-0.3280174348640035,"14":0.06518279766181967,"15":0.26970636514982316,"16":-0.09511898934392343,"17":0.12377620212377195,"18":0.16442978344330225}},{"sx":1,"sy":1,"depth":19,"w":{"0":-0.005768613634458878,"1":-0.1271355958198667,"2":0.10539683606612156,"3":-0.06894594059976013,"4":0.17977658040387762,"5":0.05408720511274318,"6":-0.2589176968470048,"7":0.29595747121506927,"8":-0.2730699283893678,"9":-0.4357129163396744,"10":-0.19403786877517878,"11":-0.2909056329282951,"12":-0.12939359964450473,"13":-0.08945997860702916,"14":-0.36128365347787456,"15":-0.051943816384629846,"16":0.21570914445386097,"17":0.46065525336460095,"18":0.07984488573116699}},{"sx":1,"sy":1,"depth":19,"w":{"0":0.22069030999243763,"1":0.1948487849858795,"2":0.010835920089091174,"3":0.23275153911215557,"4":0.026269607817808436,"5":0.3817379748296734,"6":-0.06584375726868229,"7":0.31697407169205355,"8":-0.20023828466333923,"9":0.12677082977300566,"10":-0.06825462994176426,"11":0.21757545339896509,"12":-0.011057761020822052,"13":0.046706982771353066,"14":-0.1232399738511605,"15":0.3901574803442894,"16":-0.12279579916268359,"17":0.22798338436661528,"18":0.14412751259122555}},{"sx":1,"sy":1,"depth":19,"w":{"0":0.9975117401058899,"1":0.5267457122759732,"2":-0.09537304450842501,"3":0.24850316104081357,"4":0.003687919714027226,"5":0.444883801483599,"6":0.43978216622743416,"7":0.42628152193717633,"8":-0.19866651010206057,"9":0.10565067041356295,"10":0.3348677463325304,"11":0.3172847210681608,"12":0.4798737161023296,"13":0.32618802665786695,"14":0.2625516752838869,"15":0.18291877134543094,"16":0.13060192470238338,"17":0.28747995360307776,"18":0.45891606009678926}},{"sx":1,"sy":1,"depth":19,"w":{"0":0.5153204474165992,"1":0.014689784719590997,"2":0.03961316325164547,"3":0.3401141249413698,"4":-0.1444511560452891,"5":0.15965400702324065,"6":0.43358568674508136,"7":0.17874975531811313,"8":-0.11520799614273111,"9":0.11599442438841351,"10":-0.035683079727239046,"11":0.17837238628378937,"12":-0.005458289248325616,"13":0.45487767333002926,"14":-0.15841301581610012,"15":-0.032892524008170956,"16":0.11392949259513534,"17":0.38858333861146344,"18":0.16269070955928147}},{"sx":1,"sy":1,"depth":19,"w":{"0":-0.05724963112308156,"1":-0.20374794633009607,"2":-0.2895404799234671,"3":0.13469885650212876,"4":-0.0322930564474597,"5":-0.1065917713621734,"6":0.1774188584273974,"7":-0.07487131647876256,"8":-0.3624797864946243,"9":-0.1557228528307804,"10":0.33915734703031913,"11":0.13777207652618814,"12":-0.2167090323965823,"13":0.10304488195559118,"14":-0.05561990941971334,"15":0.02628892950558279,"16":0.507169275345987,"17":0.1777621303515851,"18":0.34224038008808005}},{"sx":1,"sy":1,"depth":19,"w":{"0":0.3521012756050768,"1":0.34651721324594204,"2":0.05859029355760922,"3":-0.0739118186036807,"4":-0.02978790779423346,"5":0.13523927583412382,"6":0.5234977514017305,"7":0.7210756891109302,"8":0.11177871967919831,"9":0.37591749770117966,"10":-0.03924926953819943,"11":0.10987542648914031,"12":0.28206285280309634,"13":0.7678078065573988,"14":-0.1004238813489828,"15":0.1506299666751212,"16":0.32014322528866046,"17":0.35313762027046786,"18":0.0510678787951467}},{"sx":1,"sy":1,"depth":19,"w":{"0":-0.04932428972988432,"1":-0.03818636047472846,"2":0.16832722678933662,"3":-0.0018244385406867513,"4":-0.2050291983908747,"5":0.10553163193564799,"6":0.1130558052730649,"7":0.15062851830606572,"8":-0.20265078968259204,"9":-0.09295646271851528,"10":0.007130963889378877,"11":-0.01629387865858841,"12":0.20553068557241344,"13":-0.1943184520122566,"14":0.2282226962442847,"15":-0.3026314871005631,"16":0.24904418973445233,"17":-0.19978005772642357,"18":0.04354244635577617}},{"sx":1,"sy":1,"depth":19,"w":{"0":0.26622534047667407,"1":-0.0007718953357370759,"2":0.040487275641440126,"3":-0.013803498949460917,"4":-0.5548244607238461,"5":-0.11477179008286896,"6":-0.36412858717529817,"7":-0.09877489362887593,"8":-0.18814786649602713,"9":-0.2116632567113498,"10":0.09319360341684736,"11":-0.11845121821457921,"12":-0.14966090192576417,"13":0.046057783363750895,"14":0.25449142921030443,"15":-0.07153809092670556,"16":-0.578995544929786,"17":-0.5277309705066658,"18":-0.26527222048293075}},{"sx":1,"sy":1,"depth":19,"w":{"0":0.2127099245544719,"1":-0.2165855064544612,"2":0.12641513571579038,"3":-0.2644604339044435,"4":-0.018145505376949846,"5":-0.03105823617688018,"6":-0.15648874399852805,"7":-0.03957661637332883,"8":-0.6050214971808717,"9":0.11153383885455968,"10":-0.16610494985491445,"11":-0.122032666285656,"12":0.033390663626695426,"13":-0.3784542654884086,"14":-0.08879251714306106,"15":-0.18295881751328685,"16":0.36103288148469154,"17":-0.3037486370027321,"18":-0.14458698078757992}},{"sx":1,"sy":1,"depth":19,"w":{"0":0.5149521614657377,"1":0.15808775030691413,"2":0.26743653241500437,"3":-0.20934774792331948,"4":0.42687721507921905,"5":-0.23582700173153404,"6":-0.07811150763607451,"7":0.1940272969373086,"8":0.6739662980445423,"9":0.24063917616863736,"10":-0.05423696377970404,"11":-0.02673262896281836,"12":-0.0897275670643244,"13":0.5375676756783444,"14":0.08899019260054974,"15":0.3506323298185593,"16":-0.20725689710797912,"17":-0.053241931590533795,"18":0.09257071479536196}},{"sx":1,"sy":1,"depth":19,"w":{"0":0.36413664137071033,"1":0.23472994038214479,"2":-0.08583312858464567,"3":0.02796251418035313,"4":-0.32338667777796687,"5":0.11253509618680207,"6":-0.21538525305624637,"7":0.11018206851634972,"8":-0.009552463832761449,"9":0.1804746832122577,"10":0.3367049764159019,"11":0.1565866881132369,"12":-0.014557577747812455,"13":0.1208017848791339,"14":0.084638856883375,"15":-0.0832872004801244,"16":0.17778330203508885,"17":0.07162015769222282,"18":0.01315640901176243}},{"sx":1,"sy":1,"depth":19,"w":{"0":0.4373843105860709,"1":0.577224457481794,"2":0.15838523651705372,"3":-0.010951943057861176,"4":0.11910538073057997,"5":0.08070871669727754,"6":-0.0633551832396836,"7":0.8014011502957543,"8":-0.034030542117705675,"9":0.3977053271386415,"10":0.2537485548348694,"11":0.3307810000837061,"12":-0.06297917485303453,"13":0.1571644370079863,"14":-0.014457353428877747,"15":0.26463865349649185,"16":0.1757107103673776,"17":0.43431133020594703,"18":-0.0915996808264527}},{"sx":1,"sy":1,"depth":19,"w":{"0":-0.10695743416225756,"1":-0.2191634968440138,"2":-0.06601303305372798,"3":0.11383522731192706,"4":-0.24961038438066527,"5":0.14413218846169987,"6":0.3876294047359553,"7":-0.09336801709710371,"8":0.05203017430846972,"9":-0.15219134065647896,"10":-0.08650738777536442,"11":-0.27476277257876325,"12":0.4644144690213839,"13":0.02541387429268155,"14":-0.2917013560973159,"15":-0.17715621847304783,"16":-0.2382472700148611,"17":-0.2901617411215924,"18":0.38400891195335657}},{"sx":1,"sy":1,"depth":19,"w":{"0":0.1966777314780616,"1":-0.014769780569314685,"2":0.10177388173871349,"3":-0.12900164804224695,"4":-0.03396388538772809,"5":0.06291716124449455,"6":0.42509251652144536,"7":0.5165992080059959,"8":0.25050533997945457,"9":-0.02446241427616123,"10":-0.333433637309979,"11":0.08495878966874372,"12":0.3077744585343406,"13":0.3946259888642673,"14":-0.22863643047966678,"15":-0.18504406261237533,"16":0.6730277600590051,"17":0.15751633007730656,"18":0.5025784055967336}},{"sx":1,"sy":1,"depth":19,"w":{"0":0.18469355133526288,"1":-0.27314906024679625,"2":0.2820748868125232,"3":-0.1250254023153557,"4":0.02919533233870175,"5":0.09515937454401444,"6":-0.0018129832490233649,"7":0.32383686842109566,"8":0.41422935681201134,"9":0.3270192098647661,"10":-0.13790981337879024,"11":0.1527336796955343,"12":0.06727687531463729,"13":-0.1593279851522061,"14":-0.34890579812367317,"15":0.004502034738535716,"16":0.32302771348723053,"17":-0.0011747472041013039,"18":0.07676915181530919}},{"sx":1,"sy":1,"depth":19,"w":{"0":0.4800466725665567,"1":-0.056219768075210605,"2":0.06961141038695909,"3":-0.18685250045736249,"4":0.24931246568428975,"5":0.37773845059862643,"6":-0.007208020003692559,"7":0.13565317423049308,"8":0.2976625304265169,"9":0.3667193369396792,"10":0.026066000161135524,"11":0.14104213199782528,"12":-0.0207492024286631,"13":-0.14956935612372044,"14":0.030271612946243892,"15":-0.040577073098559645,"16":-0.1307769123337623,"17":-0.11527381942471271,"18":0.12444766247622426}},{"sx":1,"sy":1,"depth":19,"w":{"0":0.1286181326023006,"1":-0.2003238515757177,"2":0.18574627069958136,"3":-0.06327461103442632,"4":-0.21484056934500123,"5":-0.6372232293720531,"6":-0.12705149508175828,"7":-0.10316491149505655,"8":-0.05246937671546187,"9":0.019216211111752646,"10":-0.6107154265872702,"11":0.2069738598450239,"12":-0.3308149953707518,"13":0.3006768858421397,"14":0.22797455578826853,"15":-0.20437076604301005,"16":0.19009763041584488,"17":-0.014029414022137653,"18":-0.14471940719728882}},{"sx":1,"sy":1,"depth":19,"w":{"0":-0.06831452215306828,"1":0.01047579614664545,"2":0.11444341356744779,"3":-0.20282334058599916,"4":0.031536969333880886,"5":-0.021643779332849507,"6":-0.20016497692302185,"7":-0.5532845531366605,"8":0.32668447454809846,"9":0.0603586951724959,"10":0.14821059320254887,"11":0.0922900887123889,"12":-0.16027659726960686,"13":0.22115136379054556,"14":-0.14401988931317047,"15":0.3471997112050822,"16":-0.0471535123399926,"17":-0.07243319894624499,"18":-0.11514839607478157}},{"sx":1,"sy":1,"depth":19,"w":{"0":0.16427013714644564,"1":-0.30094786243942456,"2":0.319276029220866,"3":0.019389456655242276,"4":0.019658720893219607,"5":0.07291163314057972,"6":0.0040985194152968795,"7":-0.21798563173497676,"8":-0.05004484239274072,"9":0.00497630328735587,"10":0.05284911008159512,"11":-0.297910089560267,"12":-0.3830061226000002,"13":-0.17429657438064466,"14":0.18934329177953754,"15":-0.006416267085528157,"16":0.11974642281827025,"17":0.2984338695243704,"18":0.0443308192163356}},{"sx":1,"sy":1,"depth":19,"w":{"0":-0.003015647906254776,"1":-0.33119298591304547,"2":0.20438119666306695,"3":-0.02060044280561518,"4":-0.18843900588067503,"5":-0.353189539484682,"6":-0.5445274278646656,"7":-0.3289172739426124,"8":-0.04149119449714867,"9":0.1855217444097265,"10":-0.24528664299198885,"11":0.5951753950382265,"12":0.5352497819951296,"13":0.5026949935900153,"14":0.6155560464209732,"15":-0.0034864957961923625,"16":-0.30181272245340385,"17":0.19968077392875108,"18":0.054817171950733073}}],"biases":{"sx":1,"sy":1,"depth":40,"w":{"0":0.2761416360856985,"1":0.3131039315577648,"2":0.2597050366819516,"3":0.11297289566442127,"4":0.07480352506597807,"5":0.6855651756614942,"6":0.10071494915229577,"7":0.1292393591821905,"8":0.1017053427574476,"9":0.2873976262968369,"10":0.20852728354421102,"11":0.2071468717333133,"12":0.0910709554020308,"13":0.7290244866199188,"14":0.1466522064254356,"15":0.07706659987831317,"16":0.09731757854869255,"17":0.1934296081135561,"18":0.3813193171306527,"19":0.10194687597885439,"20":0.06702204917378533,"21":0.31380912013591755,"22":0.6801970079567515,"23":0.430760557249024,"24":0.06290517033004835,"25":0.42446779362007253,"26":0.11003212805237779,"27":0.03264022529648124,"28":0.0817674454223042,"29":0.3831730384226517,"30":0.15579248020492278,"31":0.4595177448870393,"32":0.07943326081219045,"33":0.3746022718134317,"34":0.18620074870794598,"35":0.21794727800817915,"36":0.1374369740323759,"37":0.12071824814551475,"38":0.08946367040191294,"39":0.11283459472916028}}},{"out_depth":40,"out_sx":1,"out_sy":1,"layer_type":"relu"},{"out_depth":5,"out_sx":1,"out_sy":1,"layer_type":"fc","num_inputs":40,"l1_decay_mul":0,"l2_decay_mul":1,"filters":[{"sx":1,"sy":1,"depth":40,"w":{"0":0.281956279676539,"1":0.3785346963044498,"2":0.33482193336343646,"3":0.02368724032108488,"4":-0.33651942181858296,"5":0.542640686300543,"6":0.09671266358050384,"7":0.030402114601944436,"8":-0.14044598184738488,"9":0.13861905291995513,"10":0.2262057392204795,"11":0.16490545723031258,"12":-0.05109275179862973,"13":0.6204144612966224,"14":0.1980172577951382,"15":-0.1574825443088071,"16":-0.053457306305314985,"17":0.10485835079015969,"18":0.4215490869864121,"19":-0.025483671027422824,"20":-0.10454061236449182,"21":0.28177358264471647,"22":0.715276743929521,"23":0.16093828266505564,"24":0.15051979996774026,"25":0.558109564258225,"26":-0.12975196702691258,"27":0.06714391573503116,"28":0.03361228609526451,"29":0.2587153494362102,"30":0.11480174139282473,"31":0.6381566208914298,"32":-0.09872530202100693,"33":0.3923614289744792,"34":0.008003483883588684,"35":0.12962049897729142,"36":-0.0035385342185255057,"37":0.07340928311158337,"38":-0.3119163281875772,"39":-0.19630770713381235}},{"sx":1,"sy":1,"depth":40,"w":{"0":0.31235217687120953,"1":0.2852125615828278,"2":0.039218479695832316,"3":-0.20992477409694751,"4":-0.08845727560772212,"5":0.6502138928381109,"6":0.10753141826911626,"7":0.06561745459021788,"8":0.019058430472345234,"9":0.3344773331111498,"10":0.2375528828973245,"11":0.24753797010765324,"12":-0.019715355464444986,"13":0.6474702384845817,"14":-0.02231472703453324,"15":0.07559058915436818,"16":-0.18482231833201315,"17":0.3036086457880926,"18":0.18234135079555727,"19":-0.2317920881921624,"20":-0.2500323817520152,"21":0.1040218951201902,"22":0.6640720840185451,"23":0.4647361057373193,"24":-0.09221041935907576,"25":0.5776671265054175,"26":0.39541651142483314,"27":-0.08430931168557956,"28":-0.1893291391914718,"29":0.35514385349677746,"30":0.22997875026910228,"31":0.5043607168088622,"32":-0.17972376279805866,"33":0.25466559541785433,"34":0.35226583860105615,"35":-0.007382339409960093,"36":0.005474803403597862,"37":0.01723782636358302,"38":0.09923464976286844,"39":0.09637709699229151}},{"sx":1,"sy":1,"depth":40,"w":{"0":0.3547739790215318,"1":0.3873312244398119,"2":0.091520361994507,"3":0.05709989415749286,"4":0.08252900470038037,"5":0.8334679875515913,"6":0.026810601788864807,"7":-0.05501259673356061,"8":0.14180551045906734,"9":0.1940083169678953,"10":0.22015517697758108,"11":-0.015259220643337429,"12":-0.044784404636708214,"13":0.6215459967345867,"14":0.2399733283525201,"15":0.03724490347412723,"16":0.017552082448582567,"17":-0.056969023372838976,"18":0.35011195443271653,"19":-0.04820980429453016,"20":-0.21943604409920864,"21":0.16170749933580666,"22":0.5642737922989318,"23":0.47437476211129737,"24":-0.05253162300254282,"25":0.47766305035057116,"26":-0.10406982932296832,"27":-0.12094971867408907,"28":-0.10919397020718848,"29":0.38427871064017194,"30":-0.17038055095721844,"31":0.5969352425415123,"32":0.16125357416232192,"33":0.3029126800257959,"34":0.004600866583251347,"35":0.08776228777697843,"36":-0.121138763074023,"37":0.18341338425569295,"38":-0.03524195535477168,"39":0.07311156978407454}},{"sx":1,"sy":1,"depth":40,"w":{"0":0.16747536401409124,"1":0.18219062655324042,"2":0.5590674979334355,"3":0.3156200340716168,"4":-0.012360222302667534,"5":0.6733721342873771,"6":0.1291342117151311,"7":-0.07482196668673714,"8":-0.09390725342847807,"9":0.3181135084374707,"10":0.09637977024813525,"11":0.09580155067916686,"12":-0.11353712644533273,"13":0.6014158290462119,"14":-0.07600825372935902,"15":-0.0869723361282009,"16":-0.05108953218202362,"17":0.27538882224984984,"18":0.2544649479612415,"19":0.14486236514936535,"20":0.0958392911632512,"21":0.4904848411452553,"22":0.9608125478609632,"23":0.3301512615298196,"24":0.006840243293776042,"25":0.6990201713471911,"26":0.021463109949026497,"27":0.060645308172660124,"28":-0.10580041481783566,"29":0.136105534940641,"30":0.24648606872345608,"31":0.513894099516576,"32":0.060199946389890464,"33":0.3989159503862249,"34":0.16357226853501433,"35":0.45412243065864816,"36":0.09372780339630514,"37":0.07163902220961962,"38":0.24671076171207243,"39":0.3461290936789973}},{"sx":1,"sy":1,"depth":40,"w":{"0":0.2850327664744067,"1":0.21170779349693672,"2":-0.08709667565742321,"3":0.0005419839981375621,"4":-0.1771365955778886,"5":0.6417747074853636,"6":0.020585012413485832,"7":0.5022696976092438,"8":-0.10631269586911651,"9":0.2132589702405068,"10":0.14354986137169057,"11":0.2257053354113249,"12":-0.04301176024104798,"13":1.0432207586880764,"14":0.13040009585435156,"15":-0.23325644989204214,"16":0.19688372048112465,"17":0.25733561446580594,"18":0.37841483035633783,"19":0.19251462066561623,"20":0.053813791400666326,"21":0.24663898545727583,"22":0.6539170184754393,"23":0.5147610579955331,"24":0.10469226297162841,"25":0.41097782709699626,"26":0.05041273346167662,"27":-0.23498047446231313,"28":-0.12368197498935385,"29":0.5371995551355628,"30":0.37280791259395163,"31":0.38002969151955995,"32":-0.076114863782287,"33":0.32408191494891175,"34":0.08948295909847383,"35":0.15644523507869634,"36":0.2754314028275128,"37":0.12746916141944226,"38":-0.05921976665117972,"39":0.15427857951207838}}],"biases":{"sx":1,"sy":1,"depth":5,"w":{"0":0.36221746743843614,"1":0.31949707996924775,"2":0.3669956875630747,"3":0.42087523494633083,"4":0.3839826563267962}}},{"out_depth":5,"out_sx":1,"out_sy":1,"layer_type":"regression","num_inputs":5}]});
}