
//<![CDATA[

// a few things don't have var in front of them - they update already existing variables the game needs

lanesSide = 5;
patchesAhead = 50;
patchesBehind = 20;
trainIterations = 100000;

var num_inputs = (lanesSide * 2 + 1) * (patchesAhead + patchesBehind);
var num_actions = 5;
var temporal_window = 0;
var network_size = num_inputs * temporal_window + num_actions * temporal_window + num_inputs;

var layer_defs = [];
layer_defs.push({
   type: 'input',
   out_sx: 1,
   out_sy: 1,
   out_depth: network_size
});
layer_defs.push({
   type: 'fc',
   num_neurons: 40,
   activation: 'relu'
});
layer_defs.push({
   type: 'fc',
   num_neurons: 50,
   activation: 'relu'
});
layer_defs.push({
   type: 'fc',
   num_neurons: 50,
   activation: 'relu'
});
layer_defs.push({
   type: 'fc',
   num_neurons: 50,
   activation: 'relu'
});
layer_defs.push({
   type: 'fc',
   num_neurons: 20,
   activation: 'relu'
});
layer_defs.push({
   type: 'regression',
   num_neurons: num_actions
});

var tdtrainer_options = {
   learning_rate: 0.001,
   momentum: 0.0,
   batch_size: 64,
   l2_decay: 0.01
};

var opt = {};
opt.temporal_window = temporal_window;
opt.experience_size = 35000;
opt.start_learn_threshold = 4000;
opt.gamma = 0.9;
opt.learning_steps_total = 10000;
opt.learning_steps_burnin = 1000;
opt.epsilon_min = 0.0;
opt.epsilon_test_time = 0.0;
opt.layer_defs = layer_defs;
opt.tdtrainer_options = tdtrainer_options;

brain = new deepqlearn.Brain(num_inputs, num_actions, opt);

learn = function (state, lastReward) {
   brain.backward(lastReward);
   var action = brain.forward(state);

   draw_net();
   draw_stats();

   return action;
}

/*###########*/
if (brain) {
brain.value_net.fromJSON({"layers":[{"out_depth":770,"out_sx":1,"out_sy":1,"layer_type":"input"},{"out_depth":40,"out_sx":1,"out_sy":1,"layer_type":"fc","num_inputs":770,"l1_decay_mul":0,"l2_decay_mul":1,"filters":[{"sx":1,"sy":1,"depth":770,"w":{"0":-0.10596565849921415,"1":-0.014867643519068413,"2":-0.09884589179932576,"3":-0.035587780888102244,"4":0.0232159402021147,"5":-0.13129811919855433,"6":-0.027745790504843215,"7":0.0743659413043461,"8":0.032274008060296636,"9":-0.006038827347018688,"10":0.0017771189497573648,"11":-0.010157009998307261,"12":0.0454921797755124,"13":0.002708621138540357,"14":0.03901588261401308,"15":-0.019046760561239603,"16":-0.07706977862384089,"17":-0.14443630798749363,"18":-0.07854276833840831,"19":0.0015525211494977287,"20":0.023275838872677805,"21":-0.013511418606572874,"22":-0.10865820638854976,"23":0.008611932976651419,"24":-0.11603402918222734,"25":-0.009467785063251525,"26":0.09841632467225014,"27":0.022415341830921438,"28":0.006342773304588834,"29":-0.015675246791133305,"30":0.09156326295902972,"31":-0.10273871666504114,"32":0.059090126305252386,"33":0.07184463541494025,"34":0.05374090889311217,"35":0.03103290186730076,"36":0.009458687439627779,"37":0.036260529376265234,"38":0.05441922688604616,"39":-0.05957284047067079,"40":0.02384244207940994,"41":-0.023463904471031426,"42":-0.00003648402199290951,"43":-0.1070711152800126,"44":-0.04094097477146105,"45":0.010814988991640701,"46":0.04740693001571445,"47":-0.0807560782798268,"48":0.11712575010469897,"49":0.04008213460945239,"50":-0.021582026480781842,"51":-0.009967177354692111,"52":0.09257707563791469,"53":-0.05934278972378597,"54":0.07418905353773939,"55":-0.03251647872491624,"56":0.11760349554763787,"57":-0.01376659850594794,"58":-0.0492995695898088,"59":0.08416415144441064,"60":-0.036889572925853785,"61":0.04875976167037893,"62":-0.02159354474385027,"63":-0.027578779086638975,"64":0.0053768131741914575,"65":0.04304054322197181,"66":-0.10167293728717737,"67":0.05936826782758831,"68":0.021068747799155994,"69":0.02955519668245193,"70":0.028572283605282193,"71":-0.06388695151095014,"72":-0.06712922924345556,"73":-0.0526354716267891,"74":0.09286170741135881,"75":0.10074501392152313,"76":-0.014357684197508026,"77":-0.0529389289285037,"78":-0.009549555937494078,"79":0.037678310103883415,"80":0.036789902464769896,"81":-0.000864751738841455,"82":0.005528066156392498,"83":-0.07126420471041857,"84":-0.01842620829387673,"85":0.07986022048074805,"86":-0.008261372475159387,"87":-0.03434314941329189,"88":0.03334456326384916,"89":-0.06435110881395102,"90":0.0399121021508144,"91":0.07330339910262797,"92":-0.050258089457947124,"93":-0.01362511990953936,"94":-0.07106206675980076,"95":-0.021353707178048124,"96":0.11073365720723702,"97":0.08910638642266465,"98":-0.02453849837535024,"99":-0.07445202162287479,"100":-0.09524423816749814,"101":-0.028579667156165566,"102":-0.015394859250064577,"103":-0.05843816182564624,"104":-0.04781061588542127,"105":0.011299256780087242,"106":0.062136005095159624,"107":-0.04506472340813008,"108":0.09672358323318729,"109":-0.0004146538340557213,"110":-0.02144129915104684,"111":-0.030591763827001073,"112":-0.01527660201544908,"113":-0.01488007781005392,"114":0.01505290057318592,"115":0.08735498227609452,"116":0.026046297124930548,"117":-0.09737420327666817,"118":-0.06000810573273179,"119":0.024124839118753464,"120":0.005653877770613817,"121":0.119806582531753,"122":0.030560558599141564,"123":-0.01768632980787947,"124":-0.018723586753363216,"125":0.0061728166208681705,"126":-0.06132994694153172,"127":0.011527636404234114,"128":-0.0516932960600431,"129":0.009970250458019582,"130":-0.005781754475080694,"131":0.018629639894110334,"132":-0.001014240215596355,"133":0.0524650584795484,"134":-0.025571534617131544,"135":0.009936834118512355,"136":-0.035267174580863904,"137":0.03195869928232874,"138":0.028200560391298746,"139":-0.01250288833904725,"140":-0.033454385587988605,"141":-0.07212990088641824,"142":-0.028718982741585772,"143":-0.08927011603482751,"144":-0.05972846720502615,"145":-0.04106569559946369,"146":0.04998005706431308,"147":0.028713995737117422,"148":0.009100338427768659,"149":-0.07723922623504823,"150":-0.06316779038585756,"151":-0.09804593668339856,"152":-0.15867527976249848,"153":0.08767417671214525,"154":0.0518937363651357,"155":0.006100263251051706,"156":0.016897474798475445,"157":-0.05502874379914381,"158":0.07725025187022834,"159":-0.04618680505580286,"160":0.018009798160240013,"161":-0.0405193413013795,"162":0.0026221660808505103,"163":0.018461717402865452,"164":0.03162468156553356,"165":0.04519253053196577,"166":0.054130628641276886,"167":-0.05314256572380608,"168":-0.08776988216740993,"169":-0.0396449558295933,"170":-0.034759957716998593,"171":0.08862353859028718,"172":0.022748488370285896,"173":0.009178700189104919,"174":0.006187682763674939,"175":-0.05344441931855348,"176":-0.030245351162136815,"177":0.054966479210456526,"178":-0.0026975937158990365,"179":0.03405019109115081,"180":0.014715602046232262,"181":-0.0014885846249032783,"182":-0.07044986831889251,"183":-0.021360044323139597,"184":-0.04790510388925162,"185":0.043894602859380225,"186":-0.10632260442894342,"187":0.06594504497873446,"188":0.044740908959290136,"189":-0.004406884249104236,"190":0.0026370024634698877,"191":-0.01908509352457982,"192":0.0676719272387858,"193":-0.07705647721914255,"194":0.06814620053732294,"195":0.019744633775765186,"196":-0.03264779586169626,"197":-0.03669430328679934,"198":-0.020884646739105284,"199":-0.010738896603954644,"200":-0.07681151931616978,"201":0.057118883756359644,"202":-0.03535663590151221,"203":-0.03357692892025034,"204":0.042215961966091155,"205":-0.042990293908316525,"206":0.02512365730792852,"207":0.02216257158581783,"208":-0.06433701823535717,"209":-0.0010777102544289347,"210":-0.088998249492409,"211":-0.005588374960675501,"212":0.02832433485802907,"213":0.030653955010404906,"214":-0.02867349978703839,"215":0.009035804965185152,"216":-0.0475590796854589,"217":0.01979501156695754,"218":-0.015017390318778114,"219":0.00916550290826497,"220":-0.049199286837316794,"221":-0.04148532037302534,"222":0.03988655825027773,"223":0.028690474952217868,"224":0.010370796026502713,"225":-0.0399253410195005,"226":-0.009449634852327317,"227":0.08320744813517497,"228":0.0712713878124236,"229":-0.033943784754382963,"230":0.004524952022727768,"231":-0.04496194409383304,"232":0.10420915507849463,"233":-0.09193635700241026,"234":-0.05832819736106236,"235":-0.016613789010309958,"236":0.07676888189583585,"237":0.07846906823156159,"238":0.006093253703431415,"239":0.11823556167394934,"240":-0.02291058916105454,"241":-0.038318500890262126,"242":-0.06657782754040675,"243":0.06082220636709354,"244":-0.06280904102943119,"245":-0.06116548727847109,"246":0.06003278541751304,"247":0.057100420653540464,"248":0.028538800811538187,"249":-0.10793636479701586,"250":-0.03802162666560501,"251":-0.06465845233241621,"252":-0.007884372749325562,"253":0.021912137701267886,"254":0.11640867103735437,"255":-0.10552793009330245,"256":-0.010502190073067717,"257":0.05136765650902681,"258":0.01620505182168452,"259":-0.0638986237631048,"260":-0.10898602385928176,"261":-0.045784907673885,"262":-0.09272602793244283,"263":-0.008498451486728524,"264":-0.0586335081166645,"265":-0.0018420190494784713,"266":-0.00021495034010753084,"267":0.03182128570210506,"268":0.05346092371864308,"269":0.11250095157656952,"270":-0.04450520781091597,"271":-0.00975752006480436,"272":-0.12088147109781662,"273":-0.03436810118982414,"274":0.04085963146038451,"275":-0.019525387195802577,"276":0.09793767700654644,"277":-0.048309193848937455,"278":-0.005847874698271721,"279":0.0018600245184736902,"280":-0.017544450125878987,"281":-0.018154360376049155,"282":-0.05307670044798792,"283":0.014632763524996859,"284":-0.016287978936497045,"285":-0.02781939914398253,"286":-0.019169663004209754,"287":-0.03237034996069218,"288":0.04072379644208949,"289":-0.0541719761200534,"290":0.08008625307019605,"291":-0.07952834663254672,"292":0.019998547909984177,"293":0.08121039337899016,"294":0.09541480678532956,"295":0.02626647522936794,"296":-0.048783661778808864,"297":0.025571186502269038,"298":-0.05557134075898476,"299":0.07493515733477156,"300":-0.001451874432462964,"301":-0.008127479156870999,"302":0.07606468337714942,"303":-0.010081596743806792,"304":-0.02050320609478256,"305":-0.02035341062689198,"306":0.0635582876470931,"307":0.07442193121191605,"308":-0.01077637207263078,"309":0.01246704587549412,"310":-0.02207249099618971,"311":-0.003011207977261811,"312":-0.010610535329402065,"313":0.0060519787899764735,"314":0.07428955205542812,"315":0.029892586417803752,"316":-0.0035929600672464225,"317":0.061563394678828785,"318":-0.1340175044489537,"319":0.005713652915704847,"320":-0.042931036752087606,"321":-0.034372425340249604,"322":0.0018036166076927365,"323":0.09073248540695478,"324":0.10659481671312356,"325":0.05149938174092988,"326":0.0479998888214298,"327":-0.029830367906260584,"328":-0.027913995737449765,"329":-0.03383437003932064,"330":0.005792570413716147,"331":0.04817708802642762,"332":0.02761678044950074,"333":0.03665795869115666,"334":-0.05003567644987811,"335":0.15138188271927436,"336":-0.046521563439479614,"337":0.04725829596795659,"338":0.015925903822113938,"339":-0.006554221040759073,"340":0.014790977240947573,"341":0.010099194011881392,"342":0.024296844905875716,"343":-0.05556475396114639,"344":-0.04955009603107542,"345":0.04538595543481349,"346":0.04730012677175742,"347":-0.02071736578676565,"348":0.0897752749519319,"349":0.09345532833554604,"350":-0.09935033749672324,"351":0.024017212831184614,"352":-0.04422057732427978,"353":0.004919245801182801,"354":0.07554205126880334,"355":0.11887990635531917,"356":0.04484442636586856,"357":0.08851483084346273,"358":0.026075517726726546,"359":0.0004703971256971366,"360":0.02799811360322361,"361":0.07226118548506522,"362":0.009712003803980537,"363":-0.09767205435544768,"364":-0.04969252016428984,"365":-0.04863867631786926,"366":-0.01700199886359689,"367":0.08676673142152265,"368":0.08238520480877003,"369":-0.003087279886692066,"370":-0.02131109237778845,"371":0.014509214224847343,"372":-0.05685814052388218,"373":0.08157212276778941,"374":0.08121459188139535,"375":-0.06910631880238538,"376":-0.07098501210977605,"377":0.04707900286608669,"378":0.10905709213884344,"379":0.047732843095023535,"380":0.09279019464150526,"381":0.006468906331904577,"382":-0.013437891373092585,"383":-0.04087757783558898,"384":0.014774542979956522,"385":-0.08918895388891991,"386":0.0014328262893541542,"387":0.06799892326476407,"388":0.03502346929544023,"389":0.045405485246890566,"390":0.12589463220811387,"391":-0.036663909891942625,"392":0.0074325183852269605,"393":-0.03423628693283714,"394":0.02535001840911537,"395":-0.026227098540764302,"396":-0.004285092265721514,"397":0.05878802657752152,"398":0.004079641251497471,"399":-0.014322657519907293,"400":0.011222533582311345,"401":0.12570237681811272,"402":-0.02941425502840343,"403":0.01554802560080551,"404":0.07771592756782135,"405":0.013210672017695827,"406":-0.012911064908321564,"407":-0.00641954948200816,"408":-0.06459429056821359,"409":0.030379945308844504,"410":0.023009503851154318,"411":0.10685443859820194,"412":0.13672749623632927,"413":0.11669326127327932,"414":0.0038289633565143956,"415":0.06540780206786992,"416":0.061710128391669374,"417":0.021128204041519077,"418":-0.04581680801147892,"419":0.009065930766211223,"420":0.011161957337772857,"421":-0.050152813759608596,"422":0.009365820032078176,"423":0.13597145454007756,"424":-0.07550847743077588,"425":0.0008865645123887558,"426":0.10029481751755448,"427":0.015252868019570513,"428":-0.035426726561836666,"429":-0.03147704757259204,"430":0.066989191844695,"431":-0.015041060141055627,"432":-0.006592008587414407,"433":0.013447773656967183,"434":-0.020318139564841884,"435":0.05315222531601358,"436":-0.09447721001561397,"437":-0.026819046513909945,"438":-0.041627024145157406,"439":-0.028795818368924607,"440":0.10206844239489131,"441":0.10860584086878111,"442":0.03139204275462182,"443":-0.050768915539171774,"444":0.010381202556086178,"445":0.06094529033384241,"446":0.08254804600084546,"447":0.04062608650120012,"448":0.016581944777757065,"449":-0.002365285205891687,"450":-0.06596595072567536,"451":0.003905852432497768,"452":0.08438730936015544,"453":-0.12164879832501964,"454":-0.12790513174311532,"455":0.04865490022896346,"456":-0.02936383420698575,"457":0.02093909273355028,"458":0.043017505311837165,"459":0.11316699308447536,"460":0.0002620064434539736,"461":-0.06708335302092708,"462":-0.0410406460694235,"463":-0.03598087905974804,"464":0.011970042267801373,"465":0.037993116846407174,"466":-0.044224532374713826,"467":0.018509763717124643,"468":0.01606680743214645,"469":0.01658366678473445,"470":0.0558146719249853,"471":-0.028511772881884462,"472":0.003428131431053708,"473":0.06622686998467116,"474":0.07686888558149402,"475":-0.03949898807831613,"476":0.06975588835090642,"477":0.021547514902420524,"478":0.12001240661611848,"479":-0.006144421751992609,"480":0.06150468404352632,"481":0.09392822090533949,"482":-0.04818692848221308,"483":-0.06087434353007198,"484":-0.09521680802662917,"485":-0.017731774371244857,"486":0.023564314410261477,"487":0.00604169707476244,"488":0.023345049008485313,"489":0.01011918523908703,"490":0.004730501856427305,"491":-0.02707605509308462,"492":0.04272453237800868,"493":-0.05883394420851018,"494":-0.06454009670758398,"495":0.018107619995354537,"496":-0.001617864569680859,"497":0.07493333139546822,"498":-0.02925368758654016,"499":0.01026564196513384,"500":-0.03291166179192855,"501":0.0884439629745581,"502":-0.0010215168101931416,"503":-0.08696182153414028,"504":-0.07102135794316154,"505":0.02478692545442297,"506":0.054893083374781146,"507":0.02014997497633927,"508":-0.042257926717267164,"509":-0.017638892761296193,"510":-0.04962301914661025,"511":-0.03112118554101023,"512":0.025964840105411505,"513":-0.002883006374211106,"514":-0.02351323565549755,"515":-0.04713871120658648,"516":-0.0008466924290030254,"517":-0.006117565764259488,"518":0.04385217624184509,"519":-0.0012604233993598324,"520":-0.02841744075522462,"521":-0.11679356949671384,"522":-0.06695423898046989,"523":-0.05321082274961201,"524":-0.02076000963596715,"525":0.11381033376696868,"526":-0.029823095596594767,"527":-0.10389437592959432,"528":-0.017479722466204856,"529":0.027517008849441485,"530":-0.03697089180700026,"531":-0.06204952474343092,"532":0.06525667314085877,"533":-0.07565514386038895,"534":-0.032991650466301224,"535":0.0030693459289317343,"536":0.08197870046478038,"537":0.07029664181065844,"538":-0.1703065242226691,"539":-0.04061271419092946,"540":-0.05200014977033094,"541":0.007078231854708571,"542":-0.005469549674434148,"543":-0.05577634619347679,"544":-0.07561402165625726,"545":-0.020463747625482347,"546":-0.02814850091399267,"547":0.08191859733113246,"548":0.14435413737404193,"549":-0.1619079522561368,"550":0.07357031931815443,"551":-0.025634304576609094,"552":0.05447847790602182,"553":-0.056149591479716494,"554":-0.0999592873270762,"555":-0.41513219115398003,"556":-0.1085175433723021,"557":0.06444549865757268,"558":0.011602560769329518,"559":0.052899418635874614,"560":-0.015297916854500304,"561":0.015366082996086152,"562":0.019145669747179454,"563":0.04529809813596642,"564":-0.07829290771309733,"565":-0.1127798034936359,"566":-0.3942447695588403,"567":-0.06133356415799784,"568":-0.012010012948897864,"569":0.049224994895115004,"570":0.09743677930035158,"571":0.05847661724170384,"572":0.04570654007510639,"573":0.08779075071829903,"574":0.04799476989654294,"575":0.0506186362849986,"576":-0.14229887500946767,"577":-0.3663929482076409,"578":-0.09113748981525566,"579":-0.017954989430987462,"580":-0.018826716741041815,"581":0.038804938353065296,"582":-0.022908786690124725,"583":0.11882103781732362,"584":0.077828561278369,"585":-0.041294301295635556,"586":-0.020429321770501416,"587":-0.17573117326672005,"588":-0.4001100687271866,"589":-0.11121395481835564,"590":-0.006514237584849972,"591":0.002516268033642092,"592":-0.0733573374705745,"593":0.006584912259906098,"594":0.04856518324205204,"595":-0.024684366254299078,"596":0.006167286228794648,"597":-0.04046203273548354,"598":-0.11923928402167552,"599":-0.17540577353000394,"600":-0.1072955255547957,"601":0.029357456113799148,"602":-0.04526564313898617,"603":-0.01044686361720458,"604":-0.06141475213612106,"605":0.16473801536728996,"606":0.03654786999241663,"607":0.06327667495308407,"608":-0.022817290837142134,"609":-0.03329896904869647,"610":-0.11831469050655558,"611":-0.01572335992355154,"612":0.003930558321238491,"613":0.02600393548192763,"614":0.03186145472381767,"615":-0.06055462978290718,"616":0.06574166814135027,"617":-0.09159978425288523,"618":0.007101581232601758,"619":-0.02627963814168043,"620":-0.11072818259267624,"621":0.04723812320846945,"622":0.06919810895767635,"623":0.026037120744520404,"624":-0.007813971102266776,"625":-0.10181375156917091,"626":-0.028155113144752785,"627":0.08746693074255574,"628":0.03340077012072221,"629":0.0833749680289813,"630":-0.006712137070744109,"631":0.009213010726850672,"632":-0.08788220910673282,"633":0.02953619470147664,"634":0.04406996717167717,"635":-0.014958125197706612,"636":0.08067081600779312,"637":-0.004398553801116111,"638":0.007217212134782937,"639":0.026120612785851836,"640":0.0697858545147377,"641":-0.00732084312045429,"642":-0.039225898425113453,"643":-0.12808897393540952,"644":0.05602373625080406,"645":0.03913419586208908,"646":0.04565735730437958,"647":0.07584352792395249,"648":0.06551821599467664,"649":0.0328005368051474,"650":-0.023643976703063656,"651":0.0302063689322934,"652":0.024372423736459772,"653":-0.08094498231992893,"654":-0.15871599497941088,"655":0.05321207790789191,"656":-0.0012952747969170212,"657":-0.03701193204286611,"658":-0.01010901273678714,"659":0.0458453442887641,"660":0.059925151056078985,"661":-0.010401829058494825,"662":0.0756370131825814,"663":0.023538679976988233,"664":-0.0598281128723731,"665":-0.15533843651927914,"666":0.059234282454609766,"667":0.05113705710798923,"668":0.006697232053275963,"669":0.05340138278953306,"670":0.07935223685674866,"671":0.010632924449224302,"672":0.012522900057376891,"673":-0.01420139881086359,"674":0.05689638990691311,"675":-0.05023459162697672,"676":-0.17216189803412651,"677":-0.058178909148061814,"678":-0.11573581688681299,"679":0.027874925790677664,"680":0.07871807892676329,"681":-0.0338754729723853,"682":0.061192781748262946,"683":0.022980543470383367,"684":-0.040852805014046235,"685":-0.0353074612070752,"686":0.03501393520991048,"687":-0.055755594925397736,"688":0.07985441691175699,"689":0.0459690059833007,"690":-0.04697359969462474,"691":0.07981704361385446,"692":-0.016293788255480838,"693":-0.04883237792751687,"694":0.059350942589250846,"695":-0.012070065875580266,"696":-0.00016853404089412754,"697":-0.07205221665858857,"698":-0.04163977547887256,"699":0.1596375191466503,"700":-0.04432864597409951,"701":-0.028116338389007206,"702":0.02012358221194506,"703":-0.01703111284806876,"704":-0.07305222073852265,"705":0.12304169227003342,"706":0.010900644495164535,"707":0.05243643954287293,"708":-0.00663873786660011,"709":-0.07272417335751998,"710":0.018455915367556516,"711":-0.039565220249917904,"712":-0.008801353423153531,"713":0.07402185802126098,"714":0.015998752671945723,"715":-0.0023281026172948197,"716":0.02021941788267645,"717":0.06878065744968777,"718":-0.017550677489713343,"719":0.04835752720586426,"720":-0.024432694943339286,"721":-0.05151975977712316,"722":0.06728094318064785,"723":-0.0761719023313599,"724":0.006632485127728458,"725":0.03660158933015413,"726":-0.037118348110988166,"727":-0.017562443217806784,"728":-0.023082103432909302,"729":0.031239559977239564,"730":-0.08595690313439688,"731":0.07223718525493954,"732":0.08686649584174337,"733":0.029130142571351877,"734":0.01349411250816294,"735":-0.07179105349112058,"736":0.03148930419453077,"737":0.06232945217827575,"738":-0.007922211207655822,"739":0.00013309778165306914,"740":-0.013136749742134288,"741":-0.059856983821249835,"742":-0.06500427191392415,"743":0.007415863175743253,"744":0.0003400739803630782,"745":0.04063265855312902,"746":-0.008591414290760373,"747":-0.007718069448786861,"748":0.040058930075802,"749":0.027686371869564096,"750":-0.058500399851674184,"751":0.027326960306203518,"752":0.013315100932791058,"753":-0.03261332701432854,"754":0.009397567345226104,"755":-0.045037221017090526,"756":0.036594266345593124,"757":0.06688498372572968,"758":0.03086638835709319,"759":0.021006643440727578,"760":0.13150231777888777,"761":0.001872935680679001,"762":0.05911128749179206,"763":-0.0615631423979721,"764":0.010621757033019937,"765":0.014495327939108,"766":0.05781225597513,"767":-0.02536270652286717,"768":-0.0032362627091693293,"769":-0.08079266914006585}},{"sx":1,"sy":1,"depth":770,"w":{"0":0.06094377895120813,"1":-0.02070303808105132,"2":0.0004924213190387703,"3":-0.013953123295070998,"4":0.01702517153622984,"5":0.03840188486564288,"6":0.06508304361008989,"7":0.08386972322527268,"8":0.029329280731824413,"9":0.08110799510124553,"10":0.01798539154797926,"11":0.07541358501401213,"12":-0.030742371653851082,"13":0.030705701439420106,"14":0.011718017043720398,"15":0.009882414819429357,"16":0.03115632113691788,"17":-0.0009252951778263507,"18":0.024355522576512884,"19":0.021135419165776697,"20":-0.0012214993545798503,"21":-0.05390962651551425,"22":-0.03937184768283712,"23":-0.004279348105771494,"24":0.01026907475502779,"25":0.10465873814180725,"26":-0.02119998781583341,"27":0.04879556850746093,"28":-0.01337517491638899,"29":0.04338193983377283,"30":0.025245289291864374,"31":0.05249313217215902,"32":-0.05151563490944508,"33":0.09856703178770437,"34":0.053909033146494784,"35":0.020449915222002315,"36":0.02508790187575401,"37":-0.01375128448716171,"38":0.02933585575144852,"39":0.008271645004417134,"40":0.08021845195285408,"41":0.009413083926891717,"42":0.054575747825349644,"43":-0.08171797517338258,"44":0.06366795380697747,"45":0.06431778465037379,"46":-0.00903933643084979,"47":-0.027747050564656824,"48":-0.00021624213871990544,"49":0.03319290271668782,"50":0.0039054964543121834,"51":-0.024851530841914226,"52":0.007895325008267898,"53":-0.0770544765691385,"54":-0.05651649309521533,"55":0.15456340545483793,"56":0.02985075714226382,"57":0.07067261016887046,"58":0.09299430943176266,"59":0.02414904615971492,"60":0.023333060752361807,"61":-0.08012475531485876,"62":-0.023130083721043505,"63":-0.0038736069502236714,"64":0.03921030515711207,"65":-0.07584979325966303,"66":0.08213054443157992,"67":-0.08441939596412705,"68":0.07057257202847361,"69":-0.05246826536432577,"70":-0.03102663050974782,"71":0.014661120588858717,"72":-0.002772568586795392,"73":0.024418965215970832,"74":-0.01649912999164416,"75":-0.0001483152022579645,"76":-0.09803678269545107,"77":-0.004190939171062263,"78":-0.0322455904270578,"79":0.04420554981775763,"80":-0.022238798322516164,"81":-0.046578672284673765,"82":-0.04370245731610691,"83":-0.048420459628421626,"84":0.0026947382116784438,"85":-0.03677713184745127,"86":-0.08790150599557964,"87":-0.05525363387483772,"88":0.012374228253642913,"89":0.0518946714469887,"90":0.036655903844045275,"91":0.12508241321063893,"92":-0.030665039053684926,"93":0.010994187184469132,"94":0.0002268917642444594,"95":0.07231035410480824,"96":-0.05498839573443793,"97":-0.002124085686794442,"98":-0.059597628557799355,"99":0.024377646692293243,"100":0.03893523088711235,"101":-0.0028830547978047657,"102":-0.020795728995632187,"103":-0.03482941172605456,"104":0.027426368025531996,"105":0.05838518675290614,"106":0.10637958396438335,"107":0.03323032787338712,"108":0.023320458857077658,"109":-0.04479145981426659,"110":0.07308061231218674,"111":0.12253819086642025,"112":0.0832221636254443,"113":0.054349253247249825,"114":-0.08882437438573901,"115":-0.05002993551544986,"116":-0.010480070405145916,"117":0.05638361018356955,"118":0.0726187116905088,"119":0.057437500256501954,"120":0.011798714687155647,"121":0.10265345136019595,"122":0.04444421290709387,"123":-0.011072406778623263,"124":0.04374251801074975,"125":-0.010862191251299719,"126":-0.00854443233881579,"127":0.04579833719335819,"128":0.053602617718750634,"129":-0.0015274683270316747,"130":-0.006418980884910088,"131":0.014731951586046222,"132":0.041849350550679114,"133":0.06323004989576439,"134":0.08653090034558913,"135":0.12204744991094423,"136":-0.004992525351663634,"137":0.07366383665187307,"138":0.005568241203377327,"139":0.016023909588113124,"140":-0.017901418436243505,"141":0.0744167261978302,"142":0.031136907838466836,"143":0.06718582245491571,"144":0.021555737419078454,"145":0.03606829995183145,"146":0.005032950147307154,"147":-0.04718153370195949,"148":0.010178284933161042,"149":-0.02346046054869265,"150":0.02571165935377087,"151":0.018697258050752334,"152":0.033305507596665784,"153":-0.018340602889805588,"154":0.020564737644112024,"155":0.005120790637264,"156":-0.059874441577522065,"157":0.00005168791006137135,"158":-0.08612975469960403,"159":0.018625938356745652,"160":0.02937468047084795,"161":-0.030422968741726,"162":0.02832711734941004,"163":0.002374966883973177,"164":-0.07399625447802875,"165":0.03098230706655745,"166":0.10410570484574042,"167":0.03581368061690251,"168":-0.01219527086992004,"169":-0.031146240514123954,"170":0.02267385539520557,"171":-0.08036235639556615,"172":-0.008937961167225202,"173":-0.0659388348294116,"174":0.0026247482037152626,"175":0.025711071059191157,"176":-0.049944859047768804,"177":0.05117533408812219,"178":0.0653573742968176,"179":-0.013341257654444398,"180":0.01748670245116848,"181":0.06783252501425317,"182":-0.01176037089587424,"183":0.05425224848283928,"184":0.0057171468125684945,"185":0.05904282877367391,"186":-0.11422116170480574,"187":-0.003461397590836638,"188":-0.03498652228008953,"189":-0.0037689886094219587,"190":0.016186500011275456,"191":0.015733483127801033,"192":0.02668917366779198,"193":0.030648466698935378,"194":0.00536077330489396,"195":0.03879353979150123,"196":0.005692147117643796,"197":-0.026006428192113948,"198":0.06628193262665072,"199":-0.04444968411218427,"200":-0.0055491701190067836,"201":0.031048466498808245,"202":-0.016498543283926553,"203":-0.041289750335759864,"204":0.05396343675673109,"205":-0.008838781384048987,"206":-0.031576425971217015,"207":0.023065778291566925,"208":0.004151597679718089,"209":0.02409329310459899,"210":-0.036226617646883084,"211":0.10118127354697715,"212":-0.019171613049029982,"213":0.032431212557538086,"214":-0.07846363628578719,"215":0.011260714872676375,"216":0.04421420717324845,"217":0.03531115031072446,"218":-0.054995141099069444,"219":-0.022490735591723002,"220":-0.018551400286490962,"221":-0.02036227048084346,"222":0.03910868833850486,"223":-0.04179466527587034,"224":0.05729357979961039,"225":0.07004711118294416,"226":0.07063503173575074,"227":0.14928600799701672,"228":-0.04228383039198346,"229":0.038141930207282404,"230":-0.003520110005510247,"231":0.010211707873295716,"232":0.01565639694751253,"233":0.019465546957824188,"234":-0.06398987587232635,"235":0.048359316351820156,"236":0.0775439891754497,"237":0.02349164674055163,"238":0.0652638996137029,"239":0.09106861419970545,"240":0.07284436615232093,"241":0.0023244794569509193,"242":-0.05757395501328276,"243":-0.1251863340355258,"244":-0.015587078432707544,"245":-0.016865472693712188,"246":0.019341708078017283,"247":0.054851074464445225,"248":0.02228027814814787,"249":0.11373853406072844,"250":0.048622778859767325,"251":0.10089908715711693,"252":-0.012688955805172566,"253":-0.08508639953297746,"254":0.011224498299108269,"255":-0.023797495480671903,"256":0.05194675710612648,"257":-0.11889846896455175,"258":-0.004156689423272951,"259":0.04419030236308347,"260":0.022242655233439258,"261":0.04020827873821334,"262":0.028709905655018703,"263":-0.042666351111476,"264":-0.05208784965906531,"265":0.06860649788031717,"266":0.028322448168943016,"267":0.061580562814501416,"268":-0.10031989875940969,"269":-0.03081105568773705,"270":0.019457227344987935,"271":0.06512720173667667,"272":0.005448760017835886,"273":0.040048967541967836,"274":0.0057310694343056965,"275":-0.012613203821798421,"276":0.034806867838536336,"277":-0.004148821102505686,"278":0.017691782669195227,"279":-0.06912051275007214,"280":-0.02823436097712225,"281":-0.022972242812893014,"282":0.032423726082306696,"283":0.1129687508290921,"284":-0.01670988692286806,"285":-0.12965178288039153,"286":0.02869996095694436,"287":-0.005251617045801419,"288":-0.06300156796972689,"289":-0.10016528687140402,"290":0.007330021929107286,"291":0.03910543634268385,"292":0.015665175247040607,"293":0.06397485764195766,"294":0.04181340766782348,"295":-0.1043182738193004,"296":-0.03774369193044384,"297":-0.002136674476375751,"298":0.05189685930456981,"299":0.05171822827513525,"300":-0.1461974935848369,"301":0.11379537827389759,"302":-0.0039052663594336314,"303":-0.03136874944863642,"304":0.09550121980925294,"305":0.07974441821585897,"306":-0.03829914300728487,"307":-0.04750521826420007,"308":-0.009513536689211996,"309":0.09313102614074198,"310":-0.00463945664149863,"311":-0.11873166374996307,"312":-0.02755442464801353,"313":0.04467145710856035,"314":0.032789334453632274,"315":0.05689247998330394,"316":0.06419954500319759,"317":0.029316548047130124,"318":0.0011982090942236955,"319":0.005740508384334961,"320":0.00926511892976022,"321":-0.01214568541935192,"322":-0.1426733170915977,"323":0.004139188142135004,"324":0.050904883826815364,"325":0.005332440060167288,"326":0.01169955679013131,"327":-0.02252284852649954,"328":0.0033422241401653455,"329":-0.11592725365754172,"330":-0.03996211542397811,"331":-0.07206969640844371,"332":0.013845680166365915,"333":-0.08103268176092678,"334":-0.07887981129614474,"335":-0.008229849494958814,"336":0.04273313034623987,"337":0.014081053419990424,"338":0.04518330956203886,"339":0.04299843200017121,"340":-0.024826400495798238,"341":0.07679825197738274,"342":-0.05800691527540916,"343":-0.09893980514000039,"344":-0.0348702141986002,"345":-0.06501153747787133,"346":-0.028743033167470313,"347":-0.010471029249292727,"348":0.006495267742782221,"349":0.03297082628409517,"350":0.026671574296098167,"351":0.028800538524099965,"352":0.10223845856026906,"353":-0.08165690712733434,"354":-0.023266305762717675,"355":-0.07322059937735202,"356":-0.09155401680357703,"357":-0.015280301147804359,"358":-0.04329006104990687,"359":-0.022939865572406782,"360":-0.05591634789502106,"361":0.0129304786774407,"362":-0.03237363628098943,"363":-0.06388205333419812,"364":-0.03443306444082733,"365":0.01300789154129271,"366":0.02520925673545836,"367":-0.026025826892050116,"368":-0.08807247056212475,"369":-0.027204779542804477,"370":0.05606895453131991,"371":0.07476620689202142,"372":-0.01945691886904545,"373":-0.0403893045027572,"374":0.0728476764870469,"375":-0.009699508119402766,"376":0.0013323335616031782,"377":-0.04438189612011995,"378":-0.015557393624278146,"379":-0.06632831878808663,"380":0.03345640625675033,"381":-0.06758159748260455,"382":0.018095192356812367,"383":-0.057757184697631934,"384":-0.08674676728818716,"385":0.0495116628207801,"386":-0.05838852884287674,"387":-0.018920367947622894,"388":-0.02716137701425865,"389":-0.12890262726976606,"390":-0.07849509294550996,"391":-0.03720290278891599,"392":0.010119222658333956,"393":0.03145518912047853,"394":-0.02485316774605375,"395":-0.0036580677629451295,"396":-0.005827592862121205,"397":-0.003612736009731044,"398":-0.010359906721116698,"399":-0.04203682725138851,"400":-0.058069749282243954,"401":-0.008435424064673314,"402":-0.023664218448996147,"403":0.0074150564843839355,"404":-0.02533787625746095,"405":-0.08140992601338572,"406":0.06078713042693003,"407":-0.010606666294887346,"408":0.00527198023476435,"409":-0.0023222333816819304,"410":-0.1013422357546673,"411":-0.03826096828785287,"412":-0.025434455162073093,"413":-0.08152898994857398,"414":-0.007813301012883777,"415":0.06648239034031024,"416":0.015191151541804537,"417":0.02387454481456247,"418":0.0012943344495231423,"419":-0.001423804639189557,"420":-0.05470146375434031,"421":0.022122053097319766,"422":-0.04664918616622565,"423":-0.04097605137807395,"424":0.0542586575653204,"425":0.023996422934857382,"426":-0.057295362274619906,"427":-0.06017018303175596,"428":-0.021417594649950397,"429":-0.07112840281110314,"430":0.052666530239149224,"431":-0.034378731121699195,"432":-0.09623923902734298,"433":-0.09860063601758885,"434":-0.06912929592136834,"435":0.023115913730022957,"436":0.012455392535008637,"437":0.02606511286398613,"438":0.03605183747070805,"439":0.06734926113576796,"440":0.05143160075520052,"441":0.01847307036256858,"442":0.02694279388043723,"443":-0.12082496701663242,"444":-0.05588277535699049,"445":-0.09214313598870888,"446":-0.0661331625205102,"447":-0.06924567003161924,"448":-0.029290695980249533,"449":0.034536794907693305,"450":0.0023043017031989257,"451":0.02980862506661241,"452":-0.014798266515282427,"453":0.000736176470186675,"454":-0.05884596138025715,"455":-0.10353788723312427,"456":-0.10726511653244587,"457":0.04788871734872833,"458":-0.014311418588445403,"459":-0.04089069677715326,"460":0.0617452954575958,"461":-0.05478107166865865,"462":0.04803067619360647,"463":-0.0013747332239352665,"464":0.035621070652559844,"465":-0.04369302980519412,"466":0.003469106015596998,"467":-0.08577429165435352,"468":0.014888914359981409,"469":-0.004968864281082613,"470":-0.08042930906487582,"471":-0.044402437705399936,"472":-0.056741318635819764,"473":0.009916735096880347,"474":-0.07479359969814801,"475":-0.03356597317287688,"476":0.010089071497641424,"477":-0.12266061019457687,"478":0.11715139957201516,"479":-0.09292870500912012,"480":0.011563458323996608,"481":0.008510388812222292,"482":-0.0456364306397217,"483":-0.04500865837257673,"484":0.05771759817856948,"485":-0.04364008745643796,"486":-0.03142066470393878,"487":-0.09112124970067895,"488":-0.15630899857285607,"489":0.1844638951518105,"490":0.14311394042115078,"491":0.05207879367368128,"492":0.03959991335791296,"493":-0.05476583677184185,"494":-0.044106142647503,"495":0.05613455293462553,"496":0.025351793791523365,"497":0.03815018025535289,"498":0.018608844439128622,"499":-0.1044061522516587,"500":0.1626392149434367,"501":0.014929935397382724,"502":-0.023993158677354656,"503":0.009098759666187776,"504":-0.021379058755200343,"505":-0.03374668871104001,"506":0.03686037462249108,"507":0.05071848689550119,"508":0.0861378508891656,"509":0.06927609919321326,"510":-0.15501678716212122,"511":0.11000854712555029,"512":0.02654823618822258,"513":0.011616433528215538,"514":0.02376656823606636,"515":0.06245240047332061,"516":-0.09742165218118672,"517":0.026155918827060903,"518":0.08591304363666458,"519":0.09026950326610403,"520":0.08130594929006692,"521":0.008288040261335913,"522":0.026146989164606248,"523":0.08025591013702123,"524":-0.009541558014532684,"525":-0.06386040651582228,"526":-0.018479856676028722,"527":-0.09012088489566851,"528":0.024416747546458423,"529":-0.06010905406629549,"530":0.10660200719802504,"531":0.00875960706102108,"532":-0.013667404664070279,"533":0.003936625856247249,"534":-0.019397779853765063,"535":-0.014604741964250418,"536":0.06761390965860363,"537":-0.0951106581421382,"538":-0.05056498712099208,"539":-0.0015239612190818617,"540":0.056808242060009735,"541":0.07841665373115615,"542":-0.04431428933668478,"543":-0.07492921386407429,"544":-0.001548017819878885,"545":0.0011566469879508785,"546":0.046225542289817644,"547":0.008692321038938081,"548":-0.04888532741659336,"549":-0.11085274540197049,"550":-0.13048815131501618,"551":0.041461487533235065,"552":0.11610516066448423,"553":-0.09555588764487395,"554":-0.006078231923011191,"555":-0.21082016745660254,"556":-0.0016760484724451827,"557":-0.006026494119576409,"558":0.013227147107708476,"559":0.022998781456003068,"560":-0.13231144846584367,"561":-0.03435706402792125,"562":-0.017777809762998267,"563":0.04889144292560591,"564":0.001309627259087532,"565":0.1080486488252188,"566":-0.16966427985635096,"567":-0.00045026221163277266,"568":-0.01831392614801112,"569":-0.0538337817510735,"570":0.06859367862574439,"571":-0.10646479248537405,"572":-0.04337815461805997,"573":-0.023947684173987658,"574":-0.025462571220159633,"575":0.04792892574108405,"576":0.16957767788177106,"577":-0.23192270368809503,"578":0.028731042746107525,"579":0.012294809636581331,"580":0.02326761555469577,"581":0.03778503850211053,"582":0.03603551853590266,"583":0.08358908687769617,"584":0.008571421588302507,"585":-0.029727126010319266,"586":-0.001910925847151178,"587":0.07354180117954585,"588":-0.208350183795918,"589":0.08722663508041602,"590":-0.04950674071825157,"591":-0.014389480164626255,"592":0.0534878791955428,"593":0.03536702107166533,"594":-0.09913123741496084,"595":0.015245138260388038,"596":-0.030912724635774914,"597":0.003753493293038799,"598":0.12081366343310523,"599":-0.024913535021124592,"600":0.11637973946865315,"601":-0.050484336071374876,"602":-0.018729177374054815,"603":0.039771234243934785,"604":0.006373722756641122,"605":-0.03418780862623168,"606":-0.06105653748477541,"607":-0.043667819021971,"608":-0.03884041773784155,"609":0.054308182196067145,"610":-0.06515465554457767,"611":-0.015896482015051047,"612":-0.0030638141143190254,"613":0.007478915230436416,"614":0.04884205531335055,"615":-0.02725142960085758,"616":0.038013295373988364,"617":-0.03458722272300124,"618":-0.08505144642111062,"619":0.0011860631369891817,"620":0.027896885770978503,"621":-0.02295228095226631,"622":-0.13853322011302133,"623":-0.0357546834248057,"624":-0.05014137853995978,"625":-0.056367355974029094,"626":-0.030805757779407653,"627":-0.020891925456992824,"628":-0.0429637608769228,"629":-0.035698277212332624,"630":0.03422109956073881,"631":0.09436778289295909,"632":-0.2156586367988961,"633":-0.02038714780838601,"634":-0.028185199647575283,"635":-0.013977282852424363,"636":0.04389331140782737,"637":-0.03581557570373207,"638":-0.05080313213505898,"639":0.03332932746999578,"640":-0.05291450453991223,"641":-0.01656813910807792,"642":0.04269347927718256,"643":-0.08629068137297696,"644":-0.04928589971451433,"645":-0.047271331721289576,"646":-0.033715041512538776,"647":0.036373278910565715,"648":-0.0014903807240408964,"649":-0.032995917204354554,"650":-0.026583276125112933,"651":-0.13266763626457484,"652":0.0028913688135525552,"653":0.06263574900408164,"654":-0.014204181358237799,"655":-0.080518524255919,"656":0.0014059300327492223,"657":-0.04219825958990933,"658":0.085119104248345,"659":-0.03103223617424068,"660":0.1175397326162588,"661":0.0692473014647329,"662":0.01154771203354588,"663":-0.012645868582179198,"664":0.06636156570178073,"665":-0.12853751460185706,"666":0.02287591974058471,"667":0.010723026498407598,"668":-0.09145220786784054,"669":-0.028362362536083777,"670":-0.0037007149590231945,"671":-0.0275616673750466,"672":-0.012466716222042748,"673":-0.027194056369896667,"674":-0.03197671285530239,"675":0.16997104823533532,"676":0.020301057533560762,"677":-0.004171231628043005,"678":0.042261484256237124,"679":0.027444599272691255,"680":-0.12332421247711374,"681":-0.03302492054897278,"682":0.03712168317305536,"683":-0.03178346593655472,"684":-0.05096755192302862,"685":0.003937508810596697,"686":-0.02708161582789852,"687":0.10463225338230098,"688":-0.009718902194360973,"689":-0.02743610070580271,"690":0.013680475444354252,"691":0.039365848116729975,"692":0.0347182849650381,"693":0.008785562259011193,"694":-0.010086985538254057,"695":0.007082770429248524,"696":-0.04007920245141353,"697":0.03559131960755292,"698":0.0213111867798068,"699":-0.04065661079929205,"700":-0.06091516270554351,"701":0.048085863587373344,"702":0.04096142352124408,"703":-0.006940031280069384,"704":-0.019049495202632574,"705":-0.059281951833425606,"706":-0.059385070107360084,"707":0.04741730665952144,"708":-0.06406465713469481,"709":-0.022398565072260596,"710":0.045531633981359974,"711":-0.02124435215280573,"712":0.0013111083753478546,"713":0.0076498029105704,"714":-0.048200762355259184,"715":-0.01663417741718438,"716":0.019403630743221042,"717":0.016629186432407534,"718":0.08090858098037954,"719":0.06752244212001834,"720":-0.047699696225483326,"721":-0.013401033453082876,"722":0.01851313819623606,"723":-0.00831325204467481,"724":0.03570653777375365,"725":0.047852475903291815,"726":0.03505887492124762,"727":-0.007692375475101012,"728":0.06674573405066321,"729":-0.033411490281376834,"730":0.07817054379744542,"731":-0.07028072198401686,"732":0.00911573284971862,"733":-0.019729033810082328,"734":-0.011636641555731884,"735":0.004344086445157902,"736":-0.0627317844981806,"737":-0.07719508243719253,"738":-0.08226644009723058,"739":0.0362868278878976,"740":0.012454890907901082,"741":0.0777528447581363,"742":0.03154921335268054,"743":0.05211490858263389,"744":0.0018556907417205592,"745":-0.05267284935217147,"746":-0.04373725292892878,"747":-0.02786193891458772,"748":0.005650602920342864,"749":0.03513016869435892,"750":-0.011338003014536474,"751":0.055670343912946445,"752":0.058107459760963,"753":-0.02008039208644387,"754":0.025853325703757063,"755":0.017677883087938377,"756":-0.03657378380565574,"757":0.002710939378583544,"758":-0.005104012894440659,"759":0.0499949871500305,"760":-0.012742602232328966,"761":0.010950666574981007,"762":-0.02018236952313921,"763":-0.041632522566331334,"764":-0.007497627612434226,"765":0.03096908415625658,"766":0.002109562820463711,"767":0.027919117012850495,"768":0.00990731148971632,"769":-0.008792282133087278}},{"sx":1,"sy":1,"depth":770,"w":{"0":-0.044139298351327017,"1":-0.08875994081817987,"2":0.010987278354033679,"3":-0.08821060089037665,"4":-0.09781267744669349,"5":0.024160086451880818,"6":-0.014073085697709074,"7":-0.010214442415243228,"8":-0.018251019713511177,"9":-0.014307434512685529,"10":-0.04395443024833645,"11":-0.0870610778501857,"12":-0.049975768403174345,"13":0.050315355557630274,"14":-0.002830414188845618,"15":0.008348479159063464,"16":-0.011141568450544448,"17":-0.06731615862252996,"18":-0.000280426290134713,"19":-0.008616986336551377,"20":0.05326495211917468,"21":-0.07322162022159531,"22":-0.02046710178772194,"23":0.005140115958781197,"24":0.05970675514213386,"25":-0.024215113963863187,"26":0.031082566087396478,"27":0.029845229881919857,"28":-0.05667419251496978,"29":0.05721819886704759,"30":-0.008859179764496046,"31":-0.04467109545280641,"32":-0.0007470381195064557,"33":0.03756634336240496,"34":0.004682835766737299,"35":0.043720870868237054,"36":0.032001277925420374,"37":0.06141761488660765,"38":0.12544794533140374,"39":0.01028845011268718,"40":-0.03163883869151744,"41":0.02678925719167485,"42":0.05453959953402635,"43":-0.014088932303941901,"44":0.023034563917208734,"45":-0.05821351656048545,"46":-0.030266683876053857,"47":0.026885895528888138,"48":-0.009449220015662545,"49":0.05987660985382727,"50":-0.06610272280092006,"51":0.023550013297465408,"52":-0.06340500926680952,"53":0.026682084553514188,"54":-0.06320645985161308,"55":-0.06940544057963405,"56":0.009934052626281576,"57":0.04832714785101855,"58":0.001759168289746578,"59":0.02009128966566073,"60":-0.06613916149707351,"61":0.07256197521974053,"62":0.055603270833248675,"63":-0.012524094049759682,"64":-0.03679920744151315,"65":0.01932794678871008,"66":0.03597549868098721,"67":-0.027990550616220505,"68":-0.0059864734762905625,"69":-0.04682547793892787,"70":0.02876037280020173,"71":-0.0015499276879213455,"72":-0.027193443998261277,"73":0.03832103473029624,"74":0.001157807367719739,"75":-0.08791737535304751,"76":-0.030539805843796324,"77":0.008774634558544877,"78":-0.030247598730299953,"79":0.0489907408261378,"80":-0.0015980046932710403,"81":-0.011431647330520392,"82":-0.11274200078294533,"83":-0.03263592574481422,"84":-0.01006636677189537,"85":0.040959857718112336,"86":-0.030827025790211578,"87":-0.04040345027120881,"88":-0.016889089481669294,"89":-0.10075156760175834,"90":-0.024840367238286858,"91":0.02144869560027672,"92":-0.03205124694123805,"93":-0.08250391778759403,"94":-0.014810885074554235,"95":0.010691401250031936,"96":-0.051399888475130676,"97":-0.010105599157219753,"98":0.059363283256720585,"99":0.08289637246820787,"100":0.028177002229410893,"101":-0.018390736466016553,"102":-0.007450555081323308,"103":-0.006109900272913646,"104":-0.1271396164321592,"105":-0.008522025030669626,"106":0.056290444892846965,"107":0.012984663844447042,"108":0.07717911637765006,"109":0.02837877938585328,"110":-0.09955314878522631,"111":-0.025031597625435414,"112":-0.018499023197296138,"113":-0.037335074653200795,"114":0.0032108659054427132,"115":-0.014111542822334015,"116":-0.0012134696972117614,"117":0.013201769854207242,"118":0.002304440964806466,"119":-0.038716664395075796,"120":0.005030273109174471,"121":-0.026719006571000268,"122":-0.04338683208522548,"123":0.045343185298640856,"124":-0.041768301281040546,"125":0.04846296227691429,"126":0.022524203963776777,"127":-0.0003366707698810972,"128":-0.003821307505037698,"129":-0.011109962955949506,"130":-0.01295457160453426,"131":0.09525797755090087,"132":-0.03453562754759243,"133":-0.0688896069386141,"134":0.017353767171991687,"135":-0.07477439160026446,"136":-0.04574222254739983,"137":-0.06809228010009057,"138":-0.044067223417209214,"139":-0.07727625083553401,"140":-0.02408156324335467,"141":-0.04197249420353597,"142":0.009707053463125856,"143":0.002333297373633574,"144":0.0561556631003506,"145":0.018112534549984693,"146":-0.010618381207805904,"147":-0.016015481313290607,"148":-0.042921471238367724,"149":0.02290605297152644,"150":-0.009621419068515774,"151":0.05806102490504839,"152":-0.021237158856350385,"153":0.030561422945915847,"154":0.010283000906249874,"155":-0.08882092094672873,"156":0.02609591596383231,"157":0.05673138347440634,"158":0.06504012109523298,"159":0.022587733153875043,"160":-0.04882177054088956,"161":0.01602584891931134,"162":-0.005273079993577202,"163":0.007485727388670176,"164":-0.057018781294350486,"165":-0.03353995933925318,"166":-0.024824099884505173,"167":-0.05319917629050273,"168":-0.05185563980085489,"169":0.02817701849957522,"170":-0.07741927684976319,"171":0.00904385665273754,"172":-0.07988944590307426,"173":-0.001270033152243567,"174":-0.025837739009685837,"175":-0.018955053711259797,"176":-0.08135236270047837,"177":-0.0949794420156023,"178":-0.023799269597203937,"179":0.029244928496193447,"180":0.08810122311036642,"181":-0.06849348043212218,"182":0.030391833507322743,"183":-0.041832790179966654,"184":0.05236579122015044,"185":-0.024068896298092547,"186":-0.004011763526244388,"187":-0.041029842940094985,"188":-0.04090513773182889,"189":-0.04849065572404215,"190":0.019253489344965624,"191":0.07295239437391732,"192":0.034157692177884016,"193":-0.007047780593394151,"194":-0.039309337421292154,"195":-0.024924070052738508,"196":-0.10772223361706602,"197":-0.02233033666630677,"198":-0.05226841647850588,"199":-0.03574514237225993,"200":0.020490451281350346,"201":0.02684606672952967,"202":-0.023678803927559992,"203":-0.060953041525631406,"204":-0.08041651129862848,"205":-0.03730480639459515,"206":0.041199883854690596,"207":-0.10254535342767426,"208":-0.003500402367469892,"209":-0.006343355128906648,"210":-0.12865543837145432,"211":-0.00199234336066443,"212":0.036404044861273466,"213":0.016896794502848603,"214":-0.07502366417100692,"215":-0.020288162159673866,"216":0.01786452445191716,"217":-0.028632120326189083,"218":-0.033109808137356596,"219":0.10530567453930305,"220":0.007906021339813985,"221":-0.09490411710094815,"222":-0.008584065145609342,"223":-0.0640615600034529,"224":0.01613526713011943,"225":-0.0008058652653647081,"226":0.003056866602220802,"227":0.06090909812104764,"228":0.0652988260963608,"229":-0.043009189016641976,"230":-0.020630283682436565,"231":0.026076092819907363,"232":-0.09006355895522182,"233":-0.021899342585535594,"234":-0.008209872594409228,"235":0.008853256216983438,"236":-0.013664547739613894,"237":0.03477791837320201,"238":-0.026690180989815935,"239":0.02751963023269363,"240":-0.015253859813543916,"241":0.012146051374061889,"242":-0.010044803632052773,"243":0.014845446970495127,"244":0.024656027262805146,"245":-0.00015583039089827065,"246":0.08034588903620546,"247":-0.030430891694921695,"248":0.014155382032610986,"249":0.031075089534273702,"250":-0.004864338419091927,"251":0.01798488872473306,"252":0.025726654996668354,"253":-0.019024663827641532,"254":0.01682046420530973,"255":-0.03694855997478068,"256":0.051658989297746954,"257":0.022736803490005467,"258":-0.046759658107566035,"259":-0.03070634457091406,"260":0.06486811181469648,"261":0.038483123845281623,"262":0.0829466385607882,"263":-0.03452827081170496,"264":0.05013824554586181,"265":0.01140148244300018,"266":-0.0018327376032425612,"267":-0.01842845024633003,"268":0.02289274166845038,"269":-0.04385195008337791,"270":-0.014312953501708813,"271":-0.019801913745868018,"272":0.020490479115637904,"273":-0.03616311403994046,"274":0.008584407470750007,"275":0.10211006591485357,"276":-0.0018070928168679979,"277":-0.06444374298320538,"278":-0.011833454011761483,"279":0.044929758682726396,"280":-0.07635542732236206,"281":-0.09243686751114853,"282":0.004448768509858157,"283":-0.0650680188589202,"284":-0.004212938089671817,"285":0.03141411225158528,"286":-0.0486735360042122,"287":-0.00898785240618749,"288":0.05378018987454218,"289":0.05719712193628721,"290":0.0542384085899945,"291":-0.05647401513993446,"292":-0.007337539318493538,"293":0.03898374012757648,"294":-0.031624131569506136,"295":0.013444014020082079,"296":0.008022512874983796,"297":0.03782978252884174,"298":-0.15997400045589572,"299":-0.011092788231888175,"300":-0.026924166307051484,"301":-0.05243542157601159,"302":-0.004069020576680195,"303":-0.0007031751205968304,"304":0.03703828590761122,"305":0.052422417839084634,"306":-0.0033224846673451974,"307":0.03048386086123256,"308":-0.040935057398585016,"309":-0.01993009947931765,"310":0.0797844598219718,"311":0.06563707031693179,"312":-0.025915839654267206,"313":-0.11865171569535019,"314":-0.007451740273396696,"315":0.0023140028805682497,"316":0.013774132668105682,"317":0.004122693534331844,"318":0.02919307443842332,"319":-0.0477221034737479,"320":-0.08653063941816334,"321":0.021323063056450445,"322":0.04882187208098408,"323":-0.03185994213394928,"324":0.03127378006721141,"325":-0.04217651734494661,"326":-0.03111546773604451,"327":0.014997084994390225,"328":0.04387546478261519,"329":0.11112129556352322,"330":0.02172801818437192,"331":-0.026778168266207533,"332":-0.02953473723250568,"333":0.07331063379150532,"334":-0.01740677695266196,"335":0.10957665907806385,"336":-0.04042197705806473,"337":0.10748489051186204,"338":0.004230967156095495,"339":0.002973849988909023,"340":0.03953846469606722,"341":-0.014654440009698887,"342":0.025374095675190025,"343":0.014210320410452249,"344":0.023005039389041124,"345":-0.019716615443063402,"346":0.00033037577725852707,"347":0.04281750878254742,"348":0.019765214740217092,"349":-0.020130401731695596,"350":0.017201207862580444,"351":0.03388002837867645,"352":0.015909110810249875,"353":0.05137550866137114,"354":0.03903124523984788,"355":-0.030929994862339206,"356":-0.061345951135988036,"357":0.0009302185991201088,"358":-0.007284456343959661,"359":0.09864968658654678,"360":0.0027514231428117015,"361":-0.07029047949449516,"362":-0.0037466503320710246,"363":-0.006098799866809185,"364":-0.0697626378123116,"365":-0.015526368279650395,"366":-0.017682286918516088,"367":0.07428185654600353,"368":-0.04573162836110295,"369":0.00635702294994183,"370":0.07559268174711255,"371":0.012009561139917047,"372":-0.06082151069917848,"373":-0.04948723713508135,"374":-0.002898148379290692,"375":-0.0050002489484007925,"376":0.027735204837220927,"377":-0.004618615234664984,"378":0.10685963833775071,"379":0.07089160289913235,"380":-0.07114512353268518,"381":-0.021819542465745346,"382":-0.05504113767632871,"383":0.03527615303041192,"384":-0.005951401393614876,"385":0.055242744119441425,"386":0.06687437236557825,"387":-0.00841074860768265,"388":-0.0007079643132636952,"389":0.09519316853277655,"390":0.1139440110698387,"391":-0.11518378506235727,"392":0.05519706086793497,"393":-0.02465141824069072,"394":-0.005326687687074441,"395":-0.005805893004366073,"396":-0.006984988755802103,"397":-0.05196029919111469,"398":0.044849184496732065,"399":0.030201277156990076,"400":0.003433114684999166,"401":0.016109710130853213,"402":-0.0006287164089634804,"403":-0.052442150945751935,"404":-0.027407632879090836,"405":0.003841320915904973,"406":0.0770279030584233,"407":-0.010374753359211057,"408":0.0025042972930089764,"409":0.07148372989899614,"410":-0.02573077784678253,"411":0.03128920091141651,"412":0.09482554311211594,"413":0.020937855247669206,"414":0.004628371544767481,"415":-0.056978690059628176,"416":0.0017474136070232448,"417":-0.06025077175241002,"418":0.045951609147648294,"419":0.007636390661256798,"420":-0.030739661890716544,"421":0.01954253633766978,"422":0.028748798266330592,"423":0.08286815793875243,"424":0.03905122136849822,"425":-0.06903831352612137,"426":-0.03411884595479429,"427":0.012146984484267017,"428":0.04067593314452086,"429":0.06494904502662524,"430":0.06955210066010438,"431":-0.05037604950173411,"432":-0.0037536878124040606,"433":0.1178467170541813,"434":0.1236077416779722,"435":-0.10612395472568201,"436":0.011376940629822389,"437":0.06697815304253338,"438":0.01807802817062449,"439":0.03665778131757971,"440":0.06197268401315657,"441":0.0014783416263691796,"442":0.030522228120997637,"443":-0.07109116092657493,"444":0.17580481729751454,"445":0.2798399668354643,"446":-0.012438963453653345,"447":0.0309172655129081,"448":-0.014889032427381746,"449":-0.05598366572133081,"450":0.022591580297476734,"451":0.047062617242545034,"452":-0.03633459974459157,"453":0.013137090575379647,"454":-0.026275257202403823,"455":0.12058267128624446,"456":0.2336553871871104,"457":-0.07367514033476105,"458":-0.04640032711741297,"459":0.04654106323597037,"460":0.007506581306525851,"461":-0.023386708060465448,"462":-0.04206748095737115,"463":-0.02913864350787097,"464":0.06142501712226618,"465":-0.03438267339479077,"466":0.12294554183639601,"467":0.2570105421114195,"468":-0.11212561826143368,"469":-0.021668434037782753,"470":0.07010595792922648,"471":-0.06790229403812262,"472":-0.02395506786562286,"473":0.008371059385065481,"474":-0.009461751307871583,"475":-0.005536170834607568,"476":0.007508360431704642,"477":0.17635301724410085,"478":0.31139439230652777,"479":-0.07646369321220033,"480":-0.058624365391919425,"481":-0.036012586242652946,"482":-0.005611434405555766,"483":-0.015603367475574849,"484":-0.04911782554597665,"485":-0.007358510593595718,"486":0.03909035552173525,"487":-0.016684373823193103,"488":0.2573816443317913,"489":0.27313027702731413,"490":-0.23994259674774268,"491":0.07749027397529806,"492":-0.028038928350874025,"493":0.002565565917071115,"494":-0.01650695256999562,"495":-0.05118217278640174,"496":0.022064319520217084,"497":-0.0728317547014907,"498":-0.06562863145773419,"499":0.2814507313015085,"500":0.3079795207127142,"501":-0.249982104364387,"502":-0.028038871137039956,"503":0.04996940894605733,"504":0.06301958352580876,"505":-0.005472953292297376,"506":-0.03915996825154146,"507":0.08454370871786662,"508":0.05735288205169131,"509":0.007217129680837725,"510":0.2330851589302346,"511":0.3164454004501884,"512":-0.11597526036876214,"513":-0.008422485629021563,"514":0.05509632986287525,"515":-0.05217849573580399,"516":-0.004820588073109754,"517":-0.03779426906766384,"518":0.04515141609689256,"519":-0.018235886637270087,"520":-0.03982131908140805,"521":0.1552305839421118,"522":-0.001698381331267924,"523":-0.1522465932271418,"524":0.0008720811312870871,"525":-0.05210199480649441,"526":-0.035800596620116344,"527":-0.0433662917506196,"528":-0.012344546188253688,"529":0.03403020105238749,"530":0.03934819116541693,"531":-0.11541011084635602,"532":0.2556759113622758,"533":0.03246846240166497,"534":-0.15096309440462294,"535":0.007091167963312383,"536":0.0015791265594455868,"537":0.020368313782152356,"538":-0.03630138641026206,"539":-0.012848721972416237,"540":-0.0005043729042754619,"541":-0.017048974888540895,"542":-0.05610208396033698,"543":0.3550617831967389,"544":0.1097984646204362,"545":-0.16186545669890562,"546":0.0091652861038905,"547":-0.08597271514672766,"548":-0.021024273870803856,"549":0.018220804264623323,"550":0.0000721613779254124,"551":0.0324376280439258,"552":-0.05773659104850013,"553":-0.004768302908307465,"554":0.20544047415317604,"555":0.10920512277386427,"556":-0.12220507568787972,"557":0.04752909847515164,"558":0.01584969431411226,"559":-0.01330765859618715,"560":-0.002131903616671996,"561":0.021977353663665624,"562":-0.014158501544339454,"563":-0.03872341364902223,"564":0.025834097877201694,"565":0.23083602093005484,"566":0.02857600306486536,"567":-0.15181156863118628,"568":0.08658527509308096,"569":0.06707373968877389,"570":-0.003219140206583728,"571":0.03772848614980927,"572":-0.08723725284767378,"573":0.02862407475046536,"574":0.060109197739604894,"575":0.004832757687523966,"576":0.24243387902249613,"577":0.13191973840202253,"578":-0.10390644453775204,"579":-0.002554691868829108,"580":0.04621169706867092,"581":-0.021121628757795507,"582":0.008393854135576497,"583":-0.1253370408073203,"584":-0.034124426571819945,"585":0.0014396729244124677,"586":0.026172882018347828,"587":0.13732853357577715,"588":0.06484459116098888,"589":-0.1321574682319417,"590":0.05200407830815063,"591":-0.07826338054483062,"592":-0.05345484473269679,"593":0.049294818008761315,"594":-0.02716436611475336,"595":0.015998433460814778,"596":0.0018840607626242013,"597":-0.0041466225798100515,"598":-0.010448963436124645,"599":-0.06522140625325423,"600":-0.0314037998620842,"601":-0.013586942358280302,"602":0.06094508488098951,"603":-0.02363021836315813,"604":0.007393584535452075,"605":-0.03578038021903057,"606":0.023023590599736358,"607":0.0466836743345418,"608":-0.014056132824333867,"609":-0.0224269423054211,"610":-0.02187395158699045,"611":0.014550471670118846,"612":0.05545895881008107,"613":0.04561794893476947,"614":-0.023930710483894547,"615":-0.025393558413060974,"616":-0.08493470783240879,"617":-0.03594182274005664,"618":0.0013297622292995771,"619":-0.058434409638876444,"620":-0.0017941571978750618,"621":-0.07245618907963679,"622":-0.05560122818474012,"623":0.05374256179358508,"624":-0.02057869025492002,"625":0.06238697970298121,"626":0.05244605604067504,"627":0.0004984907302502855,"628":-0.01686617798379061,"629":-0.04902586520777069,"630":-0.001943475110564767,"631":-0.07160084663054038,"632":0.0008168581219201333,"633":0.02455158658417829,"634":-0.029417036594596258,"635":-0.00793491861696154,"636":0.031198743945298046,"637":0.029535681576914143,"638":-0.02539705416421198,"639":-0.0000658465114852523,"640":-0.12416970817282567,"641":-0.012728728198804353,"642":-0.049144573166809,"643":0.06604776300695339,"644":0.024226327696964232,"645":-0.058802403655616446,"646":-0.021504603334688743,"647":0.05502840108499942,"648":-0.010656181596318823,"649":0.011601502555110667,"650":0.04807563972685137,"651":-0.027581583585049394,"652":0.09526498722264762,"653":0.07206137261872353,"654":-0.03567742600204893,"655":0.0990239272860538,"656":0.03938820625832536,"657":-0.05678411849941167,"658":-0.007969315996839556,"659":-0.007054529079312283,"660":0.08848516963296618,"661":-0.019697108398684503,"662":-0.040689029382315334,"663":0.030494859054609667,"664":0.062116066685351974,"665":0.03179939686862678,"666":0.02499632206604833,"667":-0.03802920287439417,"668":-0.04842764312992018,"669":-0.00710041129601743,"670":-0.10070480276356317,"671":0.06450708816784126,"672":-0.04504262266918704,"673":-0.05168650479687424,"674":-0.04455995679408629,"675":-0.009293492889994918,"676":0.021590404534908493,"677":0.06684727200069604,"678":0.014027089276731066,"679":-0.019201511174953393,"680":0.012378457870294603,"681":-0.07316089588549891,"682":0.020114917199688463,"683":0.004078795232664188,"684":-0.04370765805871957,"685":0.06423563883735654,"686":0.03875581823520097,"687":-0.08190240565152275,"688":0.13905024163382082,"689":0.07251308694908794,"690":-0.03193811605368083,"691":0.08587644112376173,"692":-0.0689712093122795,"693":-0.021021175500561092,"694":0.010649565820880629,"695":0.06791334318823934,"696":0.036112773029857444,"697":0.12267347433272975,"698":-0.08713772864324583,"699":0.16281854061850223,"700":-0.03070386727925243,"701":-0.06024974678292227,"702":0.09953798947675273,"703":-0.014420883755858005,"704":0.023047238884752134,"705":0.005672159228324527,"706":-0.042415611480744804,"707":0.0066660244123290455,"708":-0.018500131414747184,"709":-0.09755781347946421,"710":0.023948609224154854,"711":-0.05309048964200754,"712":0.03129937027292674,"713":-0.014373471219398,"714":0.06601544981379077,"715":0.02528280316519578,"716":0.08838683676135312,"717":-0.07181936106579016,"718":0.07234249155425254,"719":0.013177328821138517,"720":-0.06383316801657643,"721":-0.03399591726589929,"722":-0.009063230237415752,"723":-0.05673362828125349,"724":-0.021611493118734754,"725":0.016443326301508656,"726":0.007903295301693623,"727":-0.016675568626385237,"728":0.008484797144919506,"729":0.026319490148877158,"730":0.03120622072251987,"731":0.023685230394057476,"732":0.112186073371345,"733":-0.016746768100062325,"734":-0.11461070730098116,"735":0.013149690625624951,"736":0.05378608246414285,"737":-0.002826814660602066,"738":0.01201291883650788,"739":-0.0058205320058781025,"740":-0.010155714340046204,"741":0.01678691134041781,"742":0.0014601264658147342,"743":0.060438146896055485,"744":0.05268578187298649,"745":0.0007058329322466543,"746":0.020444688333507537,"747":0.012682632474457481,"748":0.02232698384906389,"749":-0.017002520952804457,"750":0.06882774692033669,"751":-0.024356100063984355,"752":0.03248072254231894,"753":-0.027142034480406432,"754":-0.00443448412618237,"755":0.022384289425169845,"756":0.0003419044533048477,"757":-0.07742035256479148,"758":0.05114418524460519,"759":0.009861877607920492,"760":0.005091033784702296,"761":-0.003097788223259079,"762":0.015993667094335955,"763":0.01582379468973171,"764":0.06187490244797741,"765":0.03913801712129551,"766":0.06505434857506519,"767":-0.09320434325134141,"768":0.03176896273809679,"769":-0.015915531898849544}},{"sx":1,"sy":1,"depth":770,"w":{"0":-0.015869624720296852,"1":0.12307582130595907,"2":-0.092880743208772,"3":0.06111498885221637,"4":-0.067877220028646,"5":0.08955790078200541,"6":0.07976665238256347,"7":-0.08048707122978534,"8":-0.04911001401590855,"9":-0.021624137870204268,"10":-0.04950941087491534,"11":0.028360477485642244,"12":0.1270437859758985,"13":-0.04461805940997474,"14":-0.003717362149465351,"15":-0.029373737893025366,"16":0.022593532168830043,"17":0.021636359768349968,"18":-0.0098906918760994,"19":-0.014505913210353445,"20":-0.0020911128867979393,"21":0.014084291540953092,"22":0.049658507056001285,"23":0.011735565543032572,"24":-0.10184323526763721,"25":0.04268986343184676,"26":-0.07437855834891052,"27":-0.039112107866467336,"28":-0.03015135252615962,"29":0.041213111013959025,"30":0.07705006161326117,"31":-0.04694841762761425,"32":-0.07509255913209222,"33":0.0012094619917205778,"34":-0.016777301632384497,"35":0.015379398028533938,"36":0.09869207883579321,"37":0.029751560571272016,"38":-0.059953397431280094,"39":-0.03976863674820064,"40":-0.03700153236262844,"41":0.03478558438234025,"42":-0.00009349961713222224,"43":-0.061655711793568865,"44":0.01966874630224485,"45":-0.06123141660371878,"46":-0.03769306534358589,"47":-0.012436731693470359,"48":-0.026898229573101486,"49":0.03290194828890736,"50":-0.053230373568263364,"51":0.04041590310124048,"52":0.02501514572162265,"53":0.11052562957894288,"54":-0.003460145519659349,"55":0.037392475442339944,"56":0.035464217630947856,"57":-0.06007311365984012,"58":0.11558123940521743,"59":0.0784678472717512,"60":-0.042411557847572896,"61":-0.05703628485400191,"62":-0.014301811810168206,"63":0.00145026535662243,"64":0.0700226911061153,"65":-0.017403090498224697,"66":0.0172438872947782,"67":0.08584050375838587,"68":-0.03347703532843831,"69":0.03704784204959953,"70":0.03101088044915034,"71":-0.03572332804977878,"72":-0.009379236348751138,"73":-0.03794871431768245,"74":0.009520773143121483,"75":0.035242131097396434,"76":-0.0038802704868417253,"77":-0.07318373010171049,"78":0.060644595935518936,"79":0.014260711065003874,"80":-0.039395949139768814,"81":0.02111480501547744,"82":-0.006566606514925047,"83":-0.08245254018545388,"84":-0.014586255546150966,"85":-0.02513525676572774,"86":-0.032355559997535914,"87":-0.019482211256395498,"88":-0.06180646953222121,"89":0.05251133346206212,"90":-0.02136773983933664,"91":0.09199492027017837,"92":-0.008611698811743432,"93":-0.046855787611037585,"94":-0.02705153725685521,"95":0.04120859812947676,"96":-0.03516507027568966,"97":0.020130807147338885,"98":-0.006249157452843912,"99":-0.0016668327073690607,"100":0.03234083505561134,"101":-0.011080557779593653,"102":0.10093763121243922,"103":-0.03897370683435465,"104":-0.09849791190120072,"105":-0.005573585150652655,"106":0.024136214931500363,"107":-0.0016722712752997224,"108":-0.040805179439554556,"109":0.051160431605829275,"110":0.08191020358031262,"111":0.030118987349391745,"112":0.028755547606968735,"113":0.031685864073404235,"114":-0.07683399520482723,"115":0.02395241574861614,"116":0.04181893228959601,"117":-0.08828231308022758,"118":0.05815811980860752,"119":0.0030884657922633897,"120":-0.061097271873865835,"121":0.15001669971022957,"122":-0.08309333858076462,"123":-0.02401612598814092,"124":-0.01864973733692362,"125":-0.05216982756699554,"126":-0.0012608295152231725,"127":0.022301394624474034,"128":0.05114414100240022,"129":0.01130607918562376,"130":0.04859980262529977,"131":-0.01240909385085835,"132":0.13663241242284285,"133":0.000584304714110909,"134":0.015845038076015908,"135":-0.01392236824056894,"136":-0.03799563508912767,"137":-0.05786863109456743,"138":0.0029626789286175464,"139":0.04560285296074524,"140":0.08028256027966259,"141":-0.02546118204507336,"142":-0.028376305686109934,"143":-0.02984790622184517,"144":-0.028850650112153358,"145":0.1043001933447235,"146":0.02604463001084282,"147":-0.07545690845444494,"148":-0.011667420064841177,"149":0.017293287230959395,"150":0.09903552473787787,"151":-0.06131952392597881,"152":-0.01635282920102624,"153":-0.04387913837027387,"154":-0.0734992564978081,"155":-0.07003991044794816,"156":-0.005505323288932946,"157":-0.014827437389960275,"158":-0.09599098233465173,"159":0.028294302724351933,"160":-0.012595142163072136,"161":-0.08114188503530628,"162":-0.009028129794975272,"163":0.11106906639583822,"164":-0.043865406322264495,"165":0.06954202801241868,"166":-0.006584856483898038,"167":-0.08055119139171886,"168":-0.05329516120522362,"169":0.04828836101421862,"170":0.014554558911005417,"171":-0.055085542103554125,"172":-0.056596575796333995,"173":0.03119971544176112,"174":0.04654835935586983,"175":-0.0113452414987506,"176":-0.0016231397774154276,"177":-0.029391479865660732,"178":-0.009090768750921834,"179":-0.031010315529078774,"180":0.0039209292493017096,"181":0.0015839874459304426,"182":0.06302808212738881,"183":0.013640362919648959,"184":0.0011802777366685662,"185":-0.028091422170136084,"186":-0.019365780946862005,"187":0.04197368115921566,"188":-0.03932035744877962,"189":0.013623308535411344,"190":0.09229960776520141,"191":0.021276025862019505,"192":-0.014692135869529908,"193":-0.037492120269502605,"194":0.06545432655942648,"195":-0.030549388123901133,"196":-0.033540254723549615,"197":-0.05163979367984955,"198":0.028170368091411938,"199":0.029636645689238583,"200":-0.002287820344777665,"201":-0.006223002027498937,"202":0.07724076258506825,"203":-0.012747083313991424,"204":0.09449916143000185,"205":0.03608997544867265,"206":-0.03175999083401853,"207":0.09356038746491777,"208":-0.09974584555969551,"209":0.035613970222753054,"210":0.012985158312125808,"211":0.01995515933550881,"212":-0.009658590167117426,"213":-0.05704962770649225,"214":0.0011488855629364736,"215":0.05687261476127533,"216":0.0009896303889723977,"217":-0.028975197065989163,"218":0.09321610850794569,"219":-0.04409556252764178,"220":-0.02753398107464483,"221":-0.016877965376889622,"222":0.043470212998641455,"223":-0.002800770952088399,"224":0.0029495176654271422,"225":0.011127877053516777,"226":-0.011007714105742748,"227":-0.06094795887521596,"228":0.04183664066787225,"229":-0.00923902781391527,"230":0.057667409197328136,"231":-0.0175909250558643,"232":0.0716898088993806,"233":-0.0023130959494669368,"234":-0.005850849178952374,"235":0.00741015566533941,"236":-0.031511668821673534,"237":-0.022962648042706164,"238":0.0050376436296220555,"239":-0.05794935073772453,"240":0.029297332133872176,"241":-0.034306203635040784,"242":-0.033067134019501544,"243":0.03529808955318516,"244":-0.06202621732691601,"245":-0.004142407484971021,"246":0.04740700707057943,"247":-0.08758632432827317,"248":0.001710786548346755,"249":0.07123142386000503,"250":0.02656523547453843,"251":-0.016688514448527914,"252":-0.08294326880679899,"253":0.02484481291836336,"254":0.01859371288893276,"255":-0.05471514797097608,"256":0.0035484463767588878,"257":0.034021550116756505,"258":-0.02722075992126086,"259":0.029635340217236555,"260":-0.00916062041703677,"261":0.06678483119629311,"262":0.02224972728250423,"263":-0.07103214594048897,"264":-0.0009395385107010604,"265":-0.012792385976053595,"266":-0.021050936793531292,"267":0.01895905614869939,"268":-0.023868933658262554,"269":-0.009663784409369729,"270":0.07331245834179217,"271":0.05746988611526192,"272":0.023399341754123438,"273":0.015523155847356323,"274":0.03669771266141311,"275":0.06452177000180838,"276":0.059762141324126744,"277":0.037333842526686985,"278":-0.0005534552741692056,"279":-0.014475603884642646,"280":0.007824503050991612,"281":-0.0010589728497765068,"282":-0.013796027245101625,"283":0.045607563986980036,"284":-0.016032000740930086,"285":0.008891924883387603,"286":-0.009123669532930657,"287":0.03462494664164036,"288":-0.016722436665289084,"289":-0.014374982121788055,"290":0.0319765410336697,"291":-0.03339903637317185,"292":-0.018216653628050614,"293":-0.013847523383862774,"294":0.019789468072773396,"295":0.027568628290124644,"296":-0.05525515551609696,"297":-0.037615954639258174,"298":0.057387496109101266,"299":-0.003192348397207231,"300":-0.021810963911875255,"301":0.0383854446743176,"302":0.11696470657068053,"303":-0.10193481369329327,"304":-0.05990324813213021,"305":-0.006945888905867479,"306":0.03670987106383311,"307":-0.04903190011655106,"308":0.02266103963884096,"309":0.0337611490951002,"310":-0.04922107700650991,"311":-0.1018759744976293,"312":0.009496623669293032,"313":-0.0644947139464407,"314":-0.04236557195002185,"315":-0.01997415975626657,"316":0.009230570410379623,"317":0.056854878924313526,"318":0.01768433953046164,"319":-0.017954720578333874,"320":-0.05818261896720537,"321":-0.046835580979983936,"322":-0.08559520195619537,"323":0.006234765302371954,"324":-0.08150875659948852,"325":0.0676894392147708,"326":-0.03729776479266233,"327":-0.04743454200140298,"328":0.009554082496885774,"329":0.018099688146154407,"330":0.022495464905681068,"331":-0.037258670617716795,"332":0.07915662861402696,"333":-0.06787679931176097,"334":0.07256744586008987,"335":0.048650992132868144,"336":-0.0639095334356055,"337":-0.03174998414066605,"338":-0.04375072901350016,"339":0.043033411624650825,"340":-0.001642546184633296,"341":0.0032988321015109965,"342":-0.03547328639560718,"343":0.07636560925859935,"344":-0.05328821980090957,"345":0.00553596540381683,"346":0.016437157121496643,"347":0.012894395981445176,"348":-0.039807668421331245,"349":0.08639615192934047,"350":0.010811310416550006,"351":-0.019073898536436977,"352":0.026195577801196707,"353":-0.07592003875187363,"354":0.07574459138912765,"355":0.09422501712084595,"356":0.011393288620872737,"357":0.09171728166492069,"358":-0.08444032426242994,"359":-0.11566669093925012,"360":0.019447887242930242,"361":0.07568705177748866,"362":-0.0005474731073245443,"363":-0.047530057714784635,"364":0.053392498950698135,"365":0.04833765193939695,"366":0.08981871561037262,"367":0.0895172700816619,"368":0.020686003501195843,"369":-0.03371486943640592,"370":-0.024753880416892093,"371":0.07067452525087377,"372":0.0245245327932791,"373":0.019942682004163558,"374":-0.0655652453581803,"375":-0.0065515539371711826,"376":0.04078099013990627,"377":-0.0154080757101602,"378":-0.007866743930508544,"379":0.01524567994222044,"380":0.06153186276169334,"381":-0.06694558868039852,"382":-0.030145561191181044,"383":-0.027303433243684307,"384":0.03769273706660485,"385":0.08763175750766589,"386":-0.025335062164156315,"387":0.0068926174721021215,"388":-0.01945218311234141,"389":0.02960311648731638,"390":0.016404207497793366,"391":0.05586963881585142,"392":-0.0988679286903677,"393":-0.06001086137789538,"394":0.025004714160344214,"395":-0.05481597170778183,"396":-0.04196886287345141,"397":-0.0821829983526129,"398":0.046901183148892925,"399":-0.046860593865140215,"400":0.061473256954196386,"401":0.07074155480581437,"402":0.030232581351775503,"403":-0.09290917126129963,"404":-0.0576198203537646,"405":0.0740893387767879,"406":-0.029852232953782316,"407":0.03168264452232138,"408":-0.004188155118688941,"409":0.09352751386898467,"410":-0.03894541931943763,"411":0.06153192697996863,"412":0.13295310265460256,"413":-0.05408195832129987,"414":-0.09410826187498673,"415":-0.07994027888046744,"416":0.07876919333429887,"417":-0.10424718490890619,"418":0.0078049230787012955,"419":0.06816234004479804,"420":0.028299477210506865,"421":-0.007747816421261449,"422":0.033758509765845185,"423":0.08716963914002455,"424":0.0785035931528432,"425":0.00040429109432164867,"426":0.05729491021663583,"427":0.057623328795445704,"428":-0.043418599385687595,"429":0.006092629244151073,"430":0.0096727380048749,"431":-0.09284595503461811,"432":-0.09395434102053217,"433":-0.03581341066290069,"434":0.08395568816426213,"435":-0.009597905430538194,"436":-0.02036543275638529,"437":0.0448673924813987,"438":0.02701102311706881,"439":0.014255127499960094,"440":0.011640556541543182,"441":0.06933271187691555,"442":0.023107455929299577,"443":-0.07647005138097851,"444":0.0922783992321588,"445":0.05900920542947502,"446":0.060557119018307085,"447":-0.025848097616590338,"448":0.00678624190892782,"449":-0.03368578461308173,"450":-0.01990279911319787,"451":-0.035791843982338374,"452":0.05293281004116571,"453":-0.00624452694353334,"454":0.005405781592005953,"455":0.03438375087314057,"456":0.08347144515268194,"457":0.026081228925625314,"458":0.04470101232406744,"459":0.0022179873154817217,"460":0.06526947621012913,"461":-0.04681774140960784,"462":-0.015082817081908301,"463":-0.023808948578883566,"464":-0.036912714794512864,"465":-0.031656695672621984,"466":-0.030504954186421098,"467":0.10373079981919824,"468":-0.020357829754117117,"469":-0.041088299938135085,"470":-0.043207820160945376,"471":0.021416933656672774,"472":0.028235085071306915,"473":0.000929961391701107,"474":0.0268376621310911,"475":0.060420041496194114,"476":0.0014485327875935741,"477":0.037914373252955026,"478":0.16604350463143427,"479":-0.021061852567218632,"480":-0.012757194980524373,"481":-0.1001815192973661,"482":0.08921724620399292,"483":0.03690753570811058,"484":0.04661696223787474,"485":-0.04636577096452155,"486":0.045422613069686986,"487":-0.04403936660906607,"488":0.05115801212518713,"489":0.09837951099861444,"490":-0.010845052223854965,"491":0.0786626733222907,"492":-0.009950127605393343,"493":0.06094427959066517,"494":0.01604329435859068,"495":0.010329062001859199,"496":-0.03884804733512671,"497":-0.06043503346626674,"498":0.062462994552281555,"499":0.15244055573124535,"500":0.07384121450841305,"501":0.02123296293298523,"502":-0.03233909988297377,"503":-0.018818554719490278,"504":0.06502173842708443,"505":0.0735017148584405,"506":-0.006680407604856516,"507":-0.0897476429322977,"508":-0.0683564198112638,"509":-0.005076658029137395,"510":0.08962236304928368,"511":0.09279926391340224,"512":-0.008828810866325223,"513":-0.0047164268384217315,"514":0.003170502393565958,"515":-0.0209664352311067,"516":0.049054029176144785,"517":-0.023105352784430693,"518":-0.057314814839494826,"519":-0.040642280298802236,"520":-0.008434134550764853,"521":-0.04464358880272117,"522":-0.023956675120831977,"523":-0.0031427739881910903,"524":0.00956930624301738,"525":-0.016981967834043196,"526":0.01777796839416009,"527":0.09929157956088858,"528":-0.08580079787973396,"529":0.013234601692330107,"530":-0.00196929776284477,"531":0.030483110841313554,"532":0.010117929103110136,"533":0.005439017217233649,"534":-0.045924663889600724,"535":-0.022154224397971864,"536":-0.115520010526228,"537":0.08523232103955165,"538":0.0011045877841514577,"539":-0.059822535939967704,"540":-0.012751059888165358,"541":0.08461394526975054,"542":-0.03649618273338677,"543":0.08904101028615267,"544":-0.010184618977880887,"545":0.00484167597642511,"546":-0.045141092177639355,"547":-0.07425197080330943,"548":-0.003951939334172532,"549":-0.06568053966725944,"550":0.0356099630994448,"551":0.050830689274589266,"552":0.06122783608011359,"553":0.00795107236161462,"554":0.04282574124257728,"555":-0.082265021934265,"556":0.037136611830593046,"557":0.010250659963975586,"558":0.001334537205514407,"559":-0.0053155282196592655,"560":-0.05120374408539201,"561":0.09112966049463854,"562":-0.05276045158618693,"563":0.06563869749387818,"564":-0.014911716694797742,"565":0.05854075845123657,"566":-0.07171860234073528,"567":0.09976738631922753,"568":0.02230998871979929,"569":0.02967663671128917,"570":0.016508818187472588,"571":-0.021380772945416786,"572":0.026934648221956643,"573":-0.037876664267534346,"574":0.1142519063648655,"575":-0.049994802864183716,"576":0.10329219080834266,"577":-0.11815512428411112,"578":-0.033843893043943564,"579":0.039740139263108085,"580":0.03536867682708477,"581":0.03726212030319457,"582":-0.0020872381782537715,"583":0.0015466494255967644,"584":-0.018971768443062295,"585":0.043981872762139475,"586":0.017804039652973162,"587":0.006611021190210703,"588":-0.22326702971200818,"589":-0.0796051233290914,"590":0.01778830223240087,"591":-0.08105718897500616,"592":0.021227809720652274,"593":0.07068802843077299,"594":0.044728749901805503,"595":-0.006591754813446746,"596":-0.020917004853622873,"597":0.013748547359956674,"598":-0.027427550531308197,"599":-0.11824929544694888,"600":0.002986525808432625,"601":0.10301265012312867,"602":-0.09544780020112414,"603":0.06174720994473632,"604":0.03955871321274558,"605":-0.004794365943001333,"606":0.04234412811687325,"607":0.018759637481556374,"608":0.10028585791603005,"609":-0.07731891628228553,"610":-0.13930765610435641,"611":-0.03921543274157464,"612":0.10441162307448287,"613":-0.043422293912149745,"614":0.03109532499931253,"615":0.0820832920693495,"616":0.07197254903923847,"617":-0.023345658533435346,"618":0.010218119963140043,"619":0.07075087418647327,"620":0.018665736388965837,"621":-0.0666010868506615,"622":0.045008266405161285,"623":0.06121969547873357,"624":0.02108095200090631,"625":0.0590565712239536,"626":-0.01537845176857084,"627":0.01718904552541662,"628":0.01769984813641419,"629":0.1297989292458326,"630":0.10312203600555377,"631":-0.05887860430447608,"632":-0.1685770955551536,"633":-0.040586663804731166,"634":0.04538759309727789,"635":-0.04723971405621497,"636":0.006939992445954743,"637":0.0020780227780088554,"638":-0.06829877981243045,"639":0.016174898273325085,"640":0.07569269560478792,"641":0.0456984264002496,"642":-0.12734045917923228,"643":-0.0659964014514973,"644":-0.11211935473694083,"645":-0.010173997935911505,"646":0.06009829743485506,"647":-0.023482246959428323,"648":-0.01618519800886216,"649":-0.1112772716795611,"650":0.03722829879613365,"651":-0.0020322860167906374,"652":-0.04326715144654346,"653":-0.04683297922297603,"654":-0.07009674718376788,"655":0.04793822806370208,"656":0.077038686343249,"657":0.03447749468914213,"658":-0.054354276226023665,"659":-0.03596061837660249,"660":-0.016234072294817554,"661":0.00997010923929257,"662":-0.04235356174560477,"663":0.008255457296913201,"664":0.01632872553987302,"665":0.02029457787164355,"666":0.014529930212942245,"667":0.03632941658666163,"668":0.04724374349956078,"669":0.0014095508566661717,"670":-0.004033839810778598,"671":0.06018917938579217,"672":-0.04855687524112967,"673":-0.10102776607533985,"674":0.008833515992648712,"675":0.04315075914720854,"676":0.06387441373723782,"677":-0.0391000558523962,"678":0.04733555079352571,"679":0.02964845506249757,"680":0.03639560400936606,"681":0.0060153808898743425,"682":0.1172022889327763,"683":0.04757334535324366,"684":-0.14862288684828318,"685":-0.05472738811226694,"686":-0.05314299929500486,"687":0.007389663334364751,"688":-0.04883607597840465,"689":0.0702033723555742,"690":-0.09116720703031453,"691":0.08956518248432713,"692":-0.035846747187206665,"693":0.033882722044904084,"694":0.023256937608865106,"695":-0.026270105772440613,"696":0.026945640553912315,"697":-0.011846362568342777,"698":-0.0761482807579053,"699":-0.07679986336083978,"700":-0.019673879609244962,"701":0.06276265617078973,"702":0.04951068074354493,"703":0.06893142372568407,"704":-0.019841612382409918,"705":-0.0003902027843042807,"706":-0.045814611002488466,"707":-0.047584281393636796,"708":-0.14316104607321922,"709":-0.15947455364560234,"710":-0.029965967645659897,"711":0.03651189498386918,"712":0.04439022946228539,"713":0.0006156649043863623,"714":-0.035843768834481274,"715":-0.047274600876159124,"716":0.019635304782562434,"717":-0.023898433471521843,"718":-0.07870083855541408,"719":-0.10088605566509339,"720":-0.07532688306686589,"721":0.019918042840721215,"722":0.015888020827461012,"723":0.010840474289133581,"724":0.015109818631032603,"725":0.004481085465951714,"726":0.05308930008557516,"727":-0.008229856618779612,"728":-0.10347836401437975,"729":-0.06926892263677749,"730":0.027839140732436662,"731":-0.06720988543593347,"732":0.035872451692392324,"733":0.10482996839760551,"734":0.09179564032007645,"735":0.016740506703015388,"736":0.05386358355264504,"737":0.05322185438688725,"738":-0.12811784232209011,"739":-0.02995654329317168,"740":-0.026559818836895732,"741":0.0011965423340079455,"742":-0.09997615916880888,"743":-0.020007588521279096,"744":0.1238087972597151,"745":0.014883350630618344,"746":-0.024512453601815084,"747":0.018515065273383632,"748":-0.05999161774380447,"749":-0.024434559994972856,"750":-0.07226089109484919,"751":-0.02246066112162604,"752":0.009876197239302187,"753":0.009882513610851022,"754":0.0027708026353490934,"755":-0.023366708156927977,"756":-0.007037879801207348,"757":-0.02653233706906316,"758":-0.030500434852342825,"759":-0.026888252231650405,"760":0.01718799097821216,"761":-0.009393398483394941,"762":-0.026852015752442112,"763":0.044067018809674535,"764":0.01100234573310458,"765":-0.009877689956890682,"766":0.00948288091076714,"767":0.042638365050145045,"768":0.008151294046290756,"769":0.011303989039124105}},{"sx":1,"sy":1,"depth":770,"w":{"0":0.006930406481535271,"1":0.04569931507841109,"2":-0.014623987011949434,"3":-0.06311765223004284,"4":-0.00895636397787873,"5":0.005926950580540982,"6":-0.02794787021850316,"7":0.005693685356475544,"8":0.039296990625773236,"9":-0.058088342124547505,"10":0.04628333548347887,"11":-0.02078591172735754,"12":-0.03457633317579575,"13":-0.02663576178792043,"14":-0.037405346560533924,"15":0.01625020325516337,"16":-0.02832136801569726,"17":0.003386246278910791,"18":-0.06222691291087053,"19":-0.029712234273802547,"20":0.028679050736517393,"21":-0.026561884406672148,"22":0.07529819758131875,"23":0.029854008104367887,"24":0.03101689033174282,"25":-0.04515339058934879,"26":0.039683488594545555,"27":-0.0518248373951582,"28":-0.04161449203738417,"29":0.026848183618199028,"30":0.01585034863145316,"31":-0.09696684871593454,"32":0.09051577732213424,"33":0.048383332794595356,"34":0.010066574361908425,"35":-0.017095548787595272,"36":-0.025264223663918478,"37":0.034618792393946815,"38":0.01610748105144023,"39":0.0038312614254398976,"40":-0.009969749739053095,"41":-0.10442853947945178,"42":-0.10243982201911857,"43":0.059430437477799844,"44":0.02468148729379526,"45":0.06999617128727377,"46":-0.02316481514251342,"47":0.0016070714737050425,"48":0.09839107174656032,"49":-0.05612799208220632,"50":-0.019472625237937902,"51":-0.011276733709385069,"52":0.003631113794436426,"53":-0.010423586222107834,"54":-0.020356985909160113,"55":0.009708075453653313,"56":0.037263222827731056,"57":-0.024621385993609503,"58":-0.018204159386563612,"59":0.030733716468188253,"60":0.03800212906865858,"61":0.011954756617183586,"62":-0.01440788895850371,"63":-0.004135410142388068,"64":-0.031012592367485946,"65":0.014775199315760316,"66":-0.030538692776265954,"67":0.05226484790674726,"68":0.010134713099394822,"69":-0.07484661354739604,"70":-0.09912791413341912,"71":0.07974234147045424,"72":0.029176376376546756,"73":-0.009975890142640265,"74":-0.07778944598329189,"75":0.02781214249028094,"76":-0.002854621637543368,"77":-0.007580439269171613,"78":0.052648711044424173,"79":-0.01687100200637867,"80":-0.008030630983560022,"81":-0.07923505054832289,"82":-0.027803139745087455,"83":0.02071250551776631,"84":0.02141054750310905,"85":0.011084476724166938,"86":0.05358551229083228,"87":0.014119921569136802,"88":0.09854922300322652,"89":-0.031090551548076766,"90":0.07514523904985716,"91":-0.13426107933848552,"92":0.021970887154823524,"93":-0.029212992608365643,"94":-0.08801634725206116,"95":-0.012388786865785553,"96":0.003044682973129731,"97":0.01749888599521894,"98":-0.03426563745026007,"99":-0.044169380574034356,"100":-0.01160033665293793,"101":-0.007086492492922373,"102":-0.06877267196670593,"103":0.02764915853670221,"104":0.007197091538150357,"105":0.04002042683408891,"106":-0.03682960137374484,"107":-0.023736702806968383,"108":0.029233211832956747,"109":0.030581325008802097,"110":-0.05276412972021946,"111":-0.02652743057835572,"112":-0.08962786632393274,"113":0.058441906496161634,"114":-0.029951308486429632,"115":0.02507467766253985,"116":0.0028509585005563704,"117":0.013765491883818334,"118":-0.027104581003885263,"119":-0.0469497390223063,"120":0.0708909507547465,"121":-0.003054962323077157,"122":0.0451088915835409,"123":0.05029958512711865,"124":0.015879731794291824,"125":0.028409735387742153,"126":0.03821795208393359,"127":0.05188414837317626,"128":0.0015825638115074853,"129":-0.0836905657481252,"130":0.02315179186594215,"131":0.04375243296396646,"132":0.03602900344458659,"133":0.04260680627801735,"134":-0.0005681771050540796,"135":0.022774204507741466,"136":-0.09758434328617564,"137":-0.01726076799928102,"138":0.025310385769563282,"139":-0.05503900916254931,"140":0.07689686536854483,"141":0.055929908477184556,"142":-0.0009610394828946149,"143":-0.062263727008496736,"144":0.011870750208374869,"145":-0.060897808179287624,"146":-0.08015174040931389,"147":-0.0024829742421732734,"148":0.0225134713238616,"149":-0.016978496919627346,"150":0.03256892770330176,"151":0.02706984557719284,"152":0.05376001801838075,"153":0.061876426831599364,"154":0.013755642110599622,"155":0.027874690039609445,"156":-0.0193874683909888,"157":0.0089437472736656,"158":-0.04358346380907869,"159":-0.010479386750641811,"160":-0.02812317978632482,"161":0.008468403661891038,"162":0.036316051073374156,"163":0.027044285556831776,"164":0.01507028643028618,"165":-0.05204353914034318,"166":-0.012257229611817086,"167":-0.01437458088602152,"168":0.023492014311140515,"169":0.032970852241115366,"170":0.004567287494297313,"171":0.0321565538086343,"172":-0.04204486642930195,"173":-0.02885785917456799,"174":0.06525912289289192,"175":0.04855395074486056,"176":0.0364342251155947,"177":-0.008470147167916327,"178":0.01100205690326468,"179":0.034330659210169014,"180":-0.043594185985447356,"181":-0.019571121661984756,"182":-0.07548822630740054,"183":0.003963814909424292,"184":0.0694275462702257,"185":0.017386096920637258,"186":0.004102692627956519,"187":0.040541106639971375,"188":-0.008455544647396843,"189":-0.06167185280242731,"190":-0.0061512097791048305,"191":-0.08642239315404389,"192":0.024331373434651533,"193":0.014849356322231094,"194":-0.08087704061634471,"195":0.016107739467035174,"196":0.006210347792955198,"197":0.017847909321296044,"198":0.02026764778075177,"199":-0.010589355955501005,"200":-0.05051023123810607,"201":0.011959351163453546,"202":-0.07263547997460469,"203":0.048824587357730105,"204":-0.049126854881414696,"205":-0.01796802679547094,"206":0.09665112520979346,"207":-0.013524810960739786,"208":-0.0015844147981776257,"209":0.017440641543533916,"210":-0.01899122326523156,"211":-0.04872254547923438,"212":-0.02984921725657541,"213":-0.012786258860019687,"214":0.033592260896094045,"215":-0.01754926515896893,"216":0.05569477604356134,"217":0.044218168016232115,"218":-0.03616466706001355,"219":-0.02566932964456088,"220":-0.007562863689300882,"221":0.017343806106256444,"222":0.030050594160539828,"223":0.004440408923041519,"224":0.01975409779432418,"225":-0.058515972369403646,"226":0.01597443146607428,"227":-0.09833019015847849,"228":-0.08551997762087342,"229":-0.09239909978146095,"230":0.13301157258751584,"231":0.03313252037675546,"232":-0.053184176600694764,"233":0.04294935628228943,"234":-0.08372054344318358,"235":0.07263782248376323,"236":-0.0020926717464249886,"237":0.03784223148261964,"238":-0.04125422722484748,"239":-0.04142326414127535,"240":-0.020044626639810353,"241":0.1356659551148177,"242":0.004723667546657644,"243":0.0394063416004123,"244":0.022167559421356686,"245":-0.037344095522576816,"246":0.03473194677962056,"247":0.04657332338462411,"248":0.06005624459173438,"249":0.033225988617013064,"250":0.036383936337925936,"251":0.029166901267574867,"252":0.0771226078490711,"253":-0.07952417922690312,"254":-0.0044640839378856075,"255":0.02766839969717558,"256":-0.04561962472970614,"257":0.09375920043567215,"258":-0.05028392740256511,"259":-0.044754261210780126,"260":-0.020097111646241273,"261":-0.012970160039267502,"262":0.10600836436589689,"263":0.030227574607291578,"264":0.03611602214954812,"265":-0.003037706928853401,"266":-0.009600478892277366,"267":-0.050880359529181504,"268":-0.027375912482768213,"269":-0.07137727378208761,"270":0.009135724782627044,"271":0.04033746653433508,"272":0.03090318396467451,"273":-0.019889434412522885,"274":0.0239766637488688,"275":-0.012127370862803123,"276":0.027855755822086093,"277":0.07400668696571494,"278":0.021181520920743685,"279":-0.054462057877963835,"280":-0.10257555137399396,"281":0.03739170245799663,"282":-0.014325460575562218,"283":0.07949077298417956,"284":0.08948748439572515,"285":-0.002606656229154205,"286":-0.000294901387535764,"287":-0.0023125757795599343,"288":0.0024392875787270446,"289":0.07331387862505313,"290":0.008471222665123325,"291":-0.09534680170886668,"292":-0.009778388665437433,"293":-0.03507683937008518,"294":0.11339338049691541,"295":0.00986244922889593,"296":0.09785943778475192,"297":-0.0572053531091248,"298":0.027439095312224146,"299":0.004749146446120299,"300":0.042431615673087286,"301":-0.05146318602966428,"302":-0.15404386398661013,"303":0.026871649640313855,"304":-0.06696046643418391,"305":0.0548722666640489,"306":0.07737893561942268,"307":-0.02729153340519704,"308":0.021818576033024752,"309":0.0168147104852005,"310":-0.0827256304154076,"311":0.04640965435483128,"312":-0.054634221550312195,"313":-0.06418553895549989,"314":0.0046119156449924,"315":-0.0306391009395471,"316":0.05791585748152189,"317":-0.036146951256155135,"318":0.03469904170630759,"319":-0.0030014556428981307,"320":0.007581421541380202,"321":0.056098218351514954,"322":0.07183279682991252,"323":-0.059072414516258574,"324":-0.055508589424632604,"325":-0.05964472164390274,"326":0.029027587654176693,"327":-0.029117849698486367,"328":-0.007268457442891978,"329":0.06506878760222538,"330":0.006369316229716277,"331":0.010184601663970788,"332":-0.002388790390375731,"333":0.05674126582726178,"334":-0.024023090922069352,"335":0.051120798580354954,"336":0.06686394354054666,"337":0.012045954566025868,"338":-0.025309864837362844,"339":-0.07592718467962284,"340":0.012910758337790198,"341":0.0657285973324626,"342":0.060667447292272594,"343":-0.06057278945265266,"344":0.02400230624564229,"345":-0.014346800796043169,"346":-0.04953241968587753,"347":0.12601201000009918,"348":0.01631607645693179,"349":-0.028862065783798022,"350":-0.0038570223733585033,"351":0.0012050276531269334,"352":0.07518887428291855,"353":-0.10138835347395356,"354":-0.07810155009583333,"355":-0.03291931637637036,"356":0.07591036668293603,"357":0.05695577295159624,"358":-0.018463271299278126,"359":-0.04464975847346654,"360":0.05959064486840635,"361":-0.01157125883110658,"362":0.07569919499269245,"363":0.00017903316506812672,"364":-0.06783682964340079,"365":-0.008529412409511964,"366":-0.007511526372236153,"367":0.01713293312071054,"368":-0.10152344370451594,"369":0.025262166249296253,"370":0.00396856224262547,"371":-0.03203830687742957,"372":0.029505687224385527,"373":-0.02490103978428418,"374":-0.0030201170650742005,"375":-0.023070877022918202,"376":0.045248505403016795,"377":-0.07044260261339463,"378":0.04190376248640287,"379":-0.07178349617096544,"380":0.015043847808681121,"381":-0.03662149062067877,"382":-0.010982417671019049,"383":-0.055844132456292356,"384":-0.0024466973261491574,"385":-0.012885551876667614,"386":-0.01261140731123496,"387":0.0422943051341425,"388":-0.017432038536097046,"389":0.04144905955878553,"390":0.03569071194768358,"391":-0.0204124850745279,"392":0.03454928308250678,"393":-0.04060605762247064,"394":0.013703437061733858,"395":0.0506293756363378,"396":-0.04717798898023481,"397":0.004780509092599255,"398":0.025260847288028753,"399":0.051867771539071544,"400":0.023929616536422563,"401":-0.00015905826088945412,"402":-0.016217692289833528,"403":-0.012939677654361208,"404":-0.07289983158657636,"405":-0.045963879836269574,"406":-0.01577560850617633,"407":-0.07604273945673151,"408":-0.009808104081484451,"409":0.08812630501272709,"410":0.06114144957915028,"411":-0.006177277745143096,"412":-0.06764472092187013,"413":-0.0076866398665005435,"414":-0.02376495741631269,"415":0.03081852236182483,"416":-0.005864283962903011,"417":0.005185161300768716,"418":0.021701707078174884,"419":0.03129998521491916,"420":0.04017587358052172,"421":-0.08580840446048124,"422":0.02784889013226368,"423":-0.05677621845988028,"424":0.0854863244088355,"425":-0.02615574467184356,"426":0.02141839569519151,"427":-0.009527837206337894,"428":-0.03976303597204051,"429":0.013684194162975465,"430":-0.02240618581339013,"431":-0.0058791654809287166,"432":-0.04640846282479565,"433":-0.022922115657072265,"434":-0.05949052069753298,"435":0.016885951539543982,"436":-0.03530107954063277,"437":-0.016299143549693418,"438":-0.01169043563085742,"439":-0.05977931035487808,"440":0.039118812932366485,"441":-0.04161923527283209,"442":0.024297317712270432,"443":-0.04549653679639484,"444":-0.07675799141886663,"445":0.004000117001202038,"446":0.04518893942271412,"447":0.015403540141416037,"448":-0.0005367469559523661,"449":0.008305376221881806,"450":-0.052407048406217585,"451":0.046662628437119394,"452":-0.010159216791772506,"453":0.06511800467557012,"454":-0.011675913610084113,"455":-0.010841904326467103,"456":-0.024256253050635047,"457":0.10266962059553171,"458":0.10817103979983506,"459":-0.05427020440090898,"460":-0.01854496400402082,"461":0.008045248046037042,"462":0.024204524505438106,"463":-0.08198297986588407,"464":0.03872606059232615,"465":0.15643287757902025,"466":0.0604731612397314,"467":0.10616318009757575,"468":0.06402194353201307,"469":-0.009110405328214943,"470":0.08173166152306496,"471":-0.02037884658113348,"472":-0.016052917631951276,"473":0.008623666287793352,"474":0.004513137839133572,"475":0.060174640336270756,"476":0.03901633015325565,"477":-0.04692894063487277,"478":-0.09259309508391968,"479":0.09718514842211545,"480":-0.005946419358457327,"481":0.03766801432427562,"482":0.018556980665192315,"483":0.06691325631901572,"484":0.04495855826982184,"485":0.048376664161675687,"486":0.08957801194143208,"487":0.06927127459002289,"488":-0.06118769877078312,"489":-0.11601321085339722,"490":0.026638261756553913,"491":0.10889610009302468,"492":-0.014221834350963454,"493":0.0043329623502368,"494":-0.033228196461798344,"495":-0.03251460554153952,"496":0.02961708970678785,"497":-0.0591111424360755,"498":-0.015094297834198854,"499":-0.06867567371737372,"500":-0.06820138741003387,"501":0.07636283947607848,"502":0.011399992312411879,"503":-0.02791335718525185,"504":-0.008052161780711534,"505":0.022905926203728062,"506":0.038157751404837244,"507":0.06968421786007363,"508":0.01912061297678529,"509":0.028720852091951247,"510":-0.05726213666651267,"511":-0.10297363406465661,"512":0.07622432471227396,"513":0.0054287027332294065,"514":-0.061247797122831474,"515":0.03834004399835663,"516":-0.015313833793694873,"517":0.006987913030191119,"518":-0.012069574075263363,"519":0.020142769579002667,"520":0.023350550043537997,"521":0.11438779078925077,"522":-0.09227554245532016,"523":0.1548001763947787,"524":0.09580553715649069,"525":0.008762898199311059,"526":0.03509174088485318,"527":-0.04322571652198414,"528":-0.0036102595071070094,"529":0.015275844026443752,"530":-0.006621719284451955,"531":0.03966564891966531,"532":0.05288254092865692,"533":0.018631108138792707,"534":0.024343860031970702,"535":-0.012999989606002155,"536":0.006450134237937087,"537":-0.018253840862879657,"538":-0.03456686896825044,"539":0.013902931602950482,"540":0.050321494259911205,"541":0.07840345944264661,"542":-0.033368625300711593,"543":0.026125523236617498,"544":0.08077764511896655,"545":0.07416339303564118,"546":0.028768133336829746,"547":0.07162798799074847,"548":-0.025263100201917445,"549":-0.016037442022295435,"550":-0.008339768307631886,"551":-0.08378162108706803,"552":0.012065829787767489,"553":0.026439052236099193,"554":-0.0496334176281634,"555":-0.11982241090924046,"556":-0.04085342405196351,"557":0.0161762686127999,"558":0.03055660192341584,"559":-0.034268015595010255,"560":0.014209393423948523,"561":-0.018796177215152556,"562":-0.08544393568699017,"563":0.06634407057157202,"564":0.009868255728959382,"565":0.060507525783234165,"566":-0.12234356892628943,"567":0.07168202465783505,"568":-0.006483114939204959,"569":0.07726183049454285,"570":0.026663529887160267,"571":-0.052132940244749036,"572":0.004480722747333071,"573":-0.08907866211430991,"574":0.011728117484691398,"575":-0.014896299092756056,"576":0.06445868133864982,